{"parameters/graph_2encoder.embed.weight":{"_type":"histogram","values":[3,3,1,6,5,6,9,8,18,20,20,28,40,48,66,78,101,95,117,139,164,204,205,226,250,256,279,299,297,329,305,558,308,306,296,269,309,245,233,227,194,164,133,123,123,93,95,91,48,43,44,33,28,21,15,15,9,11,4,5,6,3,1,2],"bins":[-3.331860303878784,-3.225835084915161,-3.119809865951538,-3.013784408569336,-2.907759189605713,-2.80173397064209,-2.695708751678467,-2.5896835327148438,-2.4836583137512207,-2.3776328563690186,-2.2716076374053955,-2.1655824184417725,-2.0595571994781494,-1.9535318613052368,-1.8475066423416138,-1.7414813041687012,-1.6354560852050781,-1.529430866241455,-1.4234055280685425,-1.3173801898956299,-1.2113549709320068,-1.1053297519683838,-0.9993045330047607,-0.8932793140411377,-0.7872540950775146,-0.6812286376953125,-0.5752034187316895,-0.4691781997680664,-0.36315298080444336,-0.2571277618408203,-0.15110230445861816,-0.04507708549499512,0.06094789505004883,0.16697311401367188,0.2729983329772949,0.37902379035949707,0.4850490093231201,0.5910742282867432,0.6970994472503662,0.8031246662139893,0.9091501235961914,1.0151753425598145,1.1212005615234375,1.2272257804870605,1.3332509994506836,1.4392762184143066,1.5453015565872192,1.6513268947601318,1.7573521137237549,1.863377332687378,1.9694026708602905,2.075428009033203,2.181453227996826,2.287478446960449,2.3935036659240723,2.4995288848876953,2.6055541038513184,2.7115795612335205,2.8176047801971436,2.9236299991607666,3.0296552181243896,3.135680675506592,3.241705894470215,3.347731113433838,3.453756332397461]},"parameters/graph_2decoder.fc.weight":{"bins":[-0.7510461211204529,-0.729145348072052,-0.7072445750236511,-0.6853437423706055,-0.6634429693222046,-0.6415421962738037,-0.6196414232254028,-0.597740650177002,-0.5758398771286011,-0.5539390444755554,-0.5320382714271545,-0.5101374983787537,-0.4882367253303528,-0.4663359224796295,-0.44443514943122864,-0.42253434658050537,-0.4006335735321045,-0.3787328004837036,-0.35683199763298035,-0.33493122458457947,-0.3130304217338562,-0.2911296486854553,-0.26922887563705444,-0.24732810258865356,-0.22542732954025269,-0.20352649688720703,-0.18162572383880615,-0.15972495079040527,-0.1378241777420044,-0.11592340469360352,-0.09402257204055786,-0.07212179899215698,-0.05022108554840088,-0.0283203125,-0.006419539451599121,0.015481293201446533,0.03738206624984741,0.05928283929824829,0.08118361234664917,0.10308438539505005,0.1249852180480957,0.14688599109649658,0.16878676414489746,0.19068753719329834,0.21258831024169922,0.23448911309242249,0.25638988614082336,0.27829068899154663,0.3001914620399475,0.3220922350883484,0.34399303793907166,0.36589381098747253,0.3877946138381958,0.4096953868865967,0.43159615993499756,0.45349693298339844,0.4753977358341217,0.49729853868484497,0.5191993117332458,0.5411000847816467,0.5630008578300476,0.5849016904830933,0.6068024635314941,0.628703236579895,0.6506040096282959],"_type":"histogram","values":[1,1,1,0,1,0,1,1,5,3,4,8,4,7,9,15,18,13,20,26,31,35,37,39,41,69,60,68,71,87,71,68,84,77,63,86,87,86,71,82,81,63,59,60,48,42,32,30,23,28,26,17,16,11,14,5,9,8,6,4,4,5,4,2]},"_runtime":33.657698,"parameters/graph_2encoder.layer.bias_hh_l0":{"_type":"histogram","values":[1,1,0,0,2,1,0,1,0,0,0,0,1,1,0,0,0,1,0,1,0,2,2,2,0,0,1,0,0,0,0,1,0,2,1,0,0,1,1,1,0,0,0,0,0,1,0,0,0,0,1,0,1,0,1,0,0,1,1,0,0,0,0,2],"bins":[-0.2234400510787964,-0.21612975001335144,-0.2088194489479065,-0.20150914788246155,-0.1941988468170166,-0.18688854575157166,-0.1795782446861267,-0.17226794362068176,-0.16495764255523682,-0.15764734148979187,-0.15033704042434692,-0.14302673935890198,-0.13571642339229584,-0.1284061223268509,-0.12109582126140594,-0.113785520195961,-0.10647521913051605,-0.0991649180650711,-0.09185461699962616,-0.08454431593418121,-0.07723401486873627,-0.06992371380329132,-0.06261341273784637,-0.05530311167240143,-0.04799279570579529,-0.04068249464035034,-0.033372193574905396,-0.02606189250946045,-0.018751591444015503,-0.011441290378570557,-0.00413098931312561,0.003179311752319336,0.010489627718925476,0.017799928784370422,0.02511022984981537,0.032420530915260315,0.03973083198070526,0.04704113304615021,0.054351434111595154,0.0616617351770401,0.06897203624248505,0.07628235220909119,0.08359265327453613,0.09090295433998108,0.09821325540542603,0.10552355647087097,0.11283385753631592,0.12014415860176086,0.1274544596672058,0.13476476073265076,0.1420750617980957,0.14938536286354065,0.1566956639289856,0.16400596499443054,0.1713162660598755,0.17862656712532043,0.18593686819076538,0.19324716925621033,0.20055747032165527,0.2078677862882614,0.21517808735370636,0.2224883884191513,0.22979868948459625,0.2371089905500412,0.24441929161548615]},"train_loss":3.052187959917911,"final_train_seq_acc":1.0576862056565058e-05,"parameters/graph_2encoder.layer.bias_ih_l0":{"bins":[-0.23137108981609344,-0.22406700253486633,-0.21676291525363922,-0.2094588279724121,-0.2021547257900238,-0.1948506385087967,-0.18754655122756958,-0.18024246394634247,-0.17293837666511536,-0.16563427448272705,-0.15833020210266113,-0.15102609992027283,-0.14372201263904572,-0.1364179253578186,-0.1291138380765915,-0.12180974334478378,-0.11450565606355667,-0.10720156878232956,-0.09989747405052185,-0.09259338676929474,-0.08528929948806763,-0.07798521220684052,-0.0706811249256134,-0.0633770227432251,-0.056072935461997986,-0.048768848180770874,-0.04146476089954376,-0.03416067361831665,-0.02685658633708954,-0.019552484154701233,-0.012248396873474121,-0.004944309592247009,0.0023597776889801025,0.009663864970207214,0.016967952251434326,0.024272039532661438,0.031576141715049744,0.038880228996276855,0.04618431627750397,0.05348840355873108,0.06079249083995819,0.0680965781211853,0.07540068030357361,0.08270476758480072,0.09000885486602783,0.09731294214725494,0.10461702942848206,0.11192112416028976,0.11922521144151688,0.12652930617332458,0.1338333934545517,0.1411374807357788,0.14844156801700592,0.15574565529823303,0.16304975748062134,0.17035382986068726,0.17765793204307556,0.18496201932430267,0.19226610660552979,0.1995701938867569,0.206874281167984,0.21417838335037231,0.22148247063159943,0.22878655791282654,0.23609064519405365],"_type":"histogram","values":[1,1,1,1,0,0,1,0,0,0,0,1,0,0,0,0,1,0,0,0,1,1,0,0,0,0,0,0,2,0,1,0,1,0,2,4,1,0,0,0,1,0,0,0,2,1,0,1,1,0,1,0,1,0,1,0,0,0,1,0,1,0,0,1]},"train_char_acc":0.21546051154406246,"parameters/graph_2decoder.layer.weight_hh_l0":{"_type":"histogram","values":[1,0,0,3,0,0,1,0,2,1,0,3,3,3,6,11,8,10,13,9,15,25,23,29,23,36,38,34,44,37,25,41,48,43,36,42,39,41,40,32,23,33,32,27,25,25,22,10,18,14,6,7,2,4,3,2,1,0,1,0,1,0,1,2],"bins":[-0.5331245064735413,-0.517122209072113,-0.5011199712753296,-0.48511767387390137,-0.46911540627479553,-0.4531131386756897,-0.43711087107658386,-0.421108603477478,-0.4051063060760498,-0.38910406827926636,-0.37310177087783813,-0.3570995032787323,-0.34109723567962646,-0.32509493827819824,-0.3090927004814148,-0.2930904030799866,-0.27708813548088074,-0.2610858678817749,-0.24508360028266907,-0.22908130288124084,-0.213079035282135,-0.19707676768302917,-0.18107450008392334,-0.1650722324848175,-0.14906996488571167,-0.13306766748428345,-0.11706539988517761,-0.10106313228607178,-0.08506086468696594,-0.06905859708786011,-0.053056299686431885,-0.03705403208732605,-0.021051734685897827,-0.005049467086791992,0.010952800512313843,0.026955097913742065,0.0429573655128479,0.058959633111953735,0.07496190071105957,0.0909641683101654,0.10696646571159363,0.12296873331069946,0.1389710009098053,0.15497326850891113,0.17097553610801697,0.1869778037071228,0.20298010110855103,0.21898236870765686,0.2349846363067627,0.25098690390586853,0.26698917150497437,0.2829914689064026,0.2989937365055084,0.31499600410461426,0.3309982717037201,0.3470005393028259,0.36300283670425415,0.37900510430336,0.3950073719024658,0.41100963950157166,0.4270119071006775,0.4430142045021057,0.45901647210121155,0.4750187397003174,0.4910210072994232]},"gradients/graph_2decoder.layer.weight_ih_l0":{"bins":[-0.0039853863418102264,-0.00385635276325047,-0.0037273189518600702,-0.003598285373300314,-0.0034692517947405577,-0.0033402182161808014,-0.0032111844047904015,-0.003082150826230645,-0.002953117247670889,-0.002824083436280489,-0.0026950498577207327,-0.0025660162791609764,-0.0024369824677705765,-0.00230794888921082,-0.002178915310651064,-0.002049881499260664,-0.0019208479207009077,-0.0017918143421411514,-0.0016627805307507515,-0.0015337469521909952,-0.001404713373631239,-0.001275679562240839,-0.0011466459836810827,-0.0010176124051213264,-0.0008885785937309265,-0.0007595450151711702,-0.000630511436611414,-0.0005014778580516577,-0.00037244404666125774,-0.00024341046810150146,-0.00011437688954174519,1.4656689018011093e-05,0.00014369050040841103,0.00027272431179881096,0.00040175789035856724,0.0005307914689183235,0.0006598250474780798,0.0007888588588684797,0.000917892437428236,0.0010469260159879923,0.0011759595945477486,0.0013049934059381485,0.0014340269844979048,0.001563060563057661,0.001692094374448061,0.0018211279530078173,0.0019501615315675735,0.0020791953429579735,0.0022082289215177298,0.002337262500077486,0.002466296311467886,0.0025953298900276423,0.0027243634685873985,0.0028533972799777985,0.0029824308585375547,0.003111464437097311,0.003240498248487711,0.0033695318270474672,0.0034985654056072235,0.0036275992169976234,0.0037566327955573797,0.003885666374117136,0.004014700185507536,0.0041437335312366486,0.0042727673426270485],"_type":"histogram","values":[2,0,0,1,3,6,4,4,7,10,11,13,21,22,27,38,44,52,49,84,95,143,151,196,212,311,296,421,498,651,827,784,585,478,381,336,268,207,185,153,121,100,84,75,55,25,25,22,25,20,16,14,11,7,6,3,1,0,2,0,1,1,1,1]},"train_seq_acc":1.0576862056565058e-05,"gradients/graph_2encoder.embed.weight":{"_type":"histogram","values":[1,1,0,1,2,5,2,3,3,2,4,4,6,8,11,7,10,9,9,13,12,13,13,18,27,41,58,80,122,183,6206,257,156,95,53,54,35,23,23,16,10,15,5,13,2,6,2,6,8,5,4,4,4,1,4,2,0,0,0,0,1,1,0,1],"bins":[-1.0121397470141957e-10,-9.79271594370168e-11,-9.464035111150793e-11,-9.135353584710515e-11,-8.806672058270237e-11,-8.47799053182996e-11,-8.149309699279073e-11,-7.820628172838795e-11,-7.491947340287908e-11,-7.16326581384763e-11,-6.834584287407353e-11,-6.505902760967075e-11,-6.177221928416188e-11,-5.84854040197591e-11,-5.519859222480328e-11,-5.19117769604005e-11,-4.862496516544468e-11,-4.5338153370488854e-11,-4.205134157553303e-11,-3.8764526311130254e-11,-3.547771104672748e-11,-3.2190902721218606e-11,-2.890408745681583e-11,-2.5617272192413054e-11,-2.2330463866904182e-11,-1.9043648602501406e-11,-1.575683333809863e-11,-1.2470018073695854e-11,-9.183209748186982e-12,-5.896394483784206e-12,-2.6095792193814304e-12,6.772291061274416e-13,3.964037431636314e-12,7.2508526960390896e-12,1.0537661021547962e-11,1.3824476285950738e-11,1.7111291550353513e-11,2.0398099875862385e-11,2.368491514026516e-11,2.6971730404667937e-11,3.0258545669070713e-11,3.3545353994579585e-11,3.683216925898236e-11,4.011898452338514e-11,4.340579284889401e-11,4.6692608113296785e-11,4.997942337769956e-11,5.3266235172655385e-11,5.655304696761121e-11,5.983985529312008e-11,6.312667055752286e-11,6.641348582192563e-11,6.970030108632841e-11,7.298711635073118e-11,7.627392467624006e-11,7.956073994064283e-11,8.28475482661517e-11,8.613436353055448e-11,8.942117879495726e-11,9.270799405936003e-11,9.59948023848689e-11,9.928161764927168e-11,1.0256843291367446e-10,1.0585524123918333e-10,1.091420565035861e-10]},"final_val_loss":3.198958928009559,"_step":1,"gradients/graph_2encoder.layer.weight_hh_l0":{"_type":"histogram","values":[8,3,1,2,1,0,0,0,0,6,15,5,2,5,6,5,13,1,8,5,4,0,19,8,4,27,9,52,33,48,75,150,162,56,51,32,56,2,29,1,16,15,0,0,6,12,2,12,2,10,3,2,5,16,5,1,0,0,0,0,0,2,3,8],"bins":[-0.0010308922501280904,-0.0009986289078369737,-0.0009663656819611788,-0.0009341023396700621,-0.0009018390555866063,-0.0008695757715031505,-0.0008373124874196947,-0.0008050492033362389,-0.0007727858610451221,-0.0007405226351693273,-0.0007082592928782105,-0.0006759960087947547,-0.0006437327247112989,-0.0006114693824201822,-0.0005792061565443873,-0.0005469428142532706,-0.0005146795301698148,-0.000482416246086359,-0.0004501529620029032,-0.0004178896197117865,-0.0003856263356283307,-0.0003533630515448749,-0.0003210997674614191,-0.0002888364833779633,-0.0002565731992945075,-0.0002243098570033908,-0.000192046572919935,-0.0001597832888364792,-0.00012752000475302339,-9.525672066956758e-05,-6.299337837845087e-05,-3.073015250265598e-05,1.5331897884607315e-06,3.3796532079577446e-05,6.605975795537233e-05,9.832310024648905e-05,0.00013058638432994485,0.00016284966841340065,0.00019511295249685645,0.00022737623658031225,0.00025963957887142897,0.00029190286295488477,0.00032416614703834057,0.00035642943112179637,0.00038869271520525217,0.00042095599928870797,0.0004532193415798247,0.0004854826256632805,0.0005177459097467363,0.0005500091938301921,0.0005822725361213088,0.0006145357619971037,0.0006467991042882204,0.0006790623883716762,0.000711325672455132,0.0007435890147462487,0.0007758522406220436,0.0008081155829131603,0.0008403788669966161,0.0008726421510800719,0.0009049054351635277,0.0009371687192469835,0.0009694320615381002,0.0010016952874138951,0.0010339586297050118]},"gradients/graph_2encoder.layer.bias_ih_l0":{"_type":"histogram","values":[1,0,0,0,0,0,0,0,0,0,0,1,0,0,0,0,1,0,0,0,0,1,0,0,0,0,0,1,0,0,1,1,2,1,1,3,1,2,5,3,1,1,0,1,0,0,1,0,0,1,0,0,0,0,0,0,1,0,0,0,0,0,0,1],"bins":[-0.001040592440403998,-0.0010131506714969873,-0.0009857090190052986,-0.000958267308305949,-0.0009308255976065993,-0.0009033838869072497,-0.0008759421762079,-0.0008485004655085504,-0.0008210587548092008,-0.0007936170441098511,-0.0007661753334105015,-0.0007387336227111518,-0.0007112919120118022,-0.0006838502013124526,-0.0006564084906131029,-0.0006289667799137533,-0.0006015250692144036,-0.000574083358515054,-0.0005466416478157043,-0.0005191999371163547,-0.0004917582264170051,-0.0004643165157176554,-0.0004368748050183058,-0.00040943309431895614,-0.0003819913836196065,-0.00035454967292025685,-0.0003271079622209072,-0.00029966625152155757,-0.00027222454082220793,-0.0002447828301228583,-0.00021734111942350864,-0.000189899408724159,-0.00016245763981714845,-0.0001350159291177988,-0.00010757421841844916,-8.013250771909952e-05,-5.269079701974988e-05,-2.5249086320400238e-05,2.1926243789494038e-06,2.9634335078299046e-05,5.707604577764869e-05,8.451775647699833e-05,0.00011195946717634797,0.0001394011778756976,0.00016684288857504725,0.0001942845992743969,0.00022172630997374654,0.0002491680206730962,0.0002766097313724458,0.00030405144207179546,0.0003314931527711451,0.00035893486347049475,0.0003863765741698444,0.00041381828486919403,0.00044125999556854367,0.0004687017062678933,0.000496143416967243,0.0005235851276665926,0.0005510268383659422,0.0005784685490652919,0.0006059102597646415,0.0006333519704639912,0.0006607936811633408,0.0006882353918626904,0.0007156771025620401]},"parameters/graph_2encoder.layer.weight_ih_l0":{"_type":"histogram","values":[2,2,4,5,10,24,35,53,76,94,104,132,146,168,174,197,172,183,178,205,179,197,208,177,176,159,193,190,207,170,197,198,192,179,189,197,180,189,191,141,183,189,193,153,161,187,184,184,174,175,163,163,118,89,66,59,32,22,15,3,4,1,0,1],"bins":[-0.2522948086261749,-0.24435102939605713,-0.23640725016593933,-0.22846348583698273,-0.22051970660686493,-0.21257592737674713,-0.20463216304779053,-0.19668838381767273,-0.18874460458755493,-0.18080082535743713,-0.17285704612731934,-0.16491328179836273,-0.15696950256824493,-0.14902572333812714,-0.14108195900917053,-0.13313817977905273,-0.12519440054893494,-0.11725062131881714,-0.10930684208869934,-0.10136307775974274,-0.09341929852962494,-0.08547551929950714,-0.07753175497055054,-0.06958797574043274,-0.06164419651031494,-0.053700417280197144,-0.045756638050079346,-0.03781287372112274,-0.029869094491004944,-0.021925315260887146,-0.013981550931930542,-0.006037771701812744,0.0019060373306274414,0.00984981656074524,0.017793595790863037,0.02573736011981964,0.03368113934993744,0.04162491858005524,0.04956868290901184,0.05751246213912964,0.06545624136924744,0.07340002059936523,0.08134379982948303,0.08928756415843964,0.09723134338855743,0.10517512261867523,0.11311888694763184,0.12106266617774963,0.12900644540786743,0.13695022463798523,0.14489400386810303,0.15283776819705963,0.16078154742717743,0.16872532665729523,0.17666909098625183,0.18461287021636963,0.19255664944648743,0.20050042867660522,0.20844420790672302,0.21638797223567963,0.22433175146579742,0.23227553069591522,0.24021929502487183,0.24816307425498962,0.2561068534851074]},"parameters/graph_2decoder.layer.weight_ih_l0":{"_type":"histogram","values":[2,4,2,2,0,1,5,5,7,14,12,11,37,39,61,66,111,105,132,126,158,198,207,233,252,259,285,280,274,302,303,291,271,306,279,271,300,282,246,258,255,247,238,232,189,187,175,136,108,105,77,62,54,33,25,24,14,11,11,5,0,1,1,5],"bins":[-0.5562763810157776,-0.5395691990852356,-0.5228620171546936,-0.5061548352241516,-0.4894476532936096,-0.4727404713630676,-0.45603328943252563,-0.43932610750198364,-0.42261892557144165,-0.40591174364089966,-0.38920456171035767,-0.3724973797798157,-0.3557901978492737,-0.3390830159187317,-0.3223758339881897,-0.3056686520576477,-0.2889614701271057,-0.2722542881965637,-0.25554710626602173,-0.23883992433547974,-0.22213274240493774,-0.20542556047439575,-0.18871837854385376,-0.17201119661331177,-0.15530401468276978,-0.13859683275222778,-0.12188965082168579,-0.1051824688911438,-0.0884752869606018,-0.07176810503005981,-0.05506092309951782,-0.03835374116897583,-0.021646618843078613,-0.004939436912536621,0.011767745018005371,0.028474926948547363,0.045182108879089355,0.06188929080963135,0.07859647274017334,0.09530365467071533,0.11201083660125732,0.12871801853179932,0.1454252004623413,0.1621323823928833,0.1788395643234253,0.19554674625396729,0.21225392818450928,0.22896111011505127,0.24566829204559326,0.26237547397613525,0.27908265590667725,0.29578983783721924,0.31249701976776123,0.3292042016983032,0.3459113836288452,0.3626185655593872,0.3793257474899292,0.3960329294204712,0.4127401113510132,0.4294472932815552,0.44615447521209717,0.46286165714263916,0.47956883907318115,0.49627602100372314,0.5129832029342651]},"val_loss":3.198958928009559,"gradients/graph_2decoder.fc.weight":{"values":[1,2,0,0,2,1,2,1,3,2,5,6,9,5,12,5,5,5,18,27,21,33,31,51,51,41,60,58,85,177,563,192,111,64,53,50,53,35,29,37,31,11,11,21,12,8,7,5,4,6,10,6,2,2,0,1,1,1,0,1,1,0,0,1],"bins":[-0.034196216613054276,-0.033079054206609726,-0.031961891800165176,-0.030844731256365776,-0.029727568849921227,-0.028610406443476677,-0.027493245899677277,-0.026376083493232727,-0.025258921086788177,-0.024141758680343628,-0.02302459627389908,-0.021907435730099678,-0.02079027332365513,-0.01967311091721058,-0.01855595037341118,-0.01743878796696663,-0.01632162556052208,-0.01520446315407753,-0.01408730074763298,-0.01297014020383358,-0.01185297779738903,-0.010735815390944481,-0.00961865484714508,-0.008501492440700531,-0.0073843300342559814,-0.006267167627811432,-0.005150005221366882,-0.004032844677567482,-0.0029156841337680817,-0.001798521727323532,-0.0006813593208789825,0.000435803085565567,0.001552969217300415,0.0026701316237449646,0.003787294030189514,0.004904456436634064,0.006021618843078613,0.007138779386878014,0.008255939930677414,0.009373102337121964,0.010490264743566513,0.011607427150011063,0.012724589556455612,0.013841750100255013,0.014958912506699562,0.01607607491314411,0.017193235456943512,0.01831039786338806,0.01942756026983261,0.02054472267627716,0.02166188508272171,0.02277904562652111,0.02389620803296566,0.02501337043941021,0.02613053098320961,0.02724769338965416,0.02836485579609871,0.02948201820254326,0.030599180608987808,0.03171634301543236,0.03283350169658661,0.03395066410303116,0.03506782650947571,0.03618498891592026,0.03730215132236481],"_type":"histogram"},"val_seq_acc":0,"final_val_char_acc":0.19296446686627566,"beam_search":false,"parameters/graph_2encoder.layer.weight_hh_l0":{"values":[3,1,2,3,12,7,9,10,10,13,10,10,16,13,23,20,16,22,17,21,19,24,36,23,22,29,25,20,30,21,27,30,29,29,18,24,32,34,21,21,22,18,24,20,14,21,14,21,17,11,18,14,11,11,9,9,7,7,2,0,1,0,0,1],"bins":[-0.2811557352542877,-0.2720683813095093,-0.26298102736473083,-0.2538937032222748,-0.24480634927749634,-0.2357189953327179,-0.22663164138793945,-0.2175443023443222,-0.20845696330070496,-0.1993696093559265,-0.19028225541114807,-0.18119491636753082,-0.17210756242275238,-0.16302022337913513,-0.1539328694343567,-0.14484553039073944,-0.135758176445961,-0.12667082250118256,-0.11758348345756531,-0.10849612951278687,-0.09940879046916962,-0.09032143652439117,-0.08123409748077393,-0.07214674353599548,-0.06305938959121704,-0.05397205054759979,-0.04488469660282135,-0.0357973575592041,-0.02671000361442566,-0.017622649669647217,-0.008535325527191162,0.0005520284175872803,0.009639382362365723,0.018726736307144165,0.027814090251922607,0.03690141439437866,0.045988768339157104,0.05507612228393555,0.0641634613275528,0.07325081527233124,0.08233815431594849,0.09142550826072693,0.10051286220550537,0.10960020124912262,0.11868755519390106,0.1277748942375183,0.13686224818229675,0.145949587225914,0.15503694117069244,0.1641242951154709,0.17321163415908813,0.18229898810386658,0.19138632714748383,0.20047368109226227,0.20956102013587952,0.21864837408065796,0.2277357280254364,0.23682306706905365,0.2459104061126709,0.25499776005744934,0.2640851140022278,0.2731724679470062,0.2822597920894623,0.2913471460342407,0.30043449997901917],"_type":"histogram"},"parameters/graph_2decoder.embed.weight":{"bins":[-0.5215217471122742,-0.5049464702606201,-0.48837119340896606,-0.4717959463596344,-0.45522066950798035,-0.4386453926563263,-0.42207014560699463,-0.4054948687553406,-0.3889195919036865,-0.37234431505203247,-0.3557690382003784,-0.33919379115104675,-0.3226185142993927,-0.30604323744773865,-0.289467990398407,-0.27289271354675293,-0.2563174366950989,-0.23974215984344482,-0.22316688299179077,-0.2065916359424591,-0.19001635909080505,-0.173441082239151,-0.15686583518981934,-0.14029055833816528,-0.12371528148651123,-0.10714000463485718,-0.09056472778320312,-0.07398948073387146,-0.05741420388221741,-0.040838927030563354,-0.02426367998123169,-0.007688403129577637,0.008886873722076416,0.02546215057373047,0.04203742742538452,0.058612674474716187,0.07518795132637024,0.09176322817802429,0.10833847522735596,0.12491375207901001,0.14148902893066406,0.15806430578231812,0.17463958263397217,0.19121482968330383,0.20779010653495789,0.22436538338661194,0.2409406304359436,0.25751590728759766,0.2740911841392517,0.29066646099090576,0.3072417378425598,0.3238169848918915,0.34039226174354553,0.3569675385951996,0.37354278564453125,0.3901180624961853,0.40669333934783936,0.4232686161994934,0.43984389305114746,0.4564191401004791,0.4729944169521332,0.48956969380378723,0.5061449408531189,0.522720217704773,0.539295494556427],"_type":"histogram","values":[3,2,3,3,3,4,7,7,9,19,19,28,44,44,75,75,111,147,185,229,292,348,420,520,586,647,717,727,822,905,903,887,878,832,845,763,701,605,548,452,404,350,269,224,141,125,108,84,76,47,35,27,20,17,10,9,10,5,2,1,1,0,3,1]},"gradients/graph_2encoder.layer.bias_hh_l0":{"values":[1,0,0,0,0,0,0,0,0,0,0,1,0,0,0,0,1,0,0,0,0,1,0,0,0,0,0,1,0,0,1,1,2,1,1,3,1,2,5,3,1,1,0,1,0,0,1,0,0,1,0,0,0,0,0,0,1,0,0,0,0,0,0,1],"bins":[-0.0010405925568193197,-0.0010131507879123092,-0.0009857091354206204,-0.0009582674247212708,-0.0009308257140219212,-0.0009033840033225715,-0.0008759422926232219,-0.0008485005237162113,-0.0008210588712245226,-0.000793617102317512,-0.0007661754498258233,-0.0007387336809188128,-0.0007112919702194631,-0.0006838502595201135,-0.0006564085488207638,-0.0006289668381214142,-0.0006015251274220645,-0.0005740834167227149,-0.0005466417060233653,-0.0005191999953240156,-0.000491758284624666,-0.00046431657392531633,-0.0004368748632259667,-0.00040943315252661705,-0.0003819913836196065,-0.00035454967292025685,-0.0003271079622209072,-0.00029966625152155757,-0.00027222454082220793,-0.0002447828301228583,-0.00021734111942350864,-0.000189899408724159,-0.00016245775623247027,-0.00013501604553312063,-0.00010757433483377099,-8.013262413442135e-05,-5.269091343507171e-05,-2.5249202735722065e-05,2.192507963627577e-06,2.963421866297722e-05,5.707592936232686e-05,8.451769826933742e-05,0.00011195940896868706,0.0001394011196680367,0.00016684283036738634,0.00019428454106673598,0.00022172625176608562,0.00024916796246543527,0.0002766096731647849,0.00030405138386413455,0.0003314930945634842,0.00035893480526283383,0.0003863765159621835,0.0004138182557653636,0.0004412599664647132,0.00046870167716406286,0.000496143358759582,0.0005235851276665926,0.0005510267801582813,0.0005784685490652919,0.0006059102597646415,0.0006333519704639912,0.0006607936811633408,0.0006882353918626904,0.0007156771025620401],"_type":"histogram"},"val_char_acc":0.19296446686627566,"parameters/graph_2decoder.layer.bias_ih_l0":{"bins":[-0.28277623653411865,-0.27499714493751526,-0.26721805334091187,-0.25943896174430847,-0.2516598701477051,-0.24388077855110168,-0.2361016869544983,-0.2283225953578949,-0.2205435037612915,-0.2127644121646881,-0.20498532056808472,-0.19720622897148132,-0.18942713737487793,-0.18164804577827454,-0.17386895418167114,-0.16608986258506775,-0.15831077098846436,-0.15053169429302216,-0.14275260269641876,-0.13497351109981537,-0.12719441950321198,-0.11941532790660858,-0.11163623631000519,-0.1038571447134018,-0.0960780531167984,-0.08829896152019501,-0.08051986992359161,-0.07274077832698822,-0.06496168673038483,-0.05718259513378143,-0.04940350353717804,-0.041624411940574646,-0.03384532034397125,-0.02606622874736786,-0.018287137150764465,-0.010508045554161072,-0.0027289539575576782,0.005050137639045715,0.012829229235649109,0.020608320832252502,0.028387412428855896,0.03616650402545929,0.04394559562206268,0.05172468721866608,0.05950377881526947,0.06728287041187286,0.07506196200847626,0.08284105360507965,0.09062013775110245,0.09839922934770584,0.10617832094430923,0.11395741254091263,0.12173650413751602,0.12951558828353882,0.1372946798801422,0.1450737714767456,0.152852863073349,0.1606319546699524,0.1684110462665558,0.17619013786315918,0.18396922945976257,0.19174832105636597,0.19952741265296936,0.20730650424957275,0.21508559584617615],"_type":"histogram","values":[1,0,0,0,0,0,0,0,0,2,0,0,0,1,0,1,1,0,0,0,1,1,0,0,0,0,1,0,1,1,0,1,0,0,2,1,0,0,0,1,0,1,2,1,0,0,0,1,0,1,0,2,1,0,2,3,0,0,0,1,0,0,0,1]},"_timestamp":1.746372893312881e+09,"epoch":0,"gradients/graph_2decoder.layer.bias_hh_l0":{"_type":"histogram","values":[2,0,0,0,0,0,0,0,0,0,0,0,1,0,0,0,0,0,1,0,0,2,2,1,1,2,0,0,1,0,3,3,1,1,1,1,0,1,1,1,2,0,0,1,0,0,0,0,0,0,0,1,0,0,0,1,0,0,0,0,0,0,0,1],"bins":[-0.02173134684562683,-0.021000757813453674,-0.020270168781280518,-0.01953957974910736,-0.018808990716934204,-0.018078403547406197,-0.01734781451523304,-0.016617225483059883,-0.015886636450886726,-0.01515604741871357,-0.014425458386540413,-0.01369487028568983,-0.012964281253516674,-0.012233692221343517,-0.011503104120492935,-0.010772515088319778,-0.010041926056146622,-0.009311337023973465,-0.008580747991800308,-0.007850159890949726,-0.007119570858776569,-0.006388981826603413,-0.0056583937257528305,-0.004927804693579674,-0.004197215661406517,-0.0034666266292333603,-0.0027360375970602036,-0.002005448564887047,-0.0012748613953590393,-0.0005442723631858826,0.00018631666898727417,0.0009169057011604309,0.0016474965959787369,0.0023780856281518936,0.0031086746603250504,0.003839263692498207,0.004569852724671364,0.005300439894199371,0.006031028926372528,0.006761617958545685,0.0074922069907188416,0.008222796022891998,0.008953385055065155,0.009683973155915737,0.010414562188088894,0.01114515122026205,0.011875739321112633,0.01260632835328579,0.013336917385458946,0.014067506417632103,0.01479809544980526,0.015528683550655842,0.016259271651506424,0.01698986068367958,0.017720449715852737,0.018451038748025894,0.01918162778019905,0.019912216812372208,0.020642805844545364,0.02137339487671852,0.022103983908891678,0.022834571078419685,0.023565160110592842,0.024295749142766,0.025026338174939156]},"parameters/graph_2decoder.layer.bias_hh_l0":{"values":[1,0,0,1,1,2,0,0,0,1,1,0,0,0,0,0,1,1,0,1,1,1,0,0,1,2,0,1,0,0,1,0,0,1,0,0,0,1,0,1,0,2,1,1,0,0,0,1,0,0,0,0,0,1,0,0,1,1,0,0,2,0,0,2],"bins":[-0.1860511749982834,-0.18015870451927185,-0.17426621913909912,-0.16837374866008759,-0.16248126327991486,-0.15658879280090332,-0.1506963074207306,-0.14480383694171906,-0.13891136646270752,-0.1330188810825348,-0.12712639570236206,-0.12123392522335052,-0.11534145474433899,-0.10944897681474686,-0.10355649888515472,-0.09766402095556259,-0.09177154302597046,-0.08587906509637833,-0.0799865871667862,-0.07409410923719406,-0.06820163130760193,-0.06230916082859039,-0.056416675448417664,-0.05052420496940613,-0.04463173449039459,-0.03873924911022186,-0.03284677863121033,-0.026954293251037598,-0.021061822772026062,-0.015169337391853333,-0.009276866912841797,-0.0033843815326690674,0.0025080889463424683,0.008400559425354004,0.014293044805526733,0.02018551528453827,0.026078000664711,0.031970471143722534,0.037862956523895264,0.0437554270029068,0.04964791238307953,0.055540382862091064,0.0614328533411026,0.06732533872127533,0.07321780920028687,0.079110287129879,0.08500276505947113,0.09089524298906326,0.0967877209186554,0.10268019884824753,0.10857267677783966,0.1144651547074318,0.12035763263702393,0.12625010311603546,0.132142573595047,0.13803505897521973,0.14392754435539246,0.149820014834404,0.15571248531341553,0.16160497069358826,0.1674974411725998,0.17338992655277252,0.17928239703178406,0.1851748824119568,0.19106735289096832],"_type":"histogram"},"gradients/graph_2encoder.layer.weight_ih_l0":{"values":[1,0,0,1,2,3,1,2,5,4,3,2,5,8,7,10,9,16,18,20,21,43,51,53,94,125,175,313,598,2685,2353,594,282,197,124,97,60,40,36,27,20,20,11,12,8,8,2,3,3,4,4,3,2,1,2,0,1,0,1,0,0,0,0,2],"bins":[-8.840363996398537e-10,-8.545555929551085e-10,-8.250747862703633e-10,-7.955939795856182e-10,-7.66113172900873e-10,-7.366324217272791e-10,-7.071516150425339e-10,-6.776708083577887e-10,-6.481900016730435e-10,-6.187091949882983e-10,-5.892283883035532e-10,-5.59747581618808e-10,-5.302668304452141e-10,-5.007859682493176e-10,-4.713052170757237e-10,-4.4182441039097853e-10,-4.1234360370623335e-10,-3.828627970214882e-10,-3.53381990336743e-10,-3.2390118365199783e-10,-2.9442037696725265e-10,-2.649396257936587e-10,-2.3545881910891353e-10,-2.0597801242416836e-10,-1.7649720573942318e-10,-1.47016399054678e-10,-1.1753559236993283e-10,-8.805478568518765e-11,-5.857403451159371e-11,-2.9093227826848533e-11,3.8757885789664215e-13,2.986838554264182e-11,5.934930324968946e-11,8.883010993443463e-11,1.183109166191798e-10,1.4779172330392498e-10,1.7727252998867016e-10,2.067532811622641e-10,2.362340878470093e-10,2.6571489453175445e-10,2.9519570121649963e-10,3.246765079012448e-10,3.5415731458599e-10,3.8363812127073516e-10,4.131188724443291e-10,4.425996791290743e-10,4.720804858138195e-10,5.015612924985646e-10,5.310420991833098e-10,5.60522905868055e-10,5.900037125528002e-10,6.194844637263941e-10,6.489653259222905e-10,6.784460770958844e-10,7.079268837806296e-10,7.374076904653748e-10,7.6688849715012e-10,7.963693038348651e-10,8.258501105196103e-10,8.553309172043555e-10,8.848116683779494e-10,9.142924750626946e-10,9.437732817474398e-10,9.732541439433362e-10,1.0027348951169301e-09],"_type":"histogram"},"_wandb":{"runtime":33},"final_val_seq_acc":0,"gradients/graph_2decoder.layer.weight_hh_l0":{"values":[1,2,0,0,3,1,4,1,6,4,2,3,4,5,1,6,2,6,6,18,7,9,23,16,20,18,20,45,48,46,58,53,66,67,64,48,67,55,32,27,25,18,15,14,15,9,9,5,5,5,2,7,3,4,4,5,6,1,2,0,0,2,3,1],"bins":[-0.028870975598692894,-0.027992693707346916,-0.027114413678646088,-0.02623613178730011,-0.02535785175859928,-0.024479569867253304,-0.023601289838552475,-0.022723007947206497,-0.02184472605586052,-0.02096644416451454,-0.020088164135813713,-0.019209884107112885,-0.018331602215766907,-0.01745332032442093,-0.01657503843307495,-0.015696758404374123,-0.01481847744435072,-0.013940196484327316,-0.013061914592981339,-0.01218363456428051,-0.011305352672934532,-0.010427072644233704,-0.009548790752887726,-0.008670508861541748,-0.0077922288328409195,-0.006913946941494942,-0.006035666912794113,-0.005157385021448135,-0.004279103130102158,-0.003400823101401329,-0.0025225412100553513,-0.0016442611813545227,-0.0007659792900085449,0.00011230260133743286,0.0009905826300382614,0.0018688645213842392,0.0027471445500850677,0.0036254264414310455,0.004503708332777023,0.005381988361477852,0.00626027025282383,0.007138550281524658,0.008016832172870636,0.008895114064216614,0.009773394092917442,0.01065167598426342,0.011529956012964249,0.012408237904310226,0.01328651886433363,0.014164799824357033,0.015043080784380436,0.01592136174440384,0.016799643635749817,0.017677925527095795,0.018556205555796623,0.019434485584497452,0.02031276747584343,0.021191049367189407,0.022069331258535385,0.022947611287236214,0.02382589317858219,0.02470417320728302,0.025582455098628998,0.026460735127329826,0.027339017018675804],"_type":"histogram"},"parameters/graph_2decoder.fc.bias":{"values":[1,1,0,0,0,1,0,1,1,1,0,1,0,1,1,0,1,1,2,0,1,1,1,0,2,1,3,0,0,0,1,1,1,2,3,1,3,3,1,1,3,1,1,1,2,4,1,1,2,0,0,3,0,1,0,0,0,0,1,0,1,2,0,1],"bins":[-0.4330503046512604,-0.4223739206790924,-0.41169753670692444,-0.40102115273475647,-0.3903447389602661,-0.37966835498809814,-0.3689919710159302,-0.3583155870437622,-0.34763920307159424,-0.33696281909942627,-0.3262864351272583,-0.31561005115509033,-0.30493366718292236,-0.2942572832107544,-0.28358086943626404,-0.27290448546409607,-0.2622281014919281,-0.25155171751976013,-0.24087533354759216,-0.230198934674263,-0.21952255070209503,-0.20884616672992706,-0.1981697678565979,-0.18749338388442993,-0.17681699991226196,-0.166140615940094,-0.15546423196792603,-0.14478784799575806,-0.1341114342212677,-0.12343505024909973,-0.11275866627693176,-0.1020822823047638,-0.09140592813491821,-0.08072954416275024,-0.07005316019058228,-0.05937677621841431,-0.04870039224624634,-0.03802397847175598,-0.027347594499588013,-0.016671210527420044,-0.005994826555252075,0.0046815574169158936,0.015357941389083862,0.026034340262413025,0.036710724234580994,0.04738710820674896,0.058063507080078125,0.0687398910522461,0.07941627502441406,0.09009265899658203,0.10076904296875,0.11144544184207916,0.12212182581424713,0.1327982097864151,0.14347460865974426,0.15415099263191223,0.1648273766040802,0.17550376057624817,0.18618014454841614,0.1968565434217453,0.20753292739391327,0.21820931136608124,0.2288857102394104,0.23956209421157837,0.25023847818374634],"_type":"histogram"},"beam_width":3,"gradients/graph_2decoder.embed.weight":{"bins":[-0.009125047363340855,-0.008802724070847034,-0.008480400778353214,-0.008158077485859394,-0.007835754193365574,-0.007513430900871754,-0.0071911076083779335,-0.006868784315884113,-0.006546461023390293,-0.006224137730896473,-0.005901814438402653,-0.0055794911459088326,-0.005257167853415012,-0.004934844560921192,-0.004612521268427372,-0.004290197975933552,-0.003967874683439732,-0.0036455513909459114,-0.0033232280984520912,-0.003000904805958271,-0.002678581513464451,-0.0023562582209706306,-0.0020339349284768105,-0.0017116116359829903,-0.00138928834348917,-0.0010669650509953499,-0.0007446417585015297,-0.0004223184660077095,-9.999517351388931e-05,0.00022232811897993088,0.0005446514114737511,0.0008669747039675713,0.0011892979964613914,0.0015116212889552116,0.0018339445814490318,0.002156267873942852,0.002478591166436672,0.0028009144589304924,0.0031232377514243126,0.0034455610439181328,0.003767884336411953,0.004090207628905773,0.004412530921399593,0.0047348542138934135,0.005057177506387234,0.005379500798881054,0.005701824091374874,0.006024147383868694,0.0063464706763625145,0.006668793968856335,0.006991117261350155,0.007313440553843975,0.007635763846337795,0.007958087138831615,0.008280410431325436,0.008602733723819256,0.008925057016313076,0.009247380308806896,0.009569703601300716,0.009892026893794537,0.010214350186288357,0.010536673478782177,0.010858996771275997,0.011181320063769817,0.011503643356263638],"_type":"histogram","values":[1,1,1,2,1,2,5,3,14,8,10,13,11,16,19,27,28,24,45,54,72,118,136,219,295,457,669,1001,10151,968,630,403,247,181,144,86,53,57,34,26,25,28,17,12,13,14,8,10,5,4,6,1,2,3,1,0,1,0,0,0,0,0,1,1]},"final_train_loss":3.052187959917911,"gradients/graph_2decoder.layer.bias_ih_l0":{"_type":"histogram","values":[2,0,0,0,0,0,0,0,0,0,0,0,1,0,0,0,0,0,1,0,0,2,2,1,1,2,0,0,1,0,3,3,1,1,1,1,0,1,1,1,2,0,0,1,0,0,0,0,0,0,0,1,0,0,0,1,0,0,0,0,0,0,0,1],"bins":[-0.02173134684562683,-0.021000757813453674,-0.020270168781280518,-0.01953957974910736,-0.018808990716934204,-0.018078403547406197,-0.01734781451523304,-0.016617225483059883,-0.015886636450886726,-0.01515604741871357,-0.014425458386540413,-0.01369487028568983,-0.012964281253516674,-0.012233692221343517,-0.011503104120492935,-0.010772515088319778,-0.010041926056146622,-0.009311337023973465,-0.008580747991800308,-0.007850159890949726,-0.007119570858776569,-0.006388981826603413,-0.0056583937257528305,-0.004927804693579674,-0.004197215661406517,-0.0034666266292333603,-0.0027360375970602036,-0.002005448564887047,-0.0012748613953590393,-0.0005442723631858826,0.00018631666898727417,0.0009169057011604309,0.0016474965959787369,0.0023780856281518936,0.0031086746603250504,0.003839263692498207,0.004569852724671364,0.005300439894199371,0.006031028926372528,0.006761617958545685,0.0074922069907188416,0.008222796022891998,0.008953385055065155,0.009683973155915737,0.010414562188088894,0.01114515122026205,0.011875739321112633,0.01260632835328579,0.013336917385458946,0.014067506417632103,0.01479809544980526,0.015528683550655842,0.016259271651506424,0.01698986068367958,0.017720449715852737,0.018451038748025894,0.01918162778019905,0.019912216812372208,0.020642805844545364,0.02137339487671852,0.022103983908891678,0.022834571078419685,0.023565160110592842,0.024295749142766,0.025026338174939156]},"final_train_char_acc":0.21546051154406246,"gradients/graph_2decoder.fc.bias":{"bins":[-0.02897166647017002,-0.028150508180260658,-0.027329351752996445,-0.026508193463087082,-0.02568703517317772,-0.024865876883268356,-0.024044720456004143,-0.02322356216609478,-0.022402405738830566,-0.021581247448921204,-0.02076008915901184,-0.019938930869102478,-0.019117774441838264,-0.0182966161519289,-0.017475459724664688,-0.016654301434755325,-0.015833143144845963,-0.015011985786259174,-0.014190827496349812,-0.013369670137763023,-0.01254851184785366,-0.011727355420589447,-0.010906197130680084,-0.010085038840770721,-0.009263882413506508,-0.008442724123597145,-0.007621565833687782,-0.0068004075437784195,-0.005979251116514206,-0.005158092826604843,-0.00433693453669548,-0.003515778109431267,-0.0026946179568767548,-0.001873459666967392,-0.0010523032397031784,-0.0002311449497938156,0.0005900133401155472,0.0014111697673797607,0.0022323280572891235,0.0030534863471984863,0.003874644637107849,0.004695801064372063,0.0055169593542814255,0.006338117644190788,0.007159274071455002,0.007980432361364365,0.008801589719951153,0.009622748009860516,0.010443905368447304,0.011265062727034092,0.012086221016943455,0.012907378375530243,0.013728536665439606,0.014549694024026394,0.015370851382613182,0.016192009672522545,0.01701316609978676,0.01783432438969612,0.018655482679605484,0.019476640969514847,0.02029779739677906,0.021118955686688423,0.021940113976597786,0.022761270403862,0.023582428693771362],"_type":"histogram","values":[1,0,0,0,0,0,1,0,0,1,0,0,1,0,0,0,1,0,0,0,0,0,0,1,1,1,3,1,1,0,2,0,1,3,1,13,7,7,2,1,1,0,1,0,2,2,0,3,1,0,0,0,1,1,1,0,0,0,0,0,0,0,0,1]}}