{"final_train_loss":3.228099570822998,"_step":1,"parameters/graph_3encoder.embed.weight":{"values":[1,0,1,0,3,0,1,0,2,1,6,3,6,4,6,6,10,9,16,12,16,20,27,22,29,24,35,30,28,36,43,31,72,34,36,40,36,30,26,27,34,27,25,19,21,9,12,17,16,9,4,13,7,4,2,2,1,2,5,0,0,1,0,1],"bins":[-3.2883846759796143,-3.18819522857666,-3.088006019592285,-2.987816572189331,-2.887627124786377,-2.787437915802002,-2.687248468399048,-2.5870590209960938,-2.4868698120117188,-2.3866806030273438,-2.2864911556243896,-2.1863017082214355,-2.0861124992370605,-1.9859230518341064,-1.8857336044311523,-1.7855442762374878,-1.6853549480438232,-1.5851656198501587,-1.4849762916564941,-1.38478684425354,-1.284597635269165,-1.184408187866211,-1.0842187404632568,-0.9840295314788818,-0.8838400840759277,-0.7836506366729736,-0.6834614276885986,-0.5832719802856445,-0.48308253288269043,-0.38289332389831543,-0.28270387649536133,-0.18251466751098633,-0.08232498168945312,0.017864465713500977,0.11805367469787598,0.21824312210083008,0.3184323310852051,0.4186217784881592,0.5188112258911133,0.6190004348754883,0.7191898822784424,0.8193793296813965,0.9195685386657715,1.0197579860687256,1.1199474334716797,1.2201366424560547,1.3203260898590088,1.4205154180526733,1.520704746246338,1.6208940744400024,1.721083402633667,1.821272850036621,1.9214621782302856,2.02165150642395,2.1218409538269043,2.2220301628112793,2.3222196102142334,2.4224090576171875,2.5225982666015625,2.6227877140045166,2.7229771614074707,2.8231663703918457,2.9233558177948,3.023545026779175,3.123734474182129],"_type":"histogram"},"gradients/graph_3encoder.layer.weight_ih_l0":{"_type":"histogram","values":[1,0,0,0,0,0,0,0,0,0,0,3,0,1,1,4,3,8,4,7,13,5,13,18,15,24,42,70,99,212,462,1138,392,201,121,57,42,24,25,12,19,5,7,0,2,3,5,4,1,1,0,2,1,0,1,1,1,0,1,0,0,0,0,1],"bins":[-0.01098309550434351,-0.010633476078510284,-0.010283855721354485,-0.00993423629552126,-0.00958461593836546,-0.009234996512532234,-0.008885376155376434,-0.008535756729543209,-0.00818613637238741,-0.007836516946554184,-0.007486896589398384,-0.007137277163565159,-0.006787657272070646,-0.006438037380576134,-0.006088417489081621,-0.005738797597587109,-0.005389177706092596,-0.0050395578145980835,-0.004689937923103571,-0.004340318031609058,-0.003990698140114546,-0.0036410782486200333,-0.0032914583571255207,-0.002941838465631008,-0.002592219039797783,-0.002242598682641983,-0.0018929792568087578,-0.001543358899652958,-0.0011937394738197327,-0.0008441191166639328,-0.0004944996908307076,-0.00014487933367490768,0.00020474009215831757,0.0005543595179915428,0.0009039798751473427,0.001253599300980568,0.0016032196581363678,0.001952839083969593,0.002302459441125393,0.002652078866958618,0.003001699224114418,0.0033513186499476433,0.003700938541442156,0.004050558432936668,0.004400178324431181,0.0047497982159256935,0.005099418107420206,0.005449037998914719,0.005798657890409231,0.006148277781903744,0.006497897673398256,0.006847517564892769,0.007197137456387281,0.007546757347881794,0.00789637677371502,0.008245997130870819,0.008595616556704044,0.008945236913859844,0.00929485633969307,0.00964447669684887,0.009994096122682095,0.010343716479837894,0.01069333590567112,0.01104295626282692,0.011392575688660145]},"_runtime":41.611295,"val_loss":3.152014565878901,"parameters/graph_3encoder.layer.bias_ih_l0":{"bins":[-0.24218112230300903,-0.2346014678478241,-0.22702179849147797,-0.21944214403629303,-0.2118624895811081,-0.20428282022476196,-0.19670316576957703,-0.1891235113143921,-0.18154385685920715,-0.17396418750286102,-0.1663845330476761,-0.15880486369132996,-0.15122520923614502,-0.14364555478096008,-0.13606590032577515,-0.1284862458705902,-0.12090657651424408,-0.11332692205905914,-0.10574725270271301,-0.09816759824752808,-0.09058794379234314,-0.08300827443599701,-0.07542861998081207,-0.06784896552562714,-0.060269296169281006,-0.05268964171409607,-0.04510998725891113,-0.037530332803726196,-0.029950663447380066,-0.02237100899219513,-0.014791354537010193,-0.0072116851806640625,0.00036798417568206787,0.007947638630867004,0.015527307987213135,0.02310696244239807,0.030686616897583008,0.03826628625392914,0.045845940709114075,0.05342559516429901,0.06100524961948395,0.06858491897583008,0.07616457343101501,0.08374422788619995,0.09132389724254608,0.09890355169773102,0.10648320615291595,0.11406287550926208,0.12164252996444702,0.12922218441963196,0.1368018388748169,0.14438150823116302,0.15196116268634796,0.1595408320426941,0.16712048649787903,0.17470014095306396,0.1822797954082489,0.18985946476459503,0.19743911921977997,0.2050187885761261,0.21259844303131104,0.22017809748649597,0.2277577519416809,0.23533742129802704,0.24291707575321198],"_type":"histogram","values":[1,0,1,0,1,0,1,1,0,0,0,1,1,1,0,1,1,1,2,2,3,4,0,3,2,1,1,3,3,6,2,4,2,2,1,0,1,0,1,4,0,2,2,1,0,1,3,4,4,1,1,3,2,2,2,1,0,2,1,1,3,1,0,1]},"epoch":0,"final_train_seq_acc":0,"parameters/graph_3decoder.layer.weight_hh_l0":{"_type":"histogram","values":[2,1,1,1,2,2,3,7,4,9,18,18,15,22,27,41,44,47,52,73,63,74,81,88,84,104,110,121,133,133,107,110,129,117,116,115,121,108,93,93,77,78,69,64,59,55,34,30,22,18,15,20,7,5,8,4,2,5,2,2,2,2,0,3],"bins":[-0.513446033000946,-0.4970167577266693,-0.4805874526500702,-0.46415817737579346,-0.44772887229919434,-0.4312995970249176,-0.41487032175064087,-0.39844101667404175,-0.3820117115974426,-0.3655824363231659,-0.34915316104888916,-0.33272385597229004,-0.3162945806980133,-0.2998653054237366,-0.28343600034713745,-0.26700669527053833,-0.2505774199962616,-0.23414814472198486,-0.21771883964538574,-0.201289564371109,-0.1848602592945099,-0.16843098402023315,-0.15200167894363403,-0.1355724036693573,-0.11914312839508057,-0.10271382331848145,-0.08628454804420471,-0.06985524296760559,-0.05342596769332886,-0.036996662616729736,-0.020567387342453003,-0.0041381120681762695,0.012291193008422852,0.028720498085021973,0.045149773359298706,0.06157904863357544,0.07800835371017456,0.0944376289844513,0.11086693406105042,0.12729620933532715,0.14372551441192627,0.160154789686203,0.17658406496047974,0.19301337003707886,0.2094426453113556,0.2258719503879547,0.24230122566223145,0.25873053073883057,0.2751598060131073,0.29158908128738403,0.30801838636398315,0.3244476914405823,0.340876966714859,0.35730624198913574,0.37373554706573486,0.3901648223400116,0.40659409761428833,0.42302340269088745,0.4394527077674866,0.4558819830417633,0.47231125831604004,0.48874056339263916,0.5051698684692383,0.5215991139411926,0.5380284190177917]},"gradients/graph_3decoder.layer.bias_hh_l0":{"bins":[-0.009115410968661308,-0.008798464201390743,-0.008481517434120178,-0.008164570666849613,-0.007847623899579048,-0.00753067759796977,-0.007213730830699205,-0.006896784529089928,-0.006579837761819363,-0.006262890994548798,-0.005945944227278233,-0.0056289974600076675,-0.0053120506927371025,-0.0049951039254665375,-0.00467815762385726,-0.004361210856586695,-0.00404426408931613,-0.0037273173220455647,-0.0034103705547749996,-0.003093424253165722,-0.002776477485895157,-0.002459530718624592,-0.002142583951354027,-0.0018256371840834618,-0.0015086904168128967,-0.0011917436495423317,-0.0008747968822717667,-0.0005578510463237762,-0.0002409042790532112,7.604248821735382e-05,0.00039298925548791885,0.0007099360227584839,0.001026882790029049,0.001343829557299614,0.001660776324570179,0.001977723091840744,0.002294669859111309,0.002611616626381874,0.0029285624623298645,0.0032455092296004295,0.0035624559968709946,0.0038794027641415596,0.004196349531412125,0.00451329629868269,0.004830243065953255,0.00514718983322382,0.0054641361348330975,0.0057810829021036625,0.0060980296693742275,0.0064149764366447926,0.006731923203915358,0.007048869505524635,0.0073658162727952,0.007682763040065765,0.00799970980733633,0.008316656574606895,0.00863360334187746,0.008950550109148026,0.009267495945096016,0.009584443643689156,0.009901389479637146,0.010218336246907711,0.010535283014178276,0.010852229781448841,0.011169176548719406],"_type":"histogram","values":[1,0,0,0,0,1,0,0,0,0,0,0,0,0,0,0,0,0,0,2,1,1,2,1,5,7,7,13,13,14,5,3,3,0,1,2,1,0,1,2,0,2,1,1,1,2,0,1,0,0,0,0,0,0,0,0,0,0,0,0,1,0,0,1]},"gradients/graph_3encoder.layer.bias_hh_l0":{"bins":[-0.00666749058291316,-0.0064026964828372,-0.006137902848422527,-0.005873108748346567,-0.005608314648270607,-0.005343521013855934,-0.005078726913779974,-0.004813932813704014,-0.004549139179289341,-0.004284345079213381,-0.004019550979137421,-0.003754757111892104,-0.0034899632446467876,-0.0032251691445708275,-0.002960375277325511,-0.0026955814100801945,-0.0024307873100042343,-0.002165993209928274,-0.0019011995755136013,-0.0016364054754376411,-0.001371611375361681,-0.0011068177409470081,-0.000842023640871048,-0.0005772295407950878,-0.00031243590638041496,-4.7641806304454803e-05,0.00021715229377150536,0.0004819463938474655,0.0007467400282621384,0.0010115341283380985,0.0012763277627527714,0.0015411223284900188,0.0018059154972434044,0.0020707091316580772,0.0023355036973953247,0.0026002973318099976,0.0028650914318859577,0.0031298850663006306,0.0033946791663765907,0.003659473266452551,0.003924267366528511,0.004189061000943184,0.004453855101019144,0.004718649201095104,0.004983442835509777,0.005248236935585737,0.005513031035661697,0.00577782467007637,0.00604261877015233,0.0063074128702282906,0.006572206504642963,0.006837000604718924,0.007101794704794884,0.007366588339209557,0.007631382439285517,0.007896176539361477,0.00816097017377615,0.008425764739513397,0.00869055837392807,0.008955352008342743,0.00922014657407999,0.009484940208494663,0.009749733842909336,0.010014528408646584,0.010279322043061256],"_type":"histogram","values":[1,0,1,1,0,0,0,0,0,0,0,0,0,1,0,0,1,2,1,1,6,2,8,2,12,13,16,9,5,2,5,2,1,1,1,0,0,0,0,0,0,0,0,0,1,0,0,0,0,0,0,0,0,0,0,0,0,0,0,0,0,0,0,1]},"parameters/graph_3decoder.layer.bias_hh_l0":{"bins":[-0.3910123407840729,-0.3798624575138092,-0.3687126040458679,-0.35756272077560425,-0.3464128375053406,-0.3352629542350769,-0.32411307096481323,-0.31296321749687195,-0.3018133342266083,-0.2906634509563446,-0.2795135974884033,-0.26836371421813965,-0.257213830947876,-0.2460639476776123,-0.23491407930850983,-0.22376421093940735,-0.21261432766914368,-0.20146444439888,-0.19031457602977753,-0.17916470766067505,-0.16801482439041138,-0.1568649411201477,-0.14571507275104523,-0.13456520438194275,-0.12341532111167908,-0.1122654378414154,-0.10111555457115173,-0.08996570110321045,-0.07881581783294678,-0.0676659345626831,-0.05651608109474182,-0.04536619782447815,-0.03421628475189209,-0.023066401481628418,-0.011916518211364746,-0.0007666647434234619,0.01038321852684021,0.021533101797103882,0.032682955265045166,0.04383283853530884,0.05498272180557251,0.06613260507583618,0.07728247344493866,0.08843234181404114,0.09958222508430481,0.11073210835456848,0.12188197672367096,0.13303184509277344,0.1441817283630371,0.15533161163330078,0.16648148000240326,0.17763134837150574,0.1887812316417694,0.19993111491203308,0.21108098328113556,0.22223085165023804,0.2333807349205017,0.24453061819076538,0.25568050146102905,0.26683035492897034,0.277980238199234,0.2891301214694977,0.30027997493743896,0.31142985820770264,0.3225797414779663],"_type":"histogram","values":[1,0,0,1,0,0,0,0,0,0,1,0,0,1,0,1,0,2,0,1,1,1,1,2,3,1,1,1,0,3,3,0,1,3,2,5,2,3,2,3,3,5,1,5,3,2,3,0,3,4,3,1,6,1,3,1,2,1,0,0,0,1,0,2]},"parameters/graph_3decoder.layer.weight_ih_l0":{"bins":[-0.5897630453109741,-0.5710413455963135,-0.5523197054862976,-0.533598005771637,-0.5148763656616211,-0.49615466594696045,-0.4774329662322998,-0.45871129631996155,-0.4399896264076233,-0.42126795649528503,-0.4025462865829468,-0.38382458686828613,-0.3651029169559479,-0.3463812470436096,-0.327659547328949,-0.3089378774166107,-0.29021620750427246,-0.2714945375919342,-0.25277286767959595,-0.2340511679649353,-0.21532949805259705,-0.1966078281402588,-0.17788612842559814,-0.1591644585132599,-0.14044278860092163,-0.12172111868858337,-0.10299944877624512,-0.08427774906158447,-0.06555604934692383,-0.04683440923690796,-0.028112709522247314,-0.009391069412231445,0.009330689907073975,0.02805238962173462,0.04677402973175049,0.06549572944641113,0.084217369556427,0.10293906927108765,0.12166076898574829,0.14038243889808655,0.1591041088104248,0.17782577872276306,0.19654744863510132,0.21526914834976196,0.23399081826210022,0.2527124881744385,0.2714341878890991,0.2901558578014374,0.30887752771377563,0.3275991976261139,0.34632086753845215,0.3650425672531128,0.38376423716545105,0.4024859070777893,0.42120760679244995,0.4399292767047882,0.45865094661712646,0.4773726165294647,0.496094286441803,0.5148159861564636,0.5335376262664795,0.5522593259811401,0.5709810256958008,0.5897026658058167,0.6084243655204773],"_type":"histogram","values":[5,3,1,4,7,6,6,8,10,14,16,17,20,18,28,40,38,51,43,54,62,65,75,98,92,116,124,107,111,133,117,107,117,119,115,129,126,105,91,98,80,81,55,49,55,47,38,26,23,28,28,12,14,13,4,6,6,5,2,2,1,0,0,1]},"val_seq_acc":0,"gradients/graph_3decoder.layer.bias_ih_l0":{"_type":"histogram","values":[1,0,0,0,0,0,1,1,1,0,0,0,0,0,0,0,0,0,0,0,1,0,1,2,0,2,0,7,5,9,20,13,9,4,1,1,2,0,1,1,1,0,1,4,3,0,0,0,1,0,1,0,0,0,0,0,0,0,0,0,0,1,0,1],"bins":[-0.011894217692315578,-0.011511157266795635,-0.011128095909953117,-0.010745035484433174,-0.010361975058913231,-0.009978913702070713,-0.00959585327655077,-0.009212791919708252,-0.008829731494188309,-0.008446671068668365,-0.008063609711825848,-0.007680549286305904,-0.007297488395124674,-0.006914427503943443,-0.0065313670784235,-0.0061483061872422695,-0.005765245296061039,-0.005382184404879808,-0.004999123513698578,-0.004616063088178635,-0.004233002196997404,-0.0038499413058161736,-0.0034668808802962303,-0.0030838195234537125,-0.0027007590979337692,-0.002317698672413826,-0.0019346373155713081,-0.001551576890051365,-0.0011685164645314217,-0.0007854551076889038,-0.00040239468216896057,-1.933332532644272e-05,0.0003637271001935005,0.0007467875257134438,0.0011298488825559616,0.0015129093080759048,0.0018959706649184227,0.002279031090438366,0.002662091515958309,0.003045152872800827,0.0034282132983207703,0.0038112737238407135,0.004194335080683231,0.004577395506203175,0.004960456397384405,0.005343517288565636,0.005726577714085579,0.0061096386052668095,0.00649269949644804,0.0068757603876292706,0.007258821278810501,0.007641881704330444,0.008024942129850388,0.008408003486692905,0.008791063912212849,0.009174125269055367,0.00955718569457531,0.009940246120095253,0.01032330747693777,0.010706367902457714,0.011089429259300232,0.011472489684820175,0.011855550110340118,0.012238611467182636,0.01262167189270258]},"gradients/graph_3encoder.layer.bias_ih_l0":{"bins":[-0.009811392053961754,-0.009497474879026413,-0.009183557704091072,-0.008869639597833157,-0.008555722422897816,-0.008241805247962475,-0.00792788714170456,-0.0076139699667692184,-0.0073000527918338776,-0.006986135616898537,-0.0066722179763019085,-0.00635830033570528,-0.006044383160769939,-0.0057304659858345985,-0.00541654834523797,-0.005102630704641342,-0.004788713529706001,-0.00447479635477066,-0.004160878714174032,-0.003846961073577404,-0.003533043898642063,-0.0032191267237067223,-0.002905209083110094,-0.002591291442513466,-0.002277374267578125,-0.001963457092642784,-0.0016495399177074432,-0.0013356218114495277,-0.0010217046365141869,-0.000707787461578846,-0.0003938693553209305,-7.99521803855896e-05,0.00023396406322717667,0.0005478812381625175,0.0008617984130978584,0.001175716519355774,0.0014896336942911148,0.0018035508692264557,0.002117468975484371,0.002431386150419712,0.002745303325355053,0.003059220500290394,0.003373138140887022,0.00368705578148365,0.004000972956418991,0.004314890131354332,0.00462880777195096,0.004942725412547588,0.005256642587482929,0.00557055976241827,0.005884477403014898,0.0061983950436115265,0.006512312218546867,0.006826229393482208,0.0071401470340788364,0.007454064674675465,0.0077679818496108055,0.008081899024546146,0.008395817130804062,0.008709734305739403,0.009023651480674744,0.009337568655610085,0.009651485830545425,0.009965403936803341,0.010279321111738682],"_type":"histogram","values":[1,0,0,0,0,0,0,0,0,1,1,0,0,0,0,0,1,0,0,0,0,0,2,0,2,2,4,5,3,6,11,16,14,6,3,4,2,4,2,1,1,0,1,0,1,0,0,0,0,0,0,0,0,0,1,0,0,0,0,0,0,0,0,1]},"parameters/graph_3decoder.fc.bias":{"values":[1,0,0,0,2,0,0,0,0,0,3,0,0,0,0,0,1,1,1,0,0,1,1,3,3,0,3,2,0,0,2,2,1,4,1,1,5,7,1,0,0,0,1,1,2,0,2,0,1,1,2,4,0,0,0,0,2,0,1,0,0,0,0,1],"bins":[-0.3504629135131836,-0.34075599908828735,-0.3310490846633911,-0.3213421702384949,-0.31163525581359863,-0.3019283711910248,-0.29222145676612854,-0.2825145423412323,-0.27280762791633606,-0.2631007134914398,-0.2533937990665436,-0.24368689954280853,-0.2339799851179123,-0.22427307069301605,-0.214566171169281,-0.20485925674438477,-0.19515234231948853,-0.18544542789459229,-0.17573851346969604,-0.166031613945961,-0.15632469952106476,-0.14661778509616852,-0.13691088557243347,-0.12720397114753723,-0.11749705672264099,-0.10779014229774475,-0.09808322787284851,-0.08837631344795227,-0.07866942882537842,-0.06896251440048218,-0.05925559997558594,-0.0495486855506897,-0.03984174132347107,-0.03013482689857483,-0.02042791247367859,-0.010720998048782349,-0.0010140836238861084,0.008692800998687744,0.018399715423583984,0.028106629848480225,0.037813544273376465,0.047520458698272705,0.057227373123168945,0.06693427264690399,0.07664118707180023,0.08634810149669647,0.09605500102043152,0.10576191544532776,0.115468829870224,0.12517574429512024,0.13488265872001648,0.14458955824375153,0.15429647266864777,0.164003387093544,0.17371028661727905,0.1834172010421753,0.19312411546707153,0.20283102989196777,0.212537944316864,0.22224484384059906,0.2319517582654953,0.24165867269039154,0.2513655722141266,0.2610724866390228,0.27077940106391907],"_type":"histogram"},"gradients/graph_3encoder.layer.weight_hh_l0":{"values":[1,0,0,0,0,0,4,0,1,1,0,1,0,1,0,0,1,13,3,0,1,1,3,2,3,12,9,11,6,16,21,68,118,332,1147,787,240,102,59,22,17,17,13,2,4,3,3,1,2,1,3,5,2,1,0,0,1,0,2,1,0,1,4,3],"bins":[-0.012073933146893978,-0.011727669276297092,-0.011381404474377632,-0.011035140603780746,-0.010688875801861286,-0.0103426119312644,-0.00999634712934494,-0.009650083258748055,-0.009303819388151169,-0.008957554586231709,-0.008611289784312248,-0.008265025913715363,-0.007918762043118477,-0.007572497706860304,-0.007226233370602131,-0.006879969034343958,-0.006533704698085785,-0.006187440361827612,-0.005841176025569439,-0.005494911689311266,-0.005148647353053093,-0.004802383482456207,-0.004456119146198034,-0.004109854809939861,-0.0037635909393429756,-0.0034173261374235153,-0.0030710622668266296,-0.0027247974649071693,-0.0023785335943102837,-0.0020322687923908234,-0.0016860049217939377,-0.0013397401198744774,-0.0009934762492775917,-0.000647212378680706,-0.00030094757676124573,4.5316293835639954e-05,0.00039158109575510025,0.0007378449663519859,0.0010841097682714462,0.001430373638868332,0.0017766384407877922,0.002122902311384678,0.002469166647642851,0.002815430983901024,0.0031616948544979095,0.0035079591907560825,0.0038542235270142555,0.0042004878632724285,0.0045467521995306015,0.0048930165357887745,0.0052392808720469475,0.0055855452083051205,0.0059318095445632935,0.006278073415160179,0.006624337751418352,0.006970602087676525,0.007316866423934698,0.007663130760192871,0.008009394630789757,0.008355659432709217,0.008701923303306103,0.009048188105225563,0.009394451975822449,0.009740716777741909,0.010086980648338795],"_type":"histogram"},"gradients/graph_3encoder.embed.weight":{"bins":[-0.0029330099932849407,-0.0028627861756831408,-0.0027925625909119844,-0.0027223387733101845,-0.002652115188539028,-0.002581891370937228,-0.0025116675533354282,-0.002441443968564272,-0.002371220150962472,-0.002300996333360672,-0.0022307727485895157,-0.0021605489309877157,-0.0020903251133859158,-0.0020201015286147594,-0.0019498777110129595,-0.0018796540098264813,-0.0018094303086400032,-0.001739206607453525,-0.001668982906267047,-0.001598759088665247,-0.0015285353874787688,-0.0014583116862922907,-0.0013880878686904907,-0.0013178641675040126,-0.0012476404663175344,-0.0011774167651310563,-0.0011071930639445782,-0.0010369692463427782,-0.0009667454287409782,-0.0008965218439698219,-0.000826298026368022,-0.0007560744415968657,-0.0006858506239950657,-0.0006156268063932657,-0.0005454032216221094,-0.00047517940402030945,-0.00040495581924915314,-0.00033473200164735317,-0.0002645081840455532,-0.00019428448285907507,-0.00012406078167259693,-5.3837080486118793e-05,1.6386620700359344e-05,8.661043830215931e-05,0.00015683413948863745,0.00022705784067511559,0.00029728165827691555,0.0003675053594633937,0.0004377290606498718,0.00050795276183635,0.0005781764630228281,0.0006484002806246281,0.0007186239818111062,0.0007888476829975843,0.0008590714423917234,0.0009292952017858624,0.0009995189029723406,0.0010697426041588187,0.0011399663053452969,0.0012101901229470968,0.001280413824133575,0.001350637525320053,0.001420861342921853,0.0014910850441083312,0.0015613087452948093],"_type":"histogram","values":[1,0,0,0,0,0,0,0,0,1,0,0,0,0,0,0,0,0,2,1,3,1,0,1,3,1,3,3,7,2,6,7,11,11,15,21,25,36,35,63,52,386,67,60,38,22,14,7,9,14,11,2,6,2,2,1,1,2,0,2,0,2,0,1]},"_wandb":{"runtime":41},"final_val_char_acc":0.22982376987544947,"beam_search":false,"train_char_acc":0.19506418357593291,"parameters/graph_3decoder.fc.weight":{"bins":[-0.5513509511947632,-0.5355560183525085,-0.5197611451148987,-0.503966212272644,-0.4881713390350342,-0.47237640619277954,-0.4565815031528473,-0.44078660011291504,-0.4249916970729828,-0.40919679403305054,-0.3934018909931183,-0.37760698795318604,-0.3618120551109314,-0.34601718187332153,-0.3302222490310669,-0.31442734599113464,-0.2986324429512024,-0.28283753991127014,-0.2670426368713379,-0.25124773383140564,-0.2354528307914734,-0.21965789794921875,-0.2038629949092865,-0.18806809186935425,-0.172273188829422,-0.15647828578948975,-0.1406833827495575,-0.12488847970962524,-0.1090935468673706,-0.09329864382743835,-0.0775037407875061,-0.06170883774757385,-0.0459139347076416,-0.03011903166770935,-0.0143241286277771,0.0014707744121551514,0.017265677452087402,0.03306061029434204,0.04885551333427429,0.06465041637420654,0.0804453194141388,0.09624022245407104,0.1120351254940033,0.12783002853393555,0.14362496137619019,0.15941986441612244,0.1752147674560547,0.19100967049598694,0.2068045735359192,0.22259947657585144,0.2383943796157837,0.25418931245803833,0.2699841856956482,0.28577911853790283,0.3015740215778351,0.31736892461776733,0.3331638276576996,0.34895873069763184,0.3647536337375641,0.38054853677749634,0.396343469619751,0.4121383726596832,0.4279332756996155,0.44372817873954773,0.45952308177948],"_type":"histogram","values":[1,0,0,1,1,0,2,5,5,6,6,10,6,10,18,20,18,31,22,29,30,33,45,46,54,62,55,61,53,73,81,63,79,64,69,82,62,70,79,70,59,62,66,50,45,55,41,39,34,23,30,20,15,17,12,9,7,10,9,3,6,5,4,5]},"gradients/graph_3decoder.fc.bias":{"_type":"histogram","values":[1,0,0,0,0,1,0,0,0,0,1,2,0,0,1,1,1,0,0,0,0,1,0,1,0,2,1,1,0,2,1,2,2,0,0,0,1,9,3,1,4,4,3,1,0,1,1,2,1,1,0,1,3,1,1,1,0,0,1,1,1,0,0,1],"bins":[-0.01977459155023098,-0.019242597743868828,-0.018710603937506676,-0.018178610131144524,-0.01764661632478237,-0.01711462251842022,-0.016582628712058067,-0.016050636768341064,-0.015518642030656338,-0.014986648224294186,-0.014454654417932034,-0.013922661542892456,-0.013390667736530304,-0.012858673930168152,-0.012326680123806,-0.011794686317443848,-0.011262692511081696,-0.010730698704719543,-0.010198704898357391,-0.00966671109199524,-0.009134717285633087,-0.00860272441059351,-0.008070730604231358,-0.0075387367978692055,-0.007006742991507053,-0.006474749185144901,-0.005942755378782749,-0.005410761572420597,-0.00487876869738102,-0.0043467748910188675,-0.0038147810846567154,-0.0032827872782945633,-0.002750791609287262,-0.00221879780292511,-0.0016868039965629578,-0.0011548101902008057,-0.0006228163838386536,-9.082350879907608e-05,0.000441170297563076,0.0009731641039252281,0.0015051579102873802,0.0020371517166495323,0.0025691455230116844,0.0031011393293738365,0.003633132204413414,0.004165126010775566,0.004697119817137718,0.00522911362349987,0.005761107429862022,0.0062931012362241745,0.006825095042586327,0.007357088383287191,0.00788908265531063,0.008421076461672783,0.00895306933671236,0.009485063143074512,0.010017056949436665,0.010549050755798817,0.011081044562160969,0.011613037437200546,0.012145031243562698,0.01267702504992485,0.013209018856287003,0.013741012662649155,0.014273006469011307]},"train_seq_acc":0,"train_loss":3.228099570822998,"final_val_seq_acc":0,"beam_width":5,"gradients/graph_3decoder.layer.weight_ih_l0":{"_type":"histogram","values":[1,1,0,0,1,2,4,3,2,2,3,8,6,5,4,7,9,19,17,17,17,28,41,31,50,65,120,160,368,1074,379,162,112,64,53,37,27,36,31,22,11,10,11,7,1,8,3,6,1,5,4,4,4,3,0,1,1,1,0,0,1,0,1,1],"bins":[-0.0026451051235198975,-0.002555377781391144,-0.002465650672093034,-0.00237592332996428,-0.00228619622066617,-0.0021964688785374165,-0.002106741536408663,-0.002017014427110553,-0.0019272870849817991,-0.0018375599756836891,-0.0017478326335549355,-0.0016581054078415036,-0.0015683781821280718,-0.00147865095641464,-0.0013889236142858863,-0.0012991963885724545,-0.0012094691628590226,-0.0011197419371455908,-0.001030014711432159,-0.0009402873693034053,-0.0008505601435899734,-0.0007608329178765416,-0.0006711056921631098,-0.0005813783500343561,-0.0004916512407362461,-0.00040192389860749245,-0.00031219678930938244,-0.00022246944718062878,-0.00013274210505187511,-4.3014995753765106e-05,4.6712346374988556e-05,0.00013643945567309856,0.00022616679780185223,0.0003158941399306059,0.0004056212492287159,0.0004953485913574696,0.0005850757006555796,0.0006748030427843332,0.0007645303849130869,0.0008542574942111969,0.0009439848363399506,0.0010337119456380606,0.0011234392877668142,0.001213166513480246,0.001302893739193678,0.0013926209649071097,0.0014823483070358634,0.0015720755327492952,0.001661802758462727,0.001751529984176159,0.0018412572098895907,0.0019309845520183444,0.0020207117777317762,0.0021104388870298862,0.00220016622915864,0.0022898935712873936,0.0023796206805855036,0.0024693480227142572,0.0025590751320123672,0.002648802474141121,0.0027385298162698746,0.0028282569255679846,0.0029179842676967382,0.0030077113769948483,0.003097438719123602]},"parameters/graph_3decoder.layer.bias_ih_l0":{"_type":"histogram","values":[1,0,0,0,1,0,0,0,0,0,0,0,0,1,3,1,1,2,2,0,1,1,0,2,3,1,1,4,1,3,2,1,3,2,3,1,1,3,2,0,2,2,3,4,3,5,0,5,5,1,2,2,2,1,0,2,1,1,1,1,2,0,2,2],"bins":[-0.3613604009151459,-0.35121238231658936,-0.3410643935203552,-0.3309163749217987,-0.3207683861255646,-0.31062036752700806,-0.3004723787307739,-0.2903243601322174,-0.2801763713359833,-0.27002835273742676,-0.2598803639411926,-0.2497323453426361,-0.23958434164524078,-0.22943633794784546,-0.21928833425045013,-0.2091403305530548,-0.19899232685565948,-0.18884432315826416,-0.17869631946086884,-0.1685483157634735,-0.15840031206607819,-0.14825230836868286,-0.13810430467128754,-0.1279563009738922,-0.1178082823753357,-0.10766029357910156,-0.09751227498054504,-0.08736428618431091,-0.0772162675857544,-0.06706827878952026,-0.056920260190963745,-0.046772271394729614,-0.036624252796173096,-0.026476234197616577,-0.016328245401382446,-0.006180226802825928,0.003967761993408203,0.014115780591964722,0.024263769388198853,0.03441178798675537,0.0445597767829895,0.05470779538154602,0.06485579907894135,0.07500380277633667,0.085151806473732,0.09529981017112732,0.10544781386852264,0.11559581756591797,0.1257438212633133,0.13589182496070862,0.14603982865810394,0.15618783235549927,0.1663358360528946,0.17648383975028992,0.18663185834884644,0.19677984714508057,0.20692786574363708,0.21707585453987122,0.22722387313842773,0.23737187683582306,0.24751988053321838,0.2576678693294525,0.26781588792800903,0.27796387672424316,0.2881118953227997]},"gradients/graph_3decoder.embed.weight":{"values":[1,0,0,0,1,1,1,0,2,0,4,0,0,2,2,2,3,0,6,6,4,4,10,9,11,14,18,18,35,32,44,52,64,67,1266,63,58,52,56,32,25,21,13,6,7,10,5,3,2,0,2,1,0,1,2,1,2,1,1,1,1,1,1,1],"bins":[-0.009356244467198849,-0.009082351811230183,-0.008808458223938942,-0.008534565567970276,-0.008260671980679035,-0.007986779324710369,-0.007712885737419128,-0.007438993081450462,-0.007165099494159222,-0.006891206838190556,-0.006617313250899315,-0.006343420594930649,-0.006069527473300695,-0.005795634351670742,-0.005521741230040789,-0.005247848108410835,-0.004973954986780882,-0.0047000618651509285,-0.004426168743520975,-0.004152275621891022,-0.0038783825002610683,-0.003604489378631115,-0.0033305962570011616,-0.003056703135371208,-0.002782810479402542,-0.0025089173577725887,-0.0022350242361426353,-0.001961131114512682,-0.0016872379928827286,-0.0014133444055914879,-0.0011394517496228218,-0.0008655581623315811,-0.000591665506362915,-0.00031777285039424896,-4.387926310300827e-05,0.0002300133928656578,0.0005039069801568985,0.0007778001017868519,0.0010516932234168053,0.0013255863450467587,0.001599479466676712,0.0018733721226453781,0.0021472652442753315,0.002421158365905285,0.0026950514875352383,0.0029689446091651917,0.003242837730795145,0.0035167308524250984,0.003790623974055052,0.004064517095685005,0.004338410217314959,0.004612303338944912,0.004886196460574865,0.005160089582204819,0.005433982238173485,0.0057078758254647255,0.005981768481433392,0.006255662068724632,0.006529554724693298,0.006803447846323252,0.007077340967953205,0.0073512340895831585,0.007625127211213112,0.007899020798504353,0.008172913454473019],"_type":"histogram"},"parameters/graph_3encoder.layer.bias_hh_l0":{"_type":"histogram","values":[1,2,0,1,0,1,0,0,1,0,0,2,0,1,0,2,1,3,2,2,2,3,0,2,1,4,4,1,1,1,6,2,1,5,1,2,0,1,3,1,2,3,3,1,3,1,1,2,2,3,4,0,2,2,2,2,0,1,0,0,0,0,0,2],"bins":[-0.2825663089752197,-0.27321478724479675,-0.2638632357120514,-0.2545117139816284,-0.24516019225120544,-0.23580865561962128,-0.2264571189880371,-0.21710559725761414,-0.20775407552719116,-0.198402538895607,-0.18905100226402283,-0.17969948053359985,-0.17034794390201569,-0.16099640727043152,-0.15164488554000854,-0.14229336380958557,-0.1329418271780014,-0.12359029054641724,-0.11423876881599426,-0.1048872321844101,-0.09553571045398712,-0.08618417382240295,-0.07683265209197998,-0.06748111546039581,-0.058129578828811646,-0.04877805709838867,-0.039426520466804504,-0.030074983835220337,-0.020723462104797363,-0.01137194037437439,-0.002020418643951416,0.007331132888793945,0.01668265461921692,0.026034176349639893,0.035385727882385254,0.04473724961280823,0.0540887713432312,0.06344029307365417,0.07279182970523834,0.08214336633682251,0.09149488806724548,0.10084642469882965,0.11019796133041382,0.11954948306083679,0.12890101969242096,0.13825254142284393,0.1476040780544281,0.15695559978485107,0.16630713641643524,0.1756586730480194,0.18501019477844238,0.19436171650886536,0.20371325314044952,0.2130647897720337,0.22241631150245667,0.23176784813404083,0.241119384765625,0.250470906496048,0.25982242822647095,0.2691739797592163,0.2785255014896393,0.28787702322006226,0.29722854495048523,0.3065800964832306,0.31593161821365356]},"final_val_loss":3.152014565878901,"parameters/graph_3encoder.layer.weight_hh_l0":{"bins":[-0.5861215591430664,-0.5683634281158447,-0.5506052374839783,-0.5328470468521118,-0.5150889158248901,-0.49733075499534607,-0.479572594165802,-0.46181443333625793,-0.44405627250671387,-0.4262981116771698,-0.40853995084762573,-0.39078179001808167,-0.3730236291885376,-0.35526546835899353,-0.33750730752944946,-0.3197491466999054,-0.30199098587036133,-0.28423282504081726,-0.2664746642112732,-0.24871650338172913,-0.23095834255218506,-0.213200181722641,-0.19544202089309692,-0.17768386006355286,-0.1599256992340088,-0.14216753840446472,-0.12440937757492065,-0.10665121674537659,-0.08889305591583252,-0.07113492488861084,-0.053376734256744385,-0.03561854362487793,-0.017860352993011475,-0.00010222196578979492,0.01765596866607666,0.035414159297943115,0.053172290325164795,0.07093045115470886,0.08868861198425293,0.106446772813797,0.12420493364334106,0.14196309447288513,0.1597212553024292,0.17747941613197327,0.19523757696151733,0.2129957377910614,0.23075389862060547,0.24851205945014954,0.2662702202796936,0.28402838110923767,0.30178654193878174,0.3195447027683258,0.3373028635978699,0.35506102442741394,0.372819185256958,0.3905773460865021,0.40833550691604614,0.4260936677455902,0.4438518285751343,0.46160998940467834,0.4793681502342224,0.4971263110637665,0.5148844718933105,0.5326426029205322,0.5504007935523987],"_type":"histogram","values":[1,0,0,1,1,0,0,1,1,1,3,4,5,8,9,13,22,33,42,69,65,65,67,70,62,90,106,119,128,110,125,142,160,131,109,130,128,132,94,118,71,83,98,64,73,69,52,58,49,21,13,13,14,7,3,4,5,4,1,2,1,1,0,1]},"parameters/graph_3encoder.layer.weight_ih_l0":{"values":[1,0,1,2,1,0,5,3,1,2,2,9,15,11,14,19,24,40,35,55,58,55,88,81,75,94,134,110,118,113,127,126,140,127,119,124,125,99,124,98,94,96,64,65,65,59,46,39,36,27,22,25,10,12,6,6,6,3,6,2,1,5,1,1],"bins":[-0.48285552859306335,-0.46818673610687256,-0.45351797342300415,-0.43884918093681335,-0.42418038845062256,-0.40951159596443176,-0.39484280347824097,-0.38017404079437256,-0.36550524830818176,-0.35083645582199097,-0.33616769313812256,-0.32149890065193176,-0.30683010816574097,-0.29216131567955017,-0.2774925231933594,-0.26282376050949097,-0.24815496802330017,-0.23348617553710938,-0.21881738305091858,-0.20414862036705017,-0.18947982788085938,-0.17481103539466858,-0.16014227271080017,-0.14547348022460938,-0.13080468773841858,-0.11613589525222778,-0.10146710276603699,-0.08679834008216858,-0.07212954759597778,-0.05746075510978699,-0.04279199242591858,-0.028123199939727783,-0.013454437255859375,0.001214355230331421,0.015883147716522217,0.030551910400390625,0.04522070288658142,0.05988949537277222,0.07455825805664062,0.08922705054283142,0.10389584302902222,0.11856463551521301,0.1332334280014038,0.14790219068527222,0.162570983171463,0.1772397756576538,0.19190853834152222,0.206577330827713,0.2212461233139038,0.2359149158000946,0.2505837082862854,0.2652524709701538,0.2799212634563446,0.2945900559425354,0.3092588186264038,0.3239276111125946,0.3385964035987854,0.3532651960849762,0.367933988571167,0.3826027512550354,0.3972715437412262,0.411940336227417,0.4266090989112854,0.4412778913974762,0.455946683883667],"_type":"histogram"},"gradients/graph_3decoder.layer.weight_hh_l0":{"bins":[-0.011803722009062767,-0.011404808610677719,-0.011005894280970097,-0.010606980882585049,-0.010208066552877426,-0.009809153154492378,-0.009410238824784756,-0.009011325426399708,-0.008612411096692085,-0.008213497698307037,-0.00781458429992199,-0.007415669970214367,-0.007016756106168032,-0.0066178422421216965,-0.006218928378075361,-0.005820014514029026,-0.005421100649982691,-0.005022186785936356,-0.00462327292189002,-0.004224359057843685,-0.0038254456594586372,-0.0034265313297510147,-0.003027617931365967,-0.0026287036016583443,-0.0022297902032732964,-0.0018308758735656738,-0.001431962475180626,-0.0010330481454730034,-0.0006341347470879555,-0.00023522041738033295,0.00016369298100471497,0.0005626073107123375,0.0009615207090973854,0.0013604341074824333,0.0017593484371900558,0.0021582618355751038,0.0025571761652827263,0.002956089563667774,0.0033550038933753967,0.0037539172917604446,0.004152831621468067,0.004551745019853115,0.004950659349560738,0.0053495727479457855,0.005748487077653408,0.006147400476038456,0.006546314340084791,0.006945228204131126,0.007344142068177462,0.007743055932223797,0.00814197026193142,0.008540883660316467,0.008939797058701515,0.009338711388409138,0.00973762571811676,0.010136539116501808,0.010535452514886856,0.010934366844594479,0.011333280242979527,0.011732194572687149,0.012131107971072197,0.01253002230077982,0.012928935699164867,0.01332785002887249,0.013726763427257538],"_type":"histogram","values":[1,0,0,0,2,1,2,1,2,0,0,3,4,9,5,6,5,14,14,11,23,25,42,49,65,81,110,188,375,880,459,225,105,66,65,46,36,30,20,18,20,18,8,5,6,1,2,5,3,3,2,1,2,1,0,3,1,1,0,0,0,0,1,1]},"parameters/graph_3decoder.embed.weight":{"values":[2,0,1,0,1,1,2,2,4,9,9,6,14,19,20,16,26,29,30,27,34,45,41,43,60,59,71,95,77,83,89,71,75,97,81,75,73,85,62,64,53,51,57,53,42,42,29,21,27,18,16,4,10,4,10,3,2,3,2,1,0,1,0,1],"bins":[-0.43837279081344604,-0.42489343881607056,-0.41141408681869507,-0.3979347050189972,-0.3844553530216217,-0.3709760010242462,-0.35749661922454834,-0.34401726722717285,-0.33053791522979736,-0.3170585632324219,-0.3035792112350464,-0.2900998294353485,-0.276620477437973,-0.26314112544059753,-0.24966175854206085,-0.23618239164352417,-0.22270303964614868,-0.2092236876487732,-0.1957443207502365,-0.18226495385169983,-0.16878560185432434,-0.15530624985694885,-0.14182686805725098,-0.1283475160598755,-0.1148681640625,-0.10138881206512451,-0.08790946006774902,-0.07443007826805115,-0.06095072627067566,-0.04747137427330017,-0.033991992473602295,-0.020512640476226807,-0.007033258676528931,0.006446093320846558,0.019925445318222046,0.03340482711791992,0.04688417911529541,0.0603635311126709,0.07384291291236877,0.08732226490974426,0.10080161690711975,0.11428096890449524,0.12776032090187073,0.1412397027015686,0.1547190546989441,0.16819840669631958,0.18167777359485626,0.19515714049339294,0.20863649249076843,0.22211584448814392,0.2355952113866806,0.24907457828521729,0.2625539302825928,0.27603328227996826,0.28951263427734375,0.3029920160770416,0.3164713680744171,0.3299507200717926,0.3434301018714905,0.35690945386886597,0.37038880586624146,0.38386815786361694,0.39734750986099243,0.4108268916606903,0.4243062436580658],"_type":"histogram"},"final_train_char_acc":0.19506418357593291,"val_char_acc":0.22982376987544947,"_timestamp":1.7463730253505821e+09,"gradients/graph_3decoder.fc.weight":{"values":[1,0,1,1,0,2,1,1,4,8,6,9,7,11,12,15,18,20,17,29,37,35,34,56,69,73,76,109,147,493,141,108,76,68,49,48,42,39,38,21,31,17,18,14,5,6,6,4,2,14,0,2,0,1,0,0,1,0,2,1,0,0,1,1],"bins":[-0.024912748485803604,-0.024063311517238617,-0.02321387454867363,-0.022364435717463493,-0.021514998748898506,-0.02066556178033352,-0.019816122949123383,-0.018966685980558395,-0.018117249011993408,-0.01726781204342842,-0.016418375074863434,-0.015568936243653297,-0.01471949927508831,-0.013870062306523323,-0.013020624406635761,-0.0121711865067482,-0.011321749538183212,-0.010472312569618225,-0.009622874669730663,-0.008773436769843102,-0.007923999801278114,-0.007074562832713127,-0.006225124001502991,-0.0053756870329380035,-0.004526250064373016,-0.003676813095808029,-0.002827376127243042,-0.0019779372960329056,-0.0011285003274679184,-0.0002790633589029312,0.0005703754723072052,0.0014198124408721924,0.0022692475467920303,0.0031186845153570175,0.003968121483922005,0.004817560315132141,0.005666997283697128,0.0065164342522621155,0.007365873083472252,0.008215310052037239,0.009064747020602226,0.009914183989167213,0.0107636209577322,0.011613059788942337,0.012462496757507324,0.013311933726072311,0.014161371625959873,0.015010809525847435,0.015860246494412422,0.01670968346297741,0.017559122294187546,0.018408559262752533,0.01925799623131752,0.020107433199882507,0.020956870168447495,0.02180630899965763,0.022655745968222618,0.023505182936787605,0.02435462176799774,0.02520405873656273,0.026053495705127716,0.026902932673692703,0.02775236964225769,0.028601808473467827,0.029451245442032814],"_type":"histogram"}}