{"gradients/encoder.layer.weight_hh_l0":{"values":[2,0,2,1,1,1,0,3,1,1,0,1,0,0,2,5,3,8,6,7,4,3,5,11,13,28,183,868,8905,1726,355,54,15,8,7,6,8,5,3,3,5,5,3,4,1,0,2,2,2,1,1,2,0,2,3,0,0,0,0,0,0,0,0,1],"bins":[-0.13331693410873413,-0.1286681592464447,-0.12401939183473587,-0.11937061697244644,-0.11472184956073761,-0.11007307469844818,-0.10542429983615875,-0.10077552497386932,-0.09612675756216049,-0.09147799015045166,-0.08682921528816223,-0.0821804404258728,-0.07753166556358337,-0.07288289815187454,-0.06823412328958511,-0.06358535587787628,-0.05893658101558685,-0.054287806153297424,-0.04963903874158859,-0.044990263879299164,-0.04034149646759033,-0.0356927216053009,-0.031043946743011475,-0.026395179331302643,-0.021746404469013214,-0.017097629606723785,-0.012448862195014954,-0.007800087332725525,-0.003151312470436096,0.0014974623918533325,0.006146222352981567,0.010794997215270996,0.015443772077560425,0.020092546939849854,0.024741321802139282,0.029390081763267517,0.034038856625556946,0.038687631487846375,0.0433364063501358,0.047985173761844635,0.052633948624134064,0.05728272348642349,0.061931490898132324,0.06658026576042175,0.07122904062271118,0.07587780803442001,0.08052658289670944,0.08517535030841827,0.0898241251707077,0.09447290003299713,0.09912166744470596,0.10377044230699539,0.10841920971870422,0.11306798458099365,0.11771675944328308,0.12236553430557251,0.12701430916786194,0.13166306912899017,0.1363118439912796,0.14096061885356903,0.14560939371585846,0.1502581685781479,0.15490692853927612,0.15955570340156555,0.16420447826385498],"_type":"histogram"},"_step":0,"gradients/decoder.layer.weight_ih_l0":{"bins":[-0.013571936637163162,-0.013202285394072533,-0.012832633219659328,-0.012462981976568699,-0.012093329802155495,-0.011723678559064865,-0.011354027315974236,-0.010984376072883606,-0.010614723898470402,-0.010245071724057198,-0.009875420480966568,-0.009505769237875938,-0.009136117994785309,-0.008766465820372105,-0.008396814577281475,-0.008027162402868271,-0.007657511159777641,-0.007287859451025724,-0.0069182077422738075,-0.006548556499183178,-0.006178904790431261,-0.005809253081679344,-0.005439601838588715,-0.00506994966417551,-0.004700298421084881,-0.004330647177994251,-0.003960995003581047,-0.0035913437604904175,-0.003221692517399788,-0.0028520403429865837,-0.002482389099895954,-0.00211273692548275,-0.0017430856823921204,-0.0013734344393014908,-0.0010037822648882866,-0.000634131021797657,-0.0002644788473844528,0.00010517239570617676,0.00047482363879680634,0.0008444758132100105,0.00121412705630064,0.0015837782993912697,0.001953430473804474,0.0023230817168951035,0.0026927334256470203,0.0030623851343989372,0.003432036377489567,0.0038016880862414837,0.004171339794993401,0.0045409915037453175,0.004910643212497234,0.005280294455587864,0.005649946164339781,0.006019597873091698,0.006389249116182327,0.006758900824934244,0.007128552533686161,0.007498204242438078,0.007867855951189995,0.008237507194280624,0.008607158437371254,0.008976810611784458,0.009346461854875088,0.009716114029288292,0.010085765272378922],"_type":"histogram","values":[2,0,0,1,1,0,1,0,2,1,2,0,2,7,4,1,2,3,6,5,2,11,4,20,16,19,23,15,30,36,39,56,71,114,164,334,837,459,238,126,78,60,43,41,30,20,19,14,13,20,12,11,7,5,12,4,6,8,3,2,4,1,2,3]},"gradients/decoder.embed.weight":{"_type":"histogram","values":[4,1,0,0,1,0,0,0,1,2,2,0,1,0,4,3,1,4,6,2,0,4,6,6,9,8,14,14,17,21,29,36,46,575,39,33,29,24,17,4,18,9,6,4,4,5,4,0,1,2,1,0,0,2,1,0,0,0,2,0,0,0,1,1],"bins":[-0.026998046785593033,-0.02618303708732128,-0.02536802738904953,-0.02455301769077778,-0.023738007992506027,-0.022922998294234276,-0.022107988595962524,-0.021292978897690773,-0.02047796919941902,-0.01966295950114727,-0.01884794980287552,-0.018032938241958618,-0.017217930406332016,-0.016402918845415115,-0.015587910078465939,-0.014772900380194187,-0.013957890681922436,-0.013142880983650684,-0.012327871285378933,-0.011512861587107182,-0.010697850957512856,-0.009882841259241104,-0.009067831560969353,-0.008252821862697601,-0.00743781216442585,-0.0066228024661540985,-0.005807792767882347,-0.004992783069610596,-0.004177773371338844,-0.003362763673067093,-0.0025477539747953415,-0.00173274427652359,-0.0009177345782518387,-0.00010272487998008728,0.0007122848182916641,0.0015272945165634155,0.002342304214835167,0.0031573139131069183,0.00397232361137867,0.004787333309650421,0.0056023430079221725,0.006417352706193924,0.007232362404465675,0.008047372102737427,0.008862381801009178,0.009677392430603504,0.010492402128875256,0.011307411827147007,0.012122421525418758,0.01293743122369051,0.013752440921962261,0.014567450620234013,0.015382460318505764,0.01619746908545494,0.01701248064637184,0.017827490344643593,0.018642500042915344,0.019457509741187096,0.020272519439458847,0.0210875291377306,0.02190253883600235,0.0227175485342741,0.023532558232545853,0.024347567930817604,0.025162577629089355]},"val_char_acc":0.39932734506377915,"gradients/decoder.layer.weight_hh_l0":{"bins":[-0.035979654639959335,-0.034822989255189896,-0.033666323870420456,-0.032509658485651016,-0.03135299310088158,-0.030196327716112137,-0.029039664193987846,-0.027882998809218407,-0.026726333424448967,-0.025569668039679527,-0.024413002654910088,-0.023256339132785797,-0.022099673748016357,-0.020943008363246918,-0.019786342978477478,-0.01862967759370804,-0.0174730122089386,-0.01631634682416916,-0.01515968143939972,-0.01400301605463028,-0.01284635066986084,-0.01168968714773655,-0.01053302176296711,-0.00937635637819767,-0.00821969099342823,-0.007063025608658791,-0.005906360223889351,-0.004749694839119911,-0.0035930313169956207,-0.002436365932226181,-0.0012797005474567413,-0.00012303516268730164,0.001033630222082138,0.0021902956068515778,0.0033469609916210175,0.004503626376390457,0.005660291761159897,0.006816955283284187,0.007973620668053627,0.009130286052823067,0.010286951437592506,0.011443616822361946,0.012600282207131386,0.013756947591900826,0.014913611114025116,0.016070276498794556,0.017226941883563995,0.018383607268333435,0.019540272653102875,0.020696938037872314,0.021853603422641754,0.023010268807411194,0.024166934192180634,0.025323599576950073,0.026480263099074364,0.027636928483843803,0.028793593868613243,0.029950259253382683,0.031106924638152122,0.03226358816027641,0.03342025354504585,0.03457691892981529,0.03573358431458473,0.03689024969935417,0.03804691508412361],"_type":"histogram","values":[1,0,1,1,1,3,3,3,3,8,5,10,9,9,16,18,12,21,34,34,40,59,67,110,150,148,270,341,591,1072,2449,3366,1249,668,388,270,207,140,115,70,63,46,43,29,31,25,11,14,18,11,5,4,5,6,5,2,1,1,3,1,0,1,0,1]},"train_seq_acc":0.003976900133268462,"gradients/encoder.layer.weight_ih_l0":{"bins":[-0.11826064437627792,-0.11500588804483414,-0.11175113916397095,-0.10849638283252716,-0.10524163395166397,-0.10198687762022018,-0.098732128739357,-0.09547737240791321,-0.09222262352705002,-0.08896786719560623,-0.08571311831474304,-0.08245836198329926,-0.07920360565185547,-0.07594885677099228,-0.07269410789012909,-0.0694393515586853,-0.06618459522724152,-0.06292984634637833,-0.05967509374022484,-0.05642034113407135,-0.053165584802627563,-0.049910835921764374,-0.04665607959032059,-0.0434013307094574,-0.04014657437801361,-0.03689182549715042,-0.033637069165706635,-0.030382320284843445,-0.027127563953399658,-0.02387281507253647,-0.020618058741092682,-0.017363309860229492,-0.014108553528785706,-0.010853797197341919,-0.007599048316478729,-0.004344291985034943,-0.001089543104171753,0.0021652132272720337,0.005419962108135223,0.00867471843957901,0.0119294673204422,0.015184223651885986,0.018438972532749176,0.021693728864192963,0.024948477745056152,0.02820323407649994,0.03145798668265343,0.034712739288806915,0.0379674918949604,0.04122224450111389,0.04447699710726738,0.04773174971342087,0.050986502319574356,0.054241254925727844,0.05749600753188133,0.06075076013803482,0.06400551646947861,0.0672602653503418,0.07051502168178558,0.07376977056264877,0.07702452689409256,0.08027927577495575,0.08353403210639954,0.08678878098726273,0.09004353731870651],"_type":"histogram","values":[1,0,0,0,0,0,0,0,0,1,0,0,0,0,0,1,0,1,1,3,1,0,1,0,4,3,5,2,10,17,18,33,55,91,192,514,1359,378,172,80,40,40,17,10,7,1,3,2,3,1,0,0,0,2,0,0,0,1,0,0,0,0,0,2]},"gradients/encoder.embed.weight":{"_type":"histogram","values":[2,0,0,0,0,0,0,1,0,0,1,0,0,0,3,0,2,0,3,5,3,1,3,2,5,6,8,11,9,16,21,47,173,39,37,15,13,7,12,8,6,3,5,1,2,1,0,0,0,0,2,2,0,0,0,3,0,1,0,0,0,0,0,1],"bins":[-0.02321361005306244,-0.022509267553687096,-0.021804925054311752,-0.02110058255493641,-0.020396240055561066,-0.019691895693540573,-0.01898755319416523,-0.018283210694789886,-0.017578868195414543,-0.0168745256960392,-0.016170183196663857,-0.015465839765965939,-0.014761497266590595,-0.014057154767215252,-0.013352811336517334,-0.01264846883714199,-0.011944126337766647,-0.011239783838391304,-0.01053544133901596,-0.009831097908318043,-0.0091267554089427,-0.008422412909567356,-0.007718069478869438,-0.007013726979494095,-0.0063093844801187515,-0.005605041980743408,-0.004900699481368065,-0.0041963569819927216,-0.003492012619972229,-0.0027876701205968857,-0.0020833276212215424,-0.001378985121846199,-0.0006746444851160049,2.969801425933838e-05,0.0007340405136346817,0.001438383013010025,0.0021427255123853683,0.002847069874405861,0.0035514123737812042,0.0042557548731565475,0.004960097372531891,0.005664439871907234,0.0063687823712825775,0.0070731258019804955,0.007777468301355839,0.008481810800731182,0.0091861542314291,0.009890496730804443,0.010594839230179787,0.01129918172955513,0.012003524228930473,0.012707867659628391,0.013412210159003735,0.014116552658379078,0.014820896089076996,0.01552523858845234,0.016229581087827682,0.016933923587203026,0.01763826608657837,0.018342608585953712,0.019046951085329056,0.01975129544734955,0.02045563794672489,0.021159980446100235,0.02186432294547558]},"gradients/decoder.layer.bias_hh_l0":{"_type":"histogram","values":[1,0,0,0,0,1,0,0,0,0,0,1,2,2,1,2,0,1,2,0,2,0,1,3,2,3,4,7,5,13,12,36,29,13,6,9,5,6,4,2,4,0,1,1,3,1,1,0,0,0,0,2,0,2,0,0,0,0,0,0,0,0,0,2],"bins":[-0.0343664176762104,-0.033288151025772095,-0.032209888100624084,-0.031131623312830925,-0.030053358525037766,-0.028975091874599457,-0.027896827086806297,-0.026818562299013138,-0.02574029751121998,-0.02466203272342682,-0.02358376793563366,-0.0225055031478405,-0.02142723649740219,-0.02034897357225418,-0.019270706921815872,-0.018192442134022713,-0.017114177346229553,-0.016035912558436394,-0.014957647770643234,-0.013879382982850075,-0.012801118195056915,-0.011722851544618607,-0.010644586756825447,-0.009566321969032288,-0.008488057181239128,-0.007409792393445969,-0.006331527605652809,-0.00525326281785965,-0.004174996167421341,-0.0030967332422733307,-0.002018466591835022,-0.0009402036666870117,0.000138062983751297,0.0012163296341896057,0.002294592559337616,0.0033728592097759247,0.004451122134923935,0.005529388785362244,0.006607653573155403,0.007685918360948563,0.008764183148741722,0.009842447936534882,0.010920712724328041,0.0119989775121212,0.01307724416255951,0.014155508950352669,0.015233773738145828,0.016312038525938988,0.017390303313732147,0.018468568101525307,0.019546832889318466,0.020625099539756775,0.021703362464904785,0.022781629115343094,0.023859893903136253,0.024938158690929413,0.026016423478722572,0.027094688266515732,0.02817295305430889,0.02925121784210205,0.03032948449254036,0.03140774741768837,0.03248601406812668,0.03356427699327469,0.034642543643713]},"parameters/decoder.fc.bias":{"bins":[-0.2701249122619629,-0.26204535365104675,-0.2539657950401306,-0.24588625133037567,-0.23780670762062073,-0.2297271490097046,-0.22164759039878845,-0.2135680466890335,-0.20548850297927856,-0.19740894436836243,-0.1893293857574463,-0.18124984204769135,-0.1731702834367752,-0.16509073972702026,-0.15701118111610413,-0.148931622505188,-0.14085207879543304,-0.1327725201845169,-0.12469297647476196,-0.11661341786384583,-0.10853387415409088,-0.10045431554317474,-0.0923747718334198,-0.08429521322250366,-0.07621565461158752,-0.06813611090183258,-0.06005655229091644,-0.0519770085811615,-0.04389744997024536,-0.03581790626049042,-0.02773834764957428,-0.019658803939819336,-0.011579230427742004,-0.0034996718168258667,0.004579871892929077,0.012659430503845215,0.02073897421360016,0.028818532824516296,0.03689807653427124,0.04497763514518738,0.05305717885494232,0.06113673746585846,0.0692162960767746,0.07729583978652954,0.08537539839744568,0.09345494210720062,0.10153450071811676,0.1096140444278717,0.11769360303878784,0.12577316164970398,0.13385270535945892,0.14193224906921387,0.15001180768013,0.15809136629104614,0.16617092490196228,0.17425046861171722,0.18233001232147217,0.1904095709323883,0.19848912954330444,0.2065686732530594,0.21464823186397552,0.22272777557373047,0.2308073341846466,0.23888687789440155,0.2469664365053177],"_type":"histogram","values":[2,0,1,0,0,0,1,1,0,1,1,3,1,1,0,1,0,0,3,3,4,0,1,1,0,1,1,2,0,1,1,1,2,0,3,1,1,1,0,1,5,1,1,2,0,3,2,0,0,0,2,1,0,1,2,1,0,0,0,0,0,1,0,1]},"gradients/decoder.fc.bias":{"values":[1,0,0,0,0,1,0,0,0,0,0,0,0,0,0,0,0,0,0,0,1,1,1,1,3,0,0,4,2,1,2,12,9,8,5,1,3,1,0,2,1,2,0,0,0,1,0,0,0,0,0,0,0,0,0,0,0,0,0,0,0,0,0,1],"bins":[-0.030659176409244537,-0.02969403937458992,-0.028728902339935303,-0.027763765305280685,-0.026798628270626068,-0.02583349123597145,-0.024868354201316833,-0.023903217166662216,-0.0229380801320076,-0.02197294309735298,-0.021007806062698364,-0.020042669028043747,-0.01907753013074398,-0.018112393096089363,-0.017147256061434746,-0.01618211902678013,-0.015216981992125511,-0.014251844957470894,-0.013286707922816277,-0.01232157088816166,-0.011356433853507042,-0.010391296818852425,-0.009426159784197807,-0.00846102274954319,-0.0074958838522434235,-0.006530746817588806,-0.005565609782934189,-0.0046004727482795715,-0.0036353357136249542,-0.002670198678970337,-0.0017050616443157196,-0.0007399246096611023,0.00022521428763866425,0.0011903513222932816,0.002155488356947899,0.003120625391602516,0.0040857624262571335,0.005050899460911751,0.006016036495566368,0.006981173530220985,0.007946310564875603,0.00891144946217537,0.009876586496829987,0.010841723531484604,0.011806860566139221,0.012771997600793839,0.013737134635448456,0.014702271670103073,0.01566740870475769,0.016632545739412308,0.017597682774066925,0.018562819808721542,0.01952795684337616,0.020493093878030777,0.021458230912685394,0.02242336794734001,0.02338850498199463,0.024353642016649246,0.025318779051303864,0.02628391794860363,0.027249054983258247,0.028214192017912865,0.029179329052567482,0.0301444660872221,0.031109603121876717],"_type":"histogram"},"parameters/decoder.layer.bias_hh_l0":{"bins":[-0.40015220642089844,-0.38441985845565796,-0.3686875104904175,-0.352955162525177,-0.3372228145599365,-0.32149046659469604,-0.30575814843177795,-0.2900258004665375,-0.274293452501297,-0.2585611045360565,-0.24282875657081604,-0.22709642350673676,-0.21136407554149628,-0.1956317275762558,-0.1798993945121765,-0.16416704654693604,-0.14843469858169556,-0.13270235061645508,-0.1169700026512146,-0.10123765468597412,-0.08550530672073364,-0.06977298855781555,-0.05404064059257507,-0.038308292627334595,-0.022575944662094116,-0.006843596696853638,0.00888875126838684,0.02462109923362732,0.04035341739654541,0.05608576536178589,0.07181811332702637,0.08755046129226685,0.10328280925750732,0.1190151572227478,0.13474750518798828,0.15047985315322876,0.16621220111846924,0.18194451928138733,0.1976768672466278,0.2134092152118683,0.22914156317710876,0.24487391114234924,0.2606062591075897,0.2763386070728302,0.2920709252357483,0.30780327320098877,0.32353562116622925,0.3392679691314697,0.3550003170967102,0.3707326650619507,0.38646501302719116,0.40219736099243164,0.4179297089576721,0.4336620569229126,0.4493943750858307,0.46512672305107117,0.48085907101631165,0.4965914189815521,0.5123237371444702,0.5280560851097107,0.5437884330749512,0.5595207810401917,0.5752531290054321,0.5909854769706726,0.6067178249359131],"_type":"histogram","values":[2,0,0,0,2,1,4,0,1,1,1,4,2,5,1,8,3,4,6,5,3,3,12,6,4,8,13,7,11,7,6,3,7,8,7,9,6,2,0,3,4,1,2,2,0,2,1,0,0,1,0,0,0,2,0,0,0,0,0,0,0,1,0,1]},"teacher_force_ratio":0.5,"gradients/encoder.layer.bias_ih_l0":{"bins":[-0.05508986860513687,-0.05232362821698189,-0.049557384103536606,-0.04679114371538162,-0.04402489960193634,-0.04125865921378136,-0.03849241882562637,-0.03572617471218109,-0.03295993432402611,-0.030193692073225975,-0.027427449822425842,-0.02466120943427086,-0.021894969046115875,-0.019128724932670593,-0.01636248454451561,-0.013596240431070328,-0.010830000042915344,-0.00806375965476036,-0.005297515541315079,-0.002531275153160095,0.00023496896028518677,0.0030012093484401703,0.005767449736595154,0.008533693850040436,0.01129993051290512,0.014066174626350403,0.016832418739795685,0.019598662853240967,0.022364899516105652,0.025131143629550934,0.027897387742996216,0.0306636244058609,0.033429861068725586,0.03619610518217087,0.03896234184503555,0.041728585958480835,0.04449483007192612,0.0472610667347908,0.050027310848236084,0.052793554961681366,0.05555979907512665,0.05832603573799133,0.061092279851436615,0.0638585239648819,0.06662476062774658,0.06939100474119186,0.07215724885463715,0.07492348551750183,0.07768972963094711,0.0804559737443924,0.08322221040725708,0.08598845452070236,0.08875469863414764,0.09152093529701233,0.09428717941045761,0.0970534235239029,0.09981966018676758,0.10258590430021286,0.10535214841365814,0.10811838507652283,0.11088462918996811,0.11365087330341339,0.11641711741685867,0.11918335407972336,0.12194959819316864],"_type":"histogram","values":[1,0,0,0,0,0,0,2,0,0,1,1,1,3,4,5,6,14,14,54,36,20,8,5,2,6,0,2,0,0,3,1,0,0,0,0,0,0,0,0,0,0,0,1,0,0,0,0,0,0,0,0,0,0,0,0,0,0,0,0,0,1,0,1]},"val_seq_acc":0.014548981571290009,"train_loss":2.5639406327668786,"train_char_acc":0.3553672352627966,"parameters/encoder.layer.bias_ih_l0":{"bins":[-0.42939499020576477,-0.4144461452960968,-0.39949730038642883,-0.38454845547676086,-0.3695996403694153,-0.3546507954597473,-0.33970195055007935,-0.3247531056404114,-0.3098042607307434,-0.29485541582107544,-0.27990657091140747,-0.2649577260017395,-0.25000888109207153,-0.23506005108356476,-0.22011122107505798,-0.20516237616539001,-0.19021353125572205,-0.17526468634605408,-0.1603158414363861,-0.14536699652671814,-0.13041815161705017,-0.11546933650970459,-0.10052049160003662,-0.08557164669036865,-0.07062280178070068,-0.055673956871032715,-0.040725111961364746,-0.025776267051696777,-0.010827451944351196,0.0041213929653167725,0.01907023787498474,0.03401908278465271,0.04896789789199829,0.06391674280166626,0.07886558771133423,0.0938144326210022,0.10876327753067017,0.12371209263801575,0.13866093754768372,0.15360978245735168,0.16855862736701965,0.18350747227668762,0.1984563171863556,0.21340516209602356,0.22835397720336914,0.2433028221130371,0.2582516670227051,0.27320051193237305,0.288149356842041,0.303098201751709,0.31804704666137695,0.3329958915710449,0.3479447364807129,0.36289358139038086,0.37784239649772644,0.3927912414073944,0.4077400863170624,0.42268893122673035,0.4376377761363983,0.4525865912437439,0.46753543615341187,0.48248428106307983,0.4974331259727478,0.5123819708824158,0.5273308157920837],"_type":"histogram","values":[1,0,0,0,0,2,1,1,0,0,1,1,3,2,2,2,6,4,5,3,6,3,3,9,7,8,8,5,9,5,12,15,10,5,6,6,5,3,4,3,8,2,2,3,2,2,0,2,0,0,0,0,0,1,0,2,1,0,0,0,0,0,0,1]},"parameters/encoder.layer.weight_hh_l0":{"values":[2,0,0,0,0,0,0,1,0,0,3,4,6,4,10,11,9,24,29,40,49,99,132,169,311,451,731,931,1244,1353,1445,1307,1143,920,645,414,287,175,90,64,54,31,27,16,16,12,5,6,4,4,2,2,2,3,0,0,0,0,0,0,0,0,0,1],"bins":[-1.3222508430480957,-1.2786279916763306,-1.2350051403045654,-1.1913824081420898,-1.1477595567703247,-1.1041367053985596,-1.0605138540267944,-1.0168910026550293,-0.9732682108879089,-0.9296454191207886,-0.8860225677490234,-0.8423997163772583,-0.7987768650054932,-0.7551540732383728,-0.7115312218666077,-0.6679084300994873,-0.6242855787277222,-0.580662727355957,-0.5370399355888367,-0.49341708421707153,-0.44979429244995117,-0.40617144107818604,-0.3625485897064209,-0.31892573833465576,-0.2753028869628906,-0.23168015480041504,-0.1880573034286499,-0.14443445205688477,-0.10081160068511963,-0.05718874931335449,-0.013566017150878906,0.03005683422088623,0.07367956638336182,0.11730241775512695,0.1609252691268921,0.20454800128936768,0.2481708526611328,0.29179370403289795,0.3354165554046631,0.3790394067764282,0.4226621389389038,0.46628499031066895,0.5099078416824341,0.5535306930541992,0.5971535444259644,0.6407763361930847,0.6843991875648499,0.7280219793319702,0.7716448307037354,0.8152676820755005,0.8588904738426208,0.902513325214386,0.9461361169815063,0.9897589683532715,1.0333818197250366,1.0770046710968018,1.1206274032592773,1.1642502546310425,1.2078731060028076,1.2514959573745728,1.295118808746338,1.3387415409088135,1.3823643922805786,1.4259872436523438,1.4696100950241089],"_type":"histogram"},"parameters/encoder.layer.weight_ih_l0":{"values":[1,1,2,0,0,3,7,4,4,13,7,5,10,11,17,27,21,19,35,44,55,67,82,90,101,126,138,141,151,156,141,168,182,149,138,118,135,105,97,78,80,63,48,50,37,31,20,17,16,20,7,3,6,3,5,4,2,1,3,2,2,1,1,1],"bins":[-0.7273662686347961,-0.7042626142501831,-0.6811589598655701,-0.658055305480957,-0.634951651096344,-0.611847996711731,-0.5887443423271179,-0.5656406879425049,-0.5425370335578918,-0.5194333791732788,-0.49632972478866577,-0.4732261002063751,-0.4501224458217621,-0.42701879143714905,-0.403915137052536,-0.380811482667923,-0.35770782828330994,-0.3346041738986969,-0.31150051951408386,-0.2883968651294708,-0.2652932107448578,-0.24218955636024475,-0.2190859317779541,-0.19598227739334106,-0.17287862300872803,-0.149774968624115,-0.12667131423950195,-0.10356765985488892,-0.08046400547027588,-0.05736035108566284,-0.034256696701049805,-0.011153042316436768,0.01195061206817627,0.03505426645278931,0.058157920837402344,0.08126157522201538,0.10436522960662842,0.12746888399124146,0.1505725383758545,0.17367619276046753,0.19677984714508057,0.2198835015296936,0.24298715591430664,0.2660907804965973,0.2891944348812103,0.31229808926582336,0.3354017436504364,0.35850539803504944,0.3816090524196625,0.4047127068042755,0.42781636118888855,0.4509200155735016,0.4740236699581146,0.49712732434272766,0.5202309489250183,0.5433346033096313,0.5664382576942444,0.5895419120788574,0.6126455664634705,0.6357492208480835,0.6588528752326965,0.6819565296173096,0.7050601840019226,0.7281638383865356,0.7512674927711487],"_type":"histogram"},"parameters/decoder.fc.weight":{"values":[2,0,0,2,1,1,1,1,1,1,5,5,2,7,9,15,19,23,30,45,36,55,82,94,112,141,166,195,225,242,264,294,246,261,231,227,184,159,146,111,104,81,57,42,35,23,25,16,11,16,13,1,7,10,6,2,2,0,1,1,0,0,1,1],"bins":[-1.310789704322815,-1.269776701927185,-1.2287636995315552,-1.1877506971359253,-1.1467376947402954,-1.1057246923446655,-1.0647116899490356,-1.0236985683441162,-0.9826856255531311,-0.9416726231575012,-0.9006596207618713,-0.8596465587615967,-0.8186335563659668,-0.7776205539703369,-0.736607551574707,-0.6955945491790771,-0.6545815467834473,-0.6135685443878174,-0.5725555419921875,-0.5315425395965576,-0.49052953720092773,-0.4495164752006531,-0.4085034728050232,-0.3674904704093933,-0.3264774680137634,-0.28546440601348877,-0.2444514036178589,-0.203438401222229,-0.16242539882659912,-0.12141239643096924,-0.08039939403533936,-0.03938639163970947,0.0016266107559204102,0.04263961315155029,0.08365261554718018,0.12466561794281006,0.16567862033843994,0.20669162273406982,0.2477046251296997,0.2887176275253296,0.32973068952560425,0.37074369192123413,0.411756694316864,0.4527696967124939,0.49378275871276855,0.5347957611083984,0.5758087635040283,0.6168217658996582,0.6578347682952881,0.698847770690918,0.7398607730865479,0.7808737754821777,0.8218867778778076,0.8628997802734375,0.9039128422737122,0.944925844669342,0.9859388470649719,1.026951789855957,1.0679649114608765,1.1089779138565063,1.1499909162521362,1.1910039186477661,1.232016921043396,1.2730299234390259,1.3140429258346558],"_type":"histogram"},"val_loss":2.399299501961675,"_timestamp":1.746372126780475e+09,"_runtime":46.062224,"parameters/encoder.layer.bias_hh_l0":{"_type":"histogram","values":[1,0,0,1,0,0,2,0,0,0,1,1,0,1,3,0,1,2,1,2,2,0,2,1,4,3,1,6,4,7,12,4,12,10,2,8,2,7,11,3,4,9,7,9,4,4,7,6,5,4,3,2,3,2,2,1,0,0,0,1,0,0,0,2],"bins":[-0.44536882638931274,-0.4325619041919708,-0.4197549521923065,-0.4069480299949646,-0.3941410779953003,-0.3813341557979584,-0.36852723360061646,-0.35572028160095215,-0.34291332960128784,-0.3301064074039459,-0.317299485206604,-0.3044925332069397,-0.2916856110095978,-0.27887868881225586,-0.26607173681259155,-0.25326478481292725,-0.24045786261558533,-0.22765092551708221,-0.2148439884185791,-0.202037051320076,-0.18923011422157288,-0.17642319202423096,-0.16361624002456665,-0.15080931782722473,-0.1380023956298828,-0.1251954436302185,-0.11238852143287659,-0.09958156943321228,-0.08677464723587036,-0.07396769523620605,-0.061160773038864136,-0.04835382103919983,-0.03554689884185791,-0.02273997664451599,-0.009933024644851685,0.0028738975524902344,0.01568084955215454,0.02848777174949646,0.04129472374916077,0.054101645946502686,0.06690859794616699,0.07971552014350891,0.09252244234085083,0.10532939434051514,0.11813631653785706,0.13094325363636017,0.14375019073486328,0.1565571278333664,0.1693640649318695,0.18217100203037262,0.19497793912887573,0.20778487622737885,0.22059181332588196,0.23339873552322388,0.246205672621727,0.2590126097202301,0.271819531917572,0.28462648391723633,0.29743343591690063,0.31024035811424255,0.3230472803115845,0.3358542323112488,0.3486611545085907,0.361468106508255,0.3742750287055969]},"gradients/encoder.layer.bias_hh_l0":{"_type":"histogram","values":[1,0,0,0,0,1,4,2,6,11,12,31,49,35,13,10,5,3,3,1,0,1,1,0,0,0,0,0,0,0,0,0,0,0,0,0,0,0,1,0,1,0,0,0,0,0,0,0,0,0,0,0,0,0,0,0,0,0,0,0,0,0,0,1],"bins":[-0.028415760025382042,-0.026128774508833885,-0.02384178899228573,-0.02155480347573757,-0.019267817959189415,-0.016980832442641258,-0.014693846926093102,-0.012406861409544945,-0.010119875892996788,-0.007832890376448631,-0.0055459048599004745,-0.003258919343352318,-0.0009719338268041611,0.0013150516897439957,0.0036020372062921524,0.005889022722840309,0.008176008239388466,0.010462993755936623,0.01274997927248478,0.015036964789032936,0.017323950305581093,0.01961093582212925,0.021897921338677406,0.024184906855225563,0.02647189237177372,0.028758877888321877,0.031045863404870033,0.03333284705877304,0.0356198325753212,0.037906818091869354,0.04019380360841751,0.04248078912496567,0.044767774641513824,0.04705476015806198,0.04934174567461014,0.051628731191158295,0.05391571670770645,0.05620270222425461,0.058489687740802765,0.06077667325735092,0.06306365877389908,0.06535064429044724,0.06763762980699539,0.06992461532354355,0.0722116008400917,0.07449858635663986,0.07678557187318802,0.07907255738973618,0.08135954290628433,0.08364652842283249,0.08593351393938065,0.0882204994559288,0.09050748497247696,0.09279447048902512,0.09508145600557327,0.09736844152212143,0.09965542703866959,0.10194241255521774,0.1042293980717659,0.10651638358831406,0.10880336910486221,0.11109035462141037,0.11337734013795853,0.11566432565450668,0.11795131117105484]},"parameters/decoder.layer.bias_ih_l0":{"bins":[-0.3998367488384247,-0.3854336738586426,-0.3710305988788605,-0.35662752389907837,-0.3422244191169739,-0.32782137393951416,-0.31341826915740967,-0.29901519417762756,-0.28461211919784546,-0.27020904421806335,-0.25580596923828125,-0.24140287935733795,-0.22699980437755585,-0.21259672939777374,-0.19819363951683044,-0.18379056453704834,-0.16938748955726624,-0.15498441457748413,-0.14058133959770203,-0.12617826461791992,-0.11177518963813782,-0.09737208485603333,-0.08296900987625122,-0.06856593489646912,-0.05416285991668701,-0.03975978493690491,-0.025356709957122803,-0.010953634977340698,0.003449469804763794,0.0178525447845459,0.032255619764328,0.04665869474411011,0.0610617995262146,0.0754648745059967,0.08986794948577881,0.10427102446556091,0.11867409944534302,0.1330772042274475,0.14748027920722961,0.16188335418701172,0.17628642916679382,0.19068950414657593,0.20509257912635803,0.21949565410614014,0.23389875888824463,0.24830183386802673,0.26270490884780884,0.27710798382759094,0.29151105880737305,0.30591413378715515,0.32031720876693726,0.33472031354904175,0.34912335872650146,0.36352646350860596,0.37792953848838806,0.39233261346817017,0.40673568844795227,0.4211387634277344,0.4355418384075165,0.4499449133872986,0.4643480181694031,0.4787510931491852,0.4931541681289673,0.507557213306427,0.5219603180885315],"_type":"histogram","values":[2,1,0,1,0,0,2,0,3,1,4,0,2,3,1,2,3,3,3,4,3,8,4,6,7,11,10,4,8,3,6,8,9,4,7,9,7,11,6,2,3,5,1,2,0,0,3,0,0,0,1,0,2,0,1,0,2,0,1,1,0,0,1,1]},"epoch":1,"parameters/decoder.layer.weight_ih_l0":{"_type":"histogram","values":[1,2,2,0,6,2,2,3,6,3,8,9,20,22,30,21,29,35,38,74,56,76,97,110,143,127,118,137,178,178,156,154,154,140,130,133,106,87,93,66,64,52,45,34,27,19,16,11,12,7,9,6,3,4,2,2,2,2,0,0,1,1,0,1],"bins":[-1.072939395904541,-1.0371814966201782,-1.0014235973358154,-0.9656656980514526,-0.9299077987670898,-0.894149899482727,-0.8583919405937195,-0.8226340413093567,-0.7868761420249939,-0.7511182427406311,-0.7153603434562683,-0.6796023845672607,-0.643844485282898,-0.6080865859985352,-0.5723286867141724,-0.5365707874298096,-0.5008128881454468,-0.465054988861084,-0.4292970895767212,-0.3935391902923584,-0.3577812910079956,-0.32202333211898804,-0.28626543283462524,-0.25050753355026245,-0.21474963426589966,-0.17899173498153687,-0.14323383569717407,-0.10747593641281128,-0.07171797752380371,-0.03596007823944092,-0.000202178955078125,0.03555572032928467,0.07131350040435791,0.1070713996887207,0.1428292989730835,0.1785871982574463,0.21434509754180908,0.25010305643081665,0.28586095571517944,0.32161885499954224,0.35737675428390503,0.3931346535682678,0.4288925528526306,0.4646504521369934,0.500408411026001,0.5361663103103638,0.5719242095947266,0.6076821088790894,0.6434400081634521,0.6791979074478149,0.7149558067321777,0.7507137060165405,0.7864716053009033,0.8222295045852661,0.8579874634742737,0.8937453627586365,0.9295032620429993,0.9652611613273621,1.0010191202163696,1.0367770195007324,1.0725349187850952,1.108292818069458,1.1440507173538208,1.1798086166381836,1.2155665159225464]},"parameters/decoder.layer.weight_hh_l0":{"_type":"histogram","values":[1,0,0,1,2,1,0,1,1,1,3,2,3,4,3,5,6,9,7,20,20,24,37,87,90,111,189,264,342,543,715,910,1114,1180,1276,1199,1030,863,657,435,356,212,156,126,84,50,44,31,14,14,10,10,7,1,5,2,4,1,1,1,1,0,0,2],"bins":[-1.5655970573425293,-1.5200706720352173,-1.4745444059371948,-1.4290180206298828,-1.3834917545318604,-1.3379653692245483,-1.2924389839172363,-1.2469127178192139,-1.2013863325119019,-1.1558600664138794,-1.1103336811065674,-1.064807415008545,-1.019281029701233,-0.9737547039985657,-0.9282283186912537,-0.8827019929885864,-0.8371756672859192,-0.791649341583252,-0.7461230158805847,-0.7005966305732727,-0.6550703048706055,-0.6095439791679382,-0.564017653465271,-0.518491268157959,-0.4729650020599365,-0.4274386167526245,-0.38191235065460205,-0.33638596534729004,-0.290859580039978,-0.24533331394195557,-0.19980692863464355,-0.1542806625366211,-0.10875427722930908,-0.06322789192199707,-0.01770162582397461,0.027824759483337402,0.07335102558135986,0.11887741088867188,0.1644037961959839,0.20993006229400635,0.25545644760131836,0.3009827136993408,0.34650909900665283,0.39203542470932007,0.4375617504119873,0.48308807611465454,0.5286144614219666,0.5741407871246338,0.619667112827301,0.6651934385299683,0.7107197642326355,0.7562461495399475,0.8017724752426147,0.847298800945282,0.8928251266479492,0.9383515119552612,0.9838777780532837,1.0294041633605957,1.0749304294586182,1.1204568147659302,1.1659832000732422,1.2115094661712646,1.2570358514785767,1.3025621175765991,1.3480885028839111]},"_wandb":{"runtime":46},"parameters/decoder.embed.weight":{"_type":"histogram","values":[1,0,1,2,0,1,0,0,1,3,1,4,2,4,4,5,6,10,9,20,9,15,16,19,35,31,35,36,40,44,59,55,55,46,46,38,42,48,41,30,34,24,24,29,23,18,17,9,6,4,1,5,3,5,1,1,2,1,0,1,0,1,0,1],"bins":[-1.1643459796905518,-1.128820776939392,-1.0932955741882324,-1.0577703714370728,-1.022245168685913,-0.9867200255393982,-0.9511948227882385,-0.9156696200370789,-0.880144476890564,-0.8446192741394043,-0.8090940713882446,-0.773568868637085,-0.7380436658859253,-0.7025184631347656,-0.666993260383606,-0.6314681172370911,-0.5959429144859314,-0.5604177117347717,-0.5248925089836121,-0.48936736583709717,-0.4538421630859375,-0.41831696033477783,-0.38279175758361816,-0.3472665548324585,-0.31174135208129883,-0.27621620893478394,-0.24069100618362427,-0.2051658034324646,-0.16964060068130493,-0.13411545753479004,-0.09859025478363037,-0.0630650520324707,-0.027539849281311035,0.007985353469848633,0.0435105562210083,0.07903575897216797,0.11456090211868286,0.15008610486984253,0.1856113076210022,0.22113651037216187,0.25666165351867676,0.2921868562698364,0.3277120590209961,0.36323726177215576,0.39876246452331543,0.4342876672744751,0.46981281042099,0.5053380131721497,0.5408632159233093,0.576388418674469,0.6119135618209839,0.6474387645721436,0.6829639673233032,0.7184891700744629,0.7540143728256226,0.7895395755767822,0.8250647783279419,0.8605899214744568,0.8961151242256165,0.9316403269767761,0.9671655297279358,1.0026906728744507,1.0382158756256104,1.07374107837677,1.1092662811279297]},"parameters/encoder.embed.weight":{"values":[1,0,1,0,2,2,2,1,1,1,4,3,4,5,5,7,3,6,9,4,6,13,12,12,3,13,18,15,18,12,11,13,17,15,31,13,16,10,21,11,9,9,7,7,13,12,13,10,4,4,8,4,7,2,3,8,4,3,5,0,2,2,2,1],"bins":[-3.0225424766540527,-2.9358677864074707,-2.8491928577423096,-2.7625181674957275,-2.6758434772491455,-2.5891685485839844,-2.5024938583374023,-2.4158191680908203,-2.3291444778442383,-2.242469549179077,-2.155794858932495,-2.069119930267334,-1.982445240020752,-1.89577054977417,-1.8090957403182983,-1.7224210500717163,-1.6357462406158447,-1.5490714311599731,-1.4623967409133911,-1.3757219314575195,-1.2890472412109375,-1.202372431755066,-1.1156976222991943,-1.0290229320526123,-0.9423480033874512,-0.8556733131408691,-0.7689986228942871,-0.6823239326477051,-0.595649003982544,-0.5089743137359619,-0.4222996234893799,-0.33562469482421875,-0.24895024299621582,-0.1622755527496338,-0.07560062408447266,0.011074066162109375,0.0977487564086914,0.18442368507385254,0.27109837532043457,0.3577730655670166,0.44444775581359863,0.5311226844787598,0.6177973747253418,0.7044721841812134,0.791146993637085,0.877821683883667,0.9644964933395386,1.0511711835861206,1.1378459930419922,1.2245208024978638,1.3111954927444458,1.3978703022003174,1.4845449924468994,1.571219801902771,1.6578946113586426,1.7445693016052246,1.8312441110610962,1.9179189205169678,2.00459361076355,2.091268539428711,2.177943229675293,2.264617919921875,2.351292610168457,2.437967538833618,2.5246422290802],"_type":"histogram"},"gradients/decoder.layer.bias_ih_l0":{"values":[2,1,0,0,2,0,3,1,1,0,0,0,4,0,0,3,1,1,2,2,5,4,3,5,11,27,44,17,8,12,3,4,4,2,2,1,3,2,3,1,0,0,1,1,0,1,1,0,1,0,0,0,0,0,1,0,0,0,0,1,0,0,0,1],"bins":[-0.0343664176762104,-0.03305898979306221,-0.03175155818462372,-0.030444130301475525,-0.029136700555682182,-0.02782927080988884,-0.026521842926740646,-0.025214413180947304,-0.02390698343515396,-0.02259955368936062,-0.021292123943567276,-0.019984696060419083,-0.01867726631462574,-0.017369836568832397,-0.016062408685684204,-0.014754978939890862,-0.013447549194097519,-0.012140119448304176,-0.010832689702510834,-0.00952526181936264,-0.008217832073569298,-0.006910402327775955,-0.005602974444627762,-0.004295544698834419,-0.0029881149530410767,-0.0016806870698928833,-0.0003732554614543915,0.0009341724216938019,0.0022416003048419952,0.003549031913280487,0.00485645979642868,0.006163891404867172,0.007471323013305664,0.008778750896453857,0.01008618250489235,0.011393610388040543,0.012701041996479034,0.014008469879627228,0.015315897762775421,0.016623329371213913,0.017930757254362106,0.01923818700015545,0.02054561674594879,0.021853044629096985,0.023160474374890327,0.02446790412068367,0.025775332003831863,0.027082761749625206,0.02839019149541855,0.02969762124121189,0.031005050987005234,0.03231247887015343,0.03361991047859192,0.03492733836174011,0.036234766244888306,0.0375421941280365,0.03884962573647499,0.04015705734491348,0.041464485228061676,0.04277191311120987,0.04407934099435806,0.045386772602796555,0.04669420048594475,0.04800163209438324,0.04930905997753143],"_type":"histogram"},"gradients/decoder.fc.weight":{"_type":"histogram","values":[1,0,0,0,0,2,4,4,3,1,0,4,7,0,2,4,3,6,10,6,13,16,22,27,45,61,69,83,130,194,330,780,1238,287,202,133,103,78,51,40,29,30,18,4,11,2,3,2,4,2,2,5,4,3,1,4,1,2,6,2,1,0,0,1],"bins":[-0.03716672956943512,-0.036005858331918716,-0.03484498709440231,-0.03368411585688591,-0.03252324461936951,-0.031362373381853104,-0.0302015021443367,-0.029040630906820297,-0.027879759669303894,-0.02671888843178749,-0.025558017194271088,-0.024397145956754684,-0.02323627658188343,-0.022075405344367027,-0.020914534106850624,-0.01975366286933422,-0.018592791631817818,-0.017431920394301414,-0.01627104915678501,-0.015110177919268608,-0.013949306681752205,-0.012788435444235802,-0.011627564206719398,-0.010466692969202995,-0.009305823594331741,-0.008144952356815338,-0.006984081119298935,-0.005823209881782532,-0.0046623386442661285,-0.0035014674067497253,-0.002340596169233322,-0.001179724931716919,-1.8853694200515747e-05,0.0011420175433158875,0.0023028887808322906,0.003463760018348694,0.004624631255865097,0.0057855024933815,0.0069463737308979034,0.008107244968414307,0.00926811620593071,0.010428985580801964,0.011589856818318367,0.01275072805583477,0.013911599293351173,0.015072470530867577,0.01623334176838398,0.017394213005900383,0.018555084243416786,0.01971595548093319,0.020876826718449593,0.022037697955965996,0.0231985691934824,0.024359438568353653,0.025520309805870056,0.02668118104338646,0.027842052280902863,0.029002923518419266,0.03016379475593567,0.03132466599345207,0.032485537230968475,0.03364640846848488,0.03480727970600128,0.035968150943517685,0.03712902218103409]}}