{"_step":0,"gradients/graph_1decoder.embed.weight":{"values":[1,0,0,0,0,0,0,1,1,1,1,1,1,0,2,0,0,1,0,1,1,1,2,1,1,1,1,4,1,8,6,11,34,81,757,38,23,11,2,5,0,0,1,1,2,2,1,0,0,4,1,1,4,2,2,0,1,0,1,0,0,0,0,1],"bins":[-0.020795660093426704,-0.020188789814710617,-0.01958192139863968,-0.01897505111992359,-0.018368180841207504,-0.017761312425136566,-0.01715444214642048,-0.01654757186770439,-0.015940703451633453,-0.015333833172917366,-0.014726962894201279,-0.014120093546807766,-0.013513224199414253,-0.012906353920698166,-0.012299484573304653,-0.011692614294588566,-0.011085744947195053,-0.01047887559980154,-0.009872005321085453,-0.00926513597369194,-0.008658265694975853,-0.00805139634758234,-0.0074445270001888275,-0.00683765672147274,-0.0062307873740792274,-0.005623918026685715,-0.005017047747969627,-0.00441017746925354,-0.003803309053182602,-0.0031964387744665146,-0.0025895684957504272,-0.001982700079679489,-0.001375831663608551,-0.0007689613848924637,-0.00016209296882152557,0.00044477730989456177,0.0010516475886106491,0.0016585160046815872,0.0022653862833976746,0.002872256562113762,0.0034791259095072746,0.004085995256900787,0.004692865535616875,0.005299734883010387,0.0059066042304039,0.0065134745091199875,0.0071203438565135,0.0077272141352295876,0.0083340834826231,0.008940952830016613,0.0095478231087327,0.010154692456126213,0.0107615627348423,0.011368432082235813,0.011975301429629326,0.012582171708345413,0.013189041055738926,0.013795910403132439,0.014402780681848526,0.015009650029242039,0.015616519376635551,0.01622338965535164,0.016830259934067726,0.017437128350138664,0.01804399862885475],"_type":"histogram"},"train_loss":3.3423488635500473,"parameters/graph_1decoder.layer.weight_hh_l0":{"values":[1,0,0,5,2,5,4,6,10,8,13,15,15,19,20,27,24,20,30,15,26,19,30,24,25,25,25,26,30,21,20,29,32,25,29,28,28,33,22,36,19,16,21,25,19,19,15,17,27,9,12,10,7,10,14,1,2,1,1,4,0,0,2,1],"bins":[-0.3129243850708008,-0.30276262760162354,-0.2926008701324463,-0.28243911266326904,-0.2722773551940918,-0.26211562752723694,-0.2519538700580597,-0.24179211258888245,-0.2316303551197052,-0.22146859765052795,-0.2113068401813507,-0.20114509761333466,-0.1909833401441574,-0.18082158267498016,-0.1706598401069641,-0.16049808263778687,-0.15033632516860962,-0.14017456769943237,-0.13001281023025513,-0.11985106766223907,-0.10968931019306183,-0.09952755272388458,-0.08936581015586853,-0.07920405268669128,-0.06904229521751404,-0.05888053774833679,-0.048718780279159546,-0.0385570228099823,-0.02839529514312744,-0.018233537673950195,-0.00807178020477295,0.002089977264404297,0.012251704931259155,0.0224134624004364,0.03257521986961365,0.042736977338790894,0.05289873480796814,0.063060462474823,0.07322221994400024,0.08338397741317749,0.09354573488235474,0.10370749235153198,0.11386924982070923,0.12403099238872528,0.13419274985790253,0.14435450732707977,0.15451624989509583,0.16467800736427307,0.17483976483345032,0.18500152230262756,0.1951632797718048,0.20532502233982086,0.2154867798089981,0.22564853727817535,0.2358102798461914,0.24597203731536865,0.2561337947845459,0.26629555225372314,0.2764573097229004,0.28661906719207764,0.2967808246612549,0.30694255232810974,0.317104309797287,0.32726606726646423,0.3374278247356415],"_type":"histogram"},"val_loss":3.2127188764769454,"gradients/graph_1encoder.layer.weight_ih_l0":{"values":[1,0,0,1,0,0,0,0,0,0,0,0,1,0,0,0,1,0,1,0,0,2,2,1,3,1,3,5,10,13,22,71,292,26,21,9,6,4,4,2,0,2,1,2,0,0,0,1,1,0,0,0,0,0,1,0,0,0,0,0,0,1,0,1],"bins":[-2.392337137280265e-07,-2.3181920028036984e-07,-2.244046868327132e-07,-2.1699018759591127e-07,-2.0957567414825462e-07,-2.0216116070059797e-07,-1.9474666146379604e-07,-1.873321480161394e-07,-1.7991763456848275e-07,-1.725031211208261e-07,-1.6508860767316946e-07,-1.5767410843636753e-07,-1.502595949887109e-07,-1.4284508154105424e-07,-1.354305823042523e-07,-1.2801606885659567e-07,-1.2060155540893902e-07,-1.1318704196128238e-07,-1.0577252851362573e-07,-9.83580292768238e-08,-9.094351582916715e-08,-8.352900238151051e-08,-7.611450314470858e-08,-6.869998969705193e-08,-6.128547624939529e-08,-5.387096280173864e-08,-4.6456449354082e-08,-3.9041950117280066e-08,-3.162743666962342e-08,-2.4212923221966776e-08,-1.6798423985164845e-08,-9.3839105375082e-09,-1.9693828789968393e-09,5.445130568659806e-09,1.2859644016316452e-08,2.0274143253118382e-08,2.7688656700775027e-08,3.510317014843167e-08,4.25176693852336e-08,4.993218283289025e-08,5.7346696280546894e-08,6.476120972820354e-08,7.217572317586018e-08,7.959022241266211e-08,8.700473586031876e-08,9.44192493079754e-08,1.0183374854477734e-07,1.0924826199243398e-07,1.1666277544009063e-07,1.2407728888774727e-07,1.314917881245492e-07,1.3890630157220585e-07,1.463208150198625e-07,1.5373532846751914e-07,1.6114984191517578e-07,1.6856434115197771e-07,1.7597885459963436e-07,1.83393368047291e-07,1.9080786728409294e-07,1.9822238073174958e-07,2.0563689417940623e-07,2.1305140762706287e-07,2.2046592107471952e-07,2.2788042031152145e-07,2.352949337591781e-07],"_type":"histogram"},"gradients/graph_1encoder.embed.weight":{"values":[1,0,0,0,0,0,0,1,0,0,0,1,0,0,0,1,0,0,0,1,0,0,2,0,0,3,1,3,2,4,9,429,4,3,3,0,0,3,0,1,0,3,0,1,0,1,1,0,0,0,0,0,0,0,0,0,1,0,0,0,0,0,0,1],"bins":[-2.4298707046455092e-08,-2.3519776348734922e-08,-2.274084565101475e-08,-2.196191495329458e-08,-2.118298425557441e-08,-2.04040517814974e-08,-1.962512286013407e-08,-1.884619038605706e-08,-1.806725968833689e-08,-1.728832899061672e-08,-1.650939829289655e-08,-1.573046759517638e-08,-1.4951536897456208e-08,-1.4172606199736038e-08,-1.3393674613837447e-08,-1.2614743916117277e-08,-1.1835813218397107e-08,-1.1056882520676936e-08,-1.0277951822956766e-08,-9.499020237058176e-09,-8.720089539338005e-09,-7.941158841617835e-09,-7.162228143897664e-09,-6.383297446177494e-09,-5.604366748457323e-09,-4.825436050737153e-09,-4.0465053530169826e-09,-3.2675728789399727e-09,-2.4886421812198023e-09,-1.7097114834996319e-09,-9.307807857794614e-10,-1.51850088059291e-10,6.270806096608794e-10,1.4060113073810498e-09,2.1849420051012203e-09,2.9638727028213907e-09,3.742803400541561e-09,4.5217340982617316e-09,5.300666572338741e-09,6.079597270058912e-09,6.858527967779082e-09,7.637458665499253e-09,8.416389363219423e-09,9.195320060939594e-09,9.974250758659764e-09,1.0753181456379934e-08,1.1532113042278525e-08,1.2311043739998695e-08,1.3089974437718865e-08,1.3868905135439036e-08,1.4647835833159206e-08,1.5426767419057796e-08,1.6205698116777967e-08,1.6984628814498137e-08,1.7763559512218308e-08,1.8542490209938478e-08,1.932142090765865e-08,2.010035160537882e-08,2.087928407945583e-08,2.165821300081916e-08,2.243714547489617e-08,2.321607617261634e-08,2.399500687033651e-08,2.477393756805668e-08,2.555286826577685e-08],"_type":"histogram"},"parameters/graph_1decoder.fc.bias":{"bins":[-0.22861047089099884,-0.22215962409973145,-0.21570876240730286,-0.20925791561603546,-0.20280706882476807,-0.19635620713233948,-0.18990536034107208,-0.1834545135498047,-0.1770036518573761,-0.1705527901649475,-0.16410194337368011,-0.15765109658241272,-0.15120023488998413,-0.14474938809871674,-0.13829854130744934,-0.13184767961502075,-0.12539683282375336,-0.11894597858190536,-0.11249512434005737,-0.10604427754878998,-0.09959341585636139,-0.093142569065094,-0.0866917222738266,-0.08024086058139801,-0.07379001379013062,-0.06733916699886322,-0.06088830530643463,-0.054437458515167236,-0.04798661172389984,-0.04153575003147125,-0.03508490324020386,-0.02863404154777527,-0.022183194756507874,-0.01573234796524048,-0.00928148627281189,-0.0028306394815444946,0.0036202222108840942,0.01007106900215149,0.016521915793418884,0.022972777485847473,0.029423624277114868,0.03587447106838226,0.04232533276081085,0.04877617955207825,0.05522702634334564,0.06167788803577423,0.06812873482704163,0.07457958906888962,0.08103044331073761,0.0874812975525856,0.0939321517944336,0.10038299858570099,0.10683385282754898,0.11328470706939697,0.11973555386066437,0.12618640065193176,0.13263726234436035,0.13908812403678894,0.14553897082805634,0.15198981761932373,0.15844067931175232,0.16489152610301971,0.1713423728942871,0.1777932345867157,0.1842440813779831],"_type":"histogram","values":[2,0,2,0,1,0,0,0,0,0,0,0,1,2,1,0,1,0,1,0,1,1,0,1,0,4,0,1,0,2,0,1,0,1,0,3,1,0,2,4,1,3,2,4,2,4,1,1,1,0,1,2,1,1,0,1,0,1,0,0,2,1,0,2]},"val_char_acc":0.1926636862037379,"gradients/graph_1decoder.layer.weight_hh_l0":{"values":[1,1,1,0,0,3,1,1,3,1,0,1,1,1,4,4,9,4,9,10,8,5,5,17,16,13,17,33,31,34,72,114,151,135,63,51,27,31,28,14,14,20,6,6,6,9,9,5,9,3,2,1,1,0,0,0,1,3,1,4,0,0,2,2],"bins":[-0.0352180078625679,-0.0341387577354908,-0.033059507608413696,-0.031980257481336594,-0.03090100735425949,-0.02982175722718239,-0.028742507100105286,-0.027663256973028183,-0.02658400684595108,-0.025504756718873978,-0.024425506591796875,-0.023346256464719772,-0.02226700633764267,-0.021187756210565567,-0.020108506083488464,-0.01902925595641136,-0.01795000582933426,-0.016870755702257156,-0.015791505575180054,-0.014712255448102951,-0.013633005321025848,-0.012553755193948746,-0.011474505066871643,-0.01039525493979454,-0.009316004812717438,-0.008236754685640335,-0.007157504558563232,-0.00607825443148613,-0.004999004304409027,-0.0039197541773319244,-0.0028405040502548218,-0.0017612539231777191,-0.0006820037961006165,0.0003972463309764862,0.0014764964580535889,0.0025557465851306915,0.003634996712207794,0.004714246839284897,0.0057934969663619995,0.006872747093439102,0.007951997220516205,0.009031247347593307,0.01011049747467041,0.011189747601747513,0.012268997728824615,0.013348247855901718,0.01442749798297882,0.015506748110055923,0.016585998237133026,0.01766524836421013,0.01874449849128723,0.019823748618364334,0.020902998745441437,0.02198224887251854,0.023061498999595642,0.024140749126672745,0.025219999253749847,0.02629924938082695,0.027378499507904053,0.028457749634981155,0.029536999762058258,0.03061624988913536,0.03169550001621246,0.032774750143289566,0.03385400027036667],"_type":"histogram"},"parameters/graph_1decoder.embed.weight":{"values":[1,0,1,2,1,4,6,4,9,5,8,10,15,15,9,17,15,11,12,34,18,12,28,24,24,43,28,32,32,31,32,33,25,32,33,35,30,50,39,20,32,29,21,12,22,25,20,18,10,8,12,13,5,4,4,3,1,2,0,2,0,0,0,1],"bins":[-0.31804823875427246,-0.3077455461025238,-0.29744285345077515,-0.2871401607990265,-0.27683746814727783,-0.2665347754955292,-0.2562320828437805,-0.24592939019203186,-0.2356266975402832,-0.22532400488853455,-0.2150213122367859,-0.20471861958503723,-0.19441594183444977,-0.1841132491827011,-0.17381055653095245,-0.1635078638792038,-0.15320517122745514,-0.14290247857570648,-0.13259978592395782,-0.12229709327220917,-0.11199440062046051,-0.10169170796871185,-0.0913890153169632,-0.08108632266521454,-0.07078364491462708,-0.06048095226287842,-0.05017825961112976,-0.039875566959381104,-0.029572874307632446,-0.01927018165588379,-0.008967489004135132,0.0013352036476135254,0.011637896299362183,0.02194058895111084,0.0322432816028595,0.042545974254608154,0.05284866690635681,0.06315135955810547,0.07345405220985413,0.08375674486160278,0.09405943751335144,0.1043621152639389,0.11466480791568756,0.12496750056743622,0.13527019321918488,0.14557288587093353,0.1558755785226822,0.16617827117443085,0.1764809638261795,0.18678365647792816,0.19708634912967682,0.20738904178142548,0.21769173443317413,0.2279944121837616,0.23829710483551025,0.2485997974872589,0.25890249013900757,0.2692051827907562,0.2795078754425049,0.28981056809425354,0.3001132607460022,0.31041595339775085,0.3207186460494995,0.33102133870124817,0.3413240313529968],"_type":"histogram"},"train_char_acc":0.1629833013645024,"parameters/graph_1decoder.fc.weight":{"_type":"histogram","values":[1,0,2,5,4,6,8,11,8,11,20,18,17,28,25,30,33,34,36,51,42,58,64,54,53,65,60,62,76,68,62,70,62,71,59,69,57,73,60,57,55,41,47,34,42,31,41,41,32,26,12,14,9,12,5,2,6,4,1,0,1,0,0,2],"bins":[-0.3872673511505127,-0.37486717104911804,-0.3624669909477234,-0.35006678104400635,-0.3376666009426117,-0.32526642084121704,-0.3128662407398224,-0.30046606063842773,-0.2880658507347107,-0.27566567063331604,-0.2632654905319214,-0.25086528062820435,-0.2384651154279709,-0.22606492042541504,-0.21366474032402039,-0.20126454532146454,-0.18886436522006989,-0.17646418511867523,-0.16406399011611938,-0.15166381001472473,-0.13926361501216888,-0.12686342000961304,-0.11446323990821838,-0.10206305980682373,-0.08966287970542908,-0.07726269960403442,-0.06486248970031738,-0.05246230959892273,-0.040062129497528076,-0.027661949396133423,-0.015261739492416382,-0.0028615593910217285,0.009538620710372925,0.021938800811767578,0.03433898091316223,0.04673919081687927,0.059139370918273926,0.07153955101966858,0.08393973112106323,0.09633994102478027,0.10874012112617493,0.12114030122756958,0.13354048132896423,0.1459406614303589,0.15834085643291473,0.17074105143547058,0.18314123153686523,0.19554142653942108,0.20794160664081573,0.2203417867422104,0.23274198174476624,0.2451421618461609,0.25754237174987793,0.2699425220489502,0.28234273195266724,0.2947429120540619,0.30714309215545654,0.3195433020591736,0.33194348216056824,0.3443436622619629,0.35674384236335754,0.3691440224647522,0.38154423236846924,0.3939444124698639,0.40634459257125854]},"parameters/graph_1encoder.layer.bias_hh_l0":{"bins":[-0.220143660902977,-0.2134566605091095,-0.2067696750164032,-0.2000826895236969,-0.1933956891298294,-0.18670868873596191,-0.18002170324325562,-0.17333471775054932,-0.16664771735668182,-0.15996071696281433,-0.15327373147010803,-0.14658674597740173,-0.13989974558353424,-0.13321274518966675,-0.12652575969696045,-0.11983876675367355,-0.11315177381038666,-0.10646478086709976,-0.09977778792381287,-0.09309078752994537,-0.08640380203723907,-0.07971681654453278,-0.07302981615066528,-0.06634281575679779,-0.05965583026409149,-0.05296884477138519,-0.0462818443775177,-0.03959484398365021,-0.03290785849094391,-0.02622087299823761,-0.019533872604370117,-0.012846872210502625,-0.006159886717796326,0.0005270987749099731,0.007214099168777466,0.013901099562644958,0.020588085055351257,0.027275070548057556,0.03396207094192505,0.04064907133579254,0.04733605682849884,0.05402304232120514,0.06071004271507263,0.06739704310894012,0.07408402860164642,0.08077101409435272,0.08745801448822021,0.09414500743150711,0.100832000374794,0.1075189933180809,0.1142059862613678,0.1208929792046547,0.1275799721479416,0.13426697254180908,0.14095395803451538,0.14764094352722168,0.15432794392108917,0.16101494431495667,0.16770192980766296,0.17438891530036926,0.18107591569423676,0.18776291608810425,0.19444990158081055,0.20113688707351685,0.20782388746738434],"_type":"histogram","values":[1,0,0,2,0,0,0,0,0,0,0,1,1,2,1,1,2,0,0,1,0,0,0,0,0,1,1,0,0,0,2,0,1,0,2,0,0,0,0,1,0,1,2,0,2,0,0,0,1,0,2,0,0,0,0,0,0,0,1,1,0,1,0,1]},"train_seq_acc":2.1153724113130116e-05,"parameters/graph_1decoder.layer.bias_hh_l0":{"bins":[-0.20803996920585632,-0.20159681141376495,-0.19515365362167358,-0.1887105107307434,-0.18226735293865204,-0.17582419514656067,-0.1693810373544693,-0.16293787956237793,-0.15649473667144775,-0.15005157887935638,-0.14360842108726501,-0.13716527819633484,-0.13072210550308228,-0.1242789626121521,-0.11783580482006073,-0.11139265447854996,-0.10494949668645859,-0.09850633889436722,-0.09206318855285645,-0.08562003076076508,-0.0791768729686737,-0.07273373007774353,-0.06629057228565216,-0.05984741449356079,-0.05340425670146942,-0.04696109890937805,-0.040517956018447876,-0.034074798226356506,-0.027631640434265137,-0.021188482642173767,-0.014745339751243591,-0.008302181959152222,-0.001859024167060852,0.004584133625030518,0.011027291417121887,0.017470434308052063,0.023913592100143433,0.030356749892234802,0.03679990768432617,0.04324305057525635,0.04968620836734772,0.05612936615943909,0.06257252395153046,0.06901568174362183,0.075458824634552,0.08190198242664337,0.08834514021873474,0.09478829056024551,0.10123144835233688,0.10767460614442825,0.11411775648593903,0.1205609142780304,0.12700405716896057,0.13344722986221313,0.1398903727531433,0.14633353054523468,0.15277668833732605,0.15921983122825623,0.1656629890203476,0.17210614681243896,0.17854930460453033,0.1849924623966217,0.19143560528755188,0.19787876307964325,0.20432192087173462],"_type":"histogram","values":[1,0,1,0,1,1,1,0,0,0,0,0,1,0,0,1,1,1,1,0,0,0,0,0,0,1,1,0,1,0,0,1,1,2,0,0,0,1,0,0,0,0,1,1,1,0,1,1,0,1,1,1,0,0,1,0,1,0,0,0,0,0,2,2]},"_timestamp":1.746371863656718e+09,"parameters/graph_1encoder.layer.weight_hh_l0":{"values":[1,0,0,0,1,6,5,8,10,12,14,15,19,17,14,15,14,15,16,16,18,26,24,19,24,28,20,21,26,28,26,20,27,23,27,22,20,30,22,22,26,25,22,21,25,22,30,21,14,15,22,16,14,10,11,7,13,13,6,6,5,5,2,2],"bins":[-0.3013831675052643,-0.292337030172348,-0.28329092264175415,-0.2742447853088379,-0.26519864797592163,-0.25615254044532776,-0.2471064031124115,-0.23806028068065643,-0.22901415824890137,-0.2199680358171463,-0.21092191338539124,-0.20187577605247498,-0.1928296536207199,-0.18378353118896484,-0.17473739385604858,-0.16569127142429352,-0.15664514899253845,-0.1475990265607834,-0.13855290412902832,-0.12950676679611206,-0.120460644364357,-0.11141452193260193,-0.10236838459968567,-0.0933222621679306,-0.08427613973617554,-0.07523001730442047,-0.0661838948726654,-0.057137757539749146,-0.048091620206832886,-0.039045512676239014,-0.029999375343322754,-0.020953267812728882,-0.01190716028213501,-0.00286102294921875,0.006185084581375122,0.015231221914291382,0.024277329444885254,0.033323466777801514,0.04236960411071777,0.05141572654247284,0.060461848974227905,0.06950797140598297,0.07855409383773804,0.0876002311706543,0.09664635360240936,0.10569247603416443,0.11473861336708069,0.12378473579883575,0.13283085823059082,0.1418769806623459,0.15092310309410095,0.1599692404270172,0.16901536285877228,0.17806148529052734,0.1871076226234436,0.19615374505519867,0.20519986748695374,0.2142459899187088,0.22329211235046387,0.23233824968338013,0.2413843721151352,0.25043049454689026,0.2594766318798065,0.2685227394104004,0.27756887674331665],"_type":"histogram"},"parameters/graph_1encoder.embed.weight":{"_type":"histogram","values":[1,0,0,0,1,3,1,1,3,3,2,1,5,2,5,3,10,10,15,6,8,9,14,11,11,13,11,13,13,19,14,17,30,16,15,13,14,17,14,19,11,8,8,10,6,7,13,5,6,6,8,3,1,5,5,2,3,0,1,1,3,3,1,1],"bins":[-2.6274943351745605,-2.5472898483276367,-2.467085123062134,-2.38688063621521,-2.306675910949707,-2.226471424102783,-2.1462666988372803,-2.0660622119903564,-1.985857605934143,-1.9056529998779297,-1.8254483938217163,-1.745243787765503,-1.665039300918579,-1.5848346948623657,-1.5046300888061523,-1.424425482749939,-1.3442208766937256,-1.2640162706375122,-1.1838116645812988,-1.1036070585250854,-1.023402452468872,-0.9431979656219482,-0.8629933595657349,-0.7827887535095215,-0.7025841474533081,-0.6223795413970947,-0.5421750545501709,-0.46197032928466797,-0.38176584243774414,-0.3015611171722412,-0.22135663032531738,-0.14115190505981445,-0.060947418212890625,0.019257068634033203,0.09946179389953613,0.17966628074645996,0.2598710060119629,0.3400754928588867,0.42028021812438965,0.5004847049713135,0.5806893110275269,0.6608939170837402,0.7410985231399536,0.821303129196167,0.9015076160430908,0.9817122220993042,1.0619168281555176,1.142121434211731,1.2223260402679443,1.3025306463241577,1.382735252380371,1.4629398584365845,1.5431444644927979,1.6233489513397217,1.703553557395935,1.7837581634521484,1.8639627695083618,1.9441673755645752,2.024371862411499,2.104576587677002,2.184781074523926,2.2649857997894287,2.3451902866363525,2.4253950119018555,2.5055994987487793]},"gradients/graph_1decoder.layer.weight_ih_l0":{"_type":"histogram","values":[2,0,2,0,0,1,1,4,1,1,1,2,4,1,4,4,4,8,6,10,15,20,15,32,60,87,69,40,24,18,16,10,7,6,6,4,7,4,2,2,2,3,1,1,0,0,0,0,0,0,0,1,1,1,0,1,0,0,0,0,0,0,0,1],"bins":[-0.0037073269486427307,-0.003563186852261424,-0.0034190467558801174,-0.0032749068923294544,-0.0031307667959481478,-0.002986626699566841,-0.002842486836016178,-0.0026983467396348715,-0.002554206643253565,-0.002410066546872258,-0.0022659264504909515,-0.0021217865869402885,-0.001977646490558982,-0.0018335063941776752,-0.0016893665306270123,-0.0015452264342457056,-0.001401086337864399,-0.0012569462414830923,-0.0011128061451017857,-0.0009686662815511227,-0.000824526185169816,-0.0006803860887885094,-0.0005362462252378464,-0.0003921061288565397,-0.0002479660324752331,-0.00010382593609392643,4.031416028738022e-05,0.0001844540238380432,0.0003285938873887062,0.0004727342166006565,0.0006168740801513195,0.0007610144093632698,0.0009051542729139328,0.0010492941364645958,0.001193434465676546,0.001337574329227209,0.0014817146584391594,0.0016258545219898224,0.0017699943855404854,0.001914134481921792,0.0020582745783030987,0.0022024146746844053,0.002346554771065712,0.002490694634616375,0.0026348347309976816,0.0027789748273789883,0.0029231146909296513,0.003067254787310958,0.0032113948836922646,0.003355534980073571,0.003499675076454878,0.003643814940005541,0.0037879550363868475,0.003932095132768154,0.004076234996318817,0.00422037485986948,0.0043645151890814304,0.004508655518293381,0.004652795381844044,0.004796935245394707,0.00494107510894537,0.00508521543815732,0.005229355301707983,0.005373495630919933,0.005517635494470596]},"parameters/graph_1decoder.layer.weight_ih_l0":{"values":[1,0,0,0,1,0,1,2,0,3,3,10,5,8,4,6,7,9,8,12,9,10,22,10,12,8,18,10,14,12,10,12,19,24,16,15,17,19,18,20,16,12,11,15,9,15,11,9,7,5,6,8,2,3,3,1,0,2,1,0,0,0,0,1],"bins":[-0.5039659142494202,-0.48834890127182007,-0.47273191809654236,-0.45711490511894226,-0.44149789214134216,-0.42588090896606445,-0.41026389598846436,-0.39464688301086426,-0.37902987003326416,-0.36341288685798645,-0.34779587388038635,-0.33217889070510864,-0.31656187772750854,-0.30094486474990845,-0.28532785177230835,-0.26971083879470825,-0.25409385561943054,-0.23847684264183044,-0.22285985946655273,-0.20724284648895264,-0.19162583351135254,-0.17600885033607483,-0.16039183735847473,-0.14477482438087463,-0.12915784120559692,-0.11354082822799683,-0.09792381525039673,-0.08230680227279663,-0.06668981909751892,-0.05107280611991882,-0.035455793142318726,-0.019838809967041016,-0.00422176718711853,0.011395245790481567,0.027012228965759277,0.042629241943359375,0.05824625492095947,0.07386323809623718,0.08948025107383728,0.10509726405143738,0.12071427702903748,0.13633126020431519,0.15194827318191528,0.16756528615951538,0.1831822693347931,0.1987992823123932,0.2144162952899933,0.230033278465271,0.2456502914428711,0.2612673044204712,0.2768843173980713,0.292501300573349,0.3081183135509491,0.3237352967262268,0.3393523097038269,0.354969322681427,0.3705863356590271,0.3862033188343048,0.4018203318119049,0.4174373149871826,0.4330543279647827,0.4486713409423828,0.4642883539199829,0.4799053370952606,0.4955223500728607],"_type":"histogram"},"gradients/graph_1decoder.fc.bias":{"_type":"histogram","values":[2,0,1,0,0,0,0,0,0,0,1,1,1,1,1,0,1,0,0,1,1,2,0,2,2,2,3,2,1,2,13,2,3,4,1,2,1,1,1,2,2,1,0,0,0,2,0,0,0,0,0,0,0,1,0,0,0,0,0,0,0,0,0,1],"bins":[-0.012708882801234722,-0.012269985862076283,-0.011831087991595268,-0.011392191052436829,-0.010953294113278389,-0.01051439717411995,-0.010075499303638935,-0.009636602364480495,-0.009197704493999481,-0.008758807554841042,-0.008319910615682602,-0.007881013676524162,-0.007442115806043148,-0.007003218866884708,-0.0065643214620649815,-0.006125424522906542,-0.005686527118086815,-0.005247629713267088,-0.004808732308447361,-0.004369835369288921,-0.003930938430130482,-0.0034920405596494675,-0.003053143620491028,-0.002614246681332588,-0.002175348810851574,-0.0017364518716931343,-0.0012975549325346947,-0.000858657993376255,-0.0004197601228952408,1.9136816263198853e-05,0.0004580337554216385,0.0008969316259026527,0.0013358285650610924,0.001774725504219532,0.0022136233747005463,0.002652520313858986,0.0030914172530174255,0.00353031512349844,0.003969212062656879,0.004408109001815319,0.004847005940973759,0.005285903811454773,0.005724800750613213,0.006163697689771652,0.0066025955602526665,0.007041492499411106,0.007480389438569546,0.00791928730905056,0.008358184248209,0.00879708118736744,0.009235978126525879,0.009674875997006893,0.010113772936165333,0.010552670806646347,0.010991567745804787,0.011430464684963226,0.011869361624121666,0.01230825949460268,0.01274715643376112,0.013186054304242134,0.013624951243400574,0.014063848182559013,0.014502745121717453,0.014941642992198467,0.015380539931356907]},"parameters/graph_1decoder.layer.bias_ih_l0":{"bins":[-0.19528765976428986,-0.18891017138957977,-0.18253269791603088,-0.1761552095413208,-0.16977772116661072,-0.16340023279190063,-0.15702275931835175,-0.15064527094364166,-0.14426779747009277,-0.1378903090953827,-0.1315128207206726,-0.12513533234596252,-0.11875785887241364,-0.11238037049770355,-0.10600288957357407,-0.09962540119886398,-0.0932479202747345,-0.08687043935060501,-0.08049295097589493,-0.07411547005176544,-0.06773798167705536,-0.06136050820350647,-0.05498301982879639,-0.048605531454086304,-0.042228057980537415,-0.03585056960582733,-0.02947308123111725,-0.023095592856407166,-0.016718119382858276,-0.010340631008148193,-0.00396314263343811,0.002414330840110779,0.008791834115982056,0.015169322490692139,0.021546795964241028,0.02792428433895111,0.034301772713661194,0.04067924618721008,0.047056734561920166,0.05343422293663025,0.05981171131134033,0.06618918478488922,0.0725666731595993,0.07894416153430939,0.08532163500785828,0.09169912338256836,0.09807660430669785,0.10445409268140793,0.11083157360553741,0.1172090545296669,0.12358654290437698,0.12996402382850647,0.13634151220321655,0.14271900057792664,0.14909647405147552,0.1554739624261856,0.1618514358997345,0.16822892427444458,0.17460641264915466,0.18098390102386475,0.18736137449741364,0.19373886287212372,0.2001163512468338,0.2064938247203827,0.21287131309509277],"_type":"histogram","values":[2,1,0,0,0,1,0,1,1,1,1,0,0,1,0,0,0,0,1,0,0,0,0,0,0,0,0,1,1,0,0,0,0,1,0,2,0,1,1,1,1,0,0,0,0,1,1,0,1,1,2,1,0,0,1,1,1,1,0,0,0,0,1,1]},"gradients/graph_1decoder.fc.weight":{"_type":"histogram","values":[1,0,1,0,1,1,1,0,0,0,0,1,4,4,7,8,6,10,7,6,12,11,6,20,30,26,18,37,47,43,73,118,150,267,376,176,146,73,77,46,30,35,33,28,20,7,8,11,13,13,10,7,7,3,4,4,0,0,2,1,0,0,0,2],"bins":[-0.024471305310726166,-0.02375655807554722,-0.02304181084036827,-0.022327063605189323,-0.021612316370010376,-0.02089756727218628,-0.020182820037007332,-0.019468072801828384,-0.018753325566649437,-0.01803857833147049,-0.017323831096291542,-0.016609083861112595,-0.015894334763288498,-0.015179588459432125,-0.014464840292930603,-0.013750093057751656,-0.013035345822572708,-0.01232059858739376,-0.011605851352214813,-0.010891103185713291,-0.010176355950534344,-0.009461608715355396,-0.008746860548853874,-0.008032113313674927,-0.007317366078495979,-0.006602618843317032,-0.005887871608138084,-0.005173124372959137,-0.00445837527513504,-0.003743628039956093,-0.0030288808047771454,-0.002314133569598198,-0.0015993881970643997,-0.0008846409618854523,-0.00016989372670650482,0.0005448535084724426,0.00125960074365139,0.0019743498414754868,0.002689097076654434,0.0034038443118333817,0.004118591547012329,0.0048333387821912766,0.005548086017370224,0.006262834183871746,0.0069775814190506935,0.007692328654229641,0.008407076820731163,0.00912182405591011,0.009836571291089058,0.010551318526268005,0.011266065761446953,0.011980813927948475,0.012695561163127422,0.01341030839830637,0.014125056564807892,0.01483980379998684,0.015554551035165787,0.016269298270344734,0.01698404550552368,0.01769879274070263,0.018413539975881577,0.019128289073705673,0.01984303630888462,0.020557783544063568,0.021272530779242516]},"gradients/graph_1decoder.layer.bias_ih_l0":{"_type":"histogram","values":[1,0,0,0,0,0,1,0,0,0,0,0,0,0,0,0,0,0,1,0,0,0,1,0,0,0,0,0,0,1,0,0,0,2,0,0,1,1,3,2,5,1,3,0,0,0,1,2,2,0,0,0,0,0,1,0,0,1,0,1,0,0,0,1],"bins":[-0.03611818701028824,-0.035234883427619934,-0.03435158357024193,-0.033468279987573624,-0.03258498013019562,-0.03170167654752731,-0.030818374827504158,-0.029935073107481003,-0.0290517695248127,-0.028168469667434692,-0.027285166084766388,-0.026401864364743233,-0.025518562644720078,-0.024635259062051773,-0.023751959204673767,-0.022868655622005463,-0.021985353901982307,-0.021102052181959152,-0.020218750461935997,-0.019335446879267693,-0.018452145159244537,-0.017568843439221382,-0.016685541719198227,-0.01580223999917507,-0.014918938279151917,-0.014035634696483612,-0.013152332976460457,-0.012269031256437302,-0.011385729536414146,-0.010502427816390991,-0.009619124233722687,-0.008735822513699532,-0.007852518931031227,-0.006969217211008072,-0.006085915490984917,-0.005202611908316612,-0.004319310188293457,-0.003436008468270302,-0.0025527067482471466,-0.0016694050282239914,-0.000786101445555687,9.720027446746826e-05,0.0009805019944906235,0.0018638037145137787,0.002747105434536934,0.003630407154560089,0.0045137107372283936,0.005397012457251549,0.006280314177274704,0.007163615897297859,0.008046918548643589,0.008930220268666744,0.009813522920012474,0.01069682464003563,0.011580126360058784,0.012463429011404514,0.01334673073142767,0.0142300333827734,0.015113335102796555,0.01599663682281971,0.016879938542842865,0.01776324212551117,0.018646543845534325,0.01952984556555748,0.020413147285580635]},"parameters/graph_1encoder.layer.bias_ih_l0":{"values":[3,0,0,0,0,1,0,0,2,0,1,0,1,0,0,0,0,1,0,1,0,1,0,0,0,0,0,0,1,2,2,1,0,0,0,0,0,0,1,0,1,0,0,1,1,0,0,0,0,0,2,0,0,0,2,1,0,0,1,0,1,2,1,1],"bins":[-0.20759911835193634,-0.20106905698776245,-0.19453898072242737,-0.18800891935825348,-0.1814788579940796,-0.1749487817287445,-0.16841872036457062,-0.16188865900039673,-0.15535858273506165,-0.14882850646972656,-0.14229844510555267,-0.13576838374137878,-0.1292383074760437,-0.12270824611186981,-0.11617818474769592,-0.10964811593294144,-0.10311804711818695,-0.09658797830343246,-0.09005790948867798,-0.08352784812450409,-0.076997771859169,-0.07046771049499512,-0.06393764913082123,-0.057407572865486145,-0.050877511501312256,-0.04434745013713837,-0.037817373871803284,-0.031287312507629395,-0.024757251143455505,-0.018227174878120422,-0.011697113513946533,-0.00516703724861145,0.0013630390167236328,0.007893100380897522,0.014423176646232605,0.020953238010406494,0.027483314275741577,0.034013375639915466,0.040543437004089355,0.04707351326942444,0.05360357463359833,0.06013363599777222,0.0666637122631073,0.07319377362728119,0.07972383499145508,0.08625391125679016,0.09278397262096405,0.09931404143571854,0.10584411025047302,0.11237417906522751,0.118904247879982,0.12543430924415588,0.13196438550949097,0.13849444687366486,0.14502450823783875,0.15155458450317383,0.15808464586734772,0.1646147072315216,0.1711447834968567,0.17767484486103058,0.18420490622520447,0.19073498249053955,0.19726504385471344,0.20379512012004852,0.2103251814842224],"_type":"histogram"},"gradients/graph_1encoder.layer.bias_hh_l0":{"_type":"histogram","values":[1,0,0,0,0,0,0,0,0,0,0,0,0,1,0,0,0,0,0,0,0,1,0,0,0,1,1,4,11,5,1,1,1,1,0,0,0,0,0,0,0,0,0,0,0,0,0,0,0,0,0,0,0,0,0,0,0,1,0,0,0,0,1,1],"bins":[-0.0026979560498148203,-0.0026052535977214575,-0.0025125511456280947,-0.002419848693534732,-0.0023271460086107254,-0.0022344435565173626,-0.002141741104424,-0.002049038652330637,-0.001956336200237274,-0.0018636337481439114,-0.0017709312960505486,-0.001678228727541864,-0.0015855262754485011,-0.0014928238233551383,-0.0014001212548464537,-0.0013074188027530909,-0.001214716350659728,-0.0011220138985663652,-0.0010293114464730024,-0.0009366088779643178,-0.000843906425870955,-0.0007512039737775922,-0.0006585014052689075,-0.0005657989531755447,-0.00047309650108218193,-0.0003803940489888191,-0.0002876915968954563,-0.0001949891448020935,-0.00010228645987808704,-9.584007784724236e-06,8.311844430863857e-05,0.00017582089640200138,0.00026852358132600784,0.00036122603341937065,0.00045392848551273346,0.0005466309376060963,0.0006393333896994591,0.0007320360746234655,0.0008247385267168283,0.0009174409788101912,0.001010143430903554,0.0011028458829969168,0.0011955483350902796,0.0012882509035989642,0.001380953355692327,0.0014736558077856898,0.0015663583762943745,0.0016590608283877373,0.0017517632804811,0.0018444657325744629,0.0019371681846678257,0.0020298706367611885,0.0021225730888545513,0.002215275540947914,0.0023079782258719206,0.0024006806779652834,0.002493383130058646,0.002586085582152009,0.002678788034245372,0.0027714904863387346,0.002864193171262741,0.002956895623356104,0.0030495980754494667,0.0031423005275428295,0.0032350029796361923]},"_runtime":18.22649,"gradients/graph_1encoder.layer.weight_hh_l0":{"values":[8,8,4,0,0,15,8,3,0,0,0,0,0,1,1,0,1,9,9,1,0,3,1,0,2,16,0,10,18,37,101,313,238,55,45,15,13,1,11,0,3,1,0,1,0,4,7,3,0,0,0,0,0,0,0,0,4,9,13,0,4,10,8,10],"bins":[-0.0031975761521607637,-0.003097445471212268,-0.0029973145574331284,-0.0028971838764846325,-0.0027970531955361366,-0.0026969225145876408,-0.002596791833639145,-0.0024966609198600054,-0.0023965302389115095,-0.0022963995579630136,-0.002196268644183874,-0.0020961379632353783,-0.0019960072822868824,-0.0018958766013383865,-0.0017957458039745688,-0.0016956150066107512,-0.0015954843256622553,-0.0014953536447137594,-0.0013952228473499417,-0.001295092049986124,-0.0011949613690376282,-0.0010948306880891323,-0.0009946997743099928,-0.0008945690933614969,-0.0007944384124130011,-0.0006943077314645052,-0.0005941770505160093,-0.0004940461367368698,-0.00039391545578837395,-0.0002937847748398781,-0.00019365386106073856,-9.35231801122427e-05,6.607500836253166e-06,0.00010673818178474903,0.0002068688627332449,0.0003069997765123844,0.0004071304574608803,0.0005072611384093761,0.0006073920521885157,0.0007075227331370115,0.0008076534140855074,0.0009077840950340033,0.0010079147759824991,0.0011080456897616386,0.0012081763707101345,0.0013083070516586304,0.001408437849022448,0.0015085686463862658,0.0016086993273347616,0.0017088300082832575,0.0018089608056470752,0.0019090916030108929,0.0020092222839593887,0.0021093529649078846,0.0022094836458563805,0.00230961455963552,0.002409745240584016,0.0025098759215325117,0.0026100068353116512,0.002710137516260147,0.002810268197208643,0.002910398878157139,0.0030105295591056347,0.003110660472884774,0.00321079115383327],"_type":"histogram"},"val_seq_acc":0,"_wandb":{"runtime":38},"gradients/graph_1encoder.layer.bias_ih_l0":{"bins":[-0.0026979560498148203,-0.0026052535977214575,-0.0025125511456280947,-0.002419848693534732,-0.0023271460086107254,-0.0022344435565173626,-0.002141741104424,-0.002049038652330637,-0.001956336200237274,-0.0018636337481439114,-0.0017709312960505486,-0.001678228727541864,-0.0015855262754485011,-0.0014928238233551383,-0.0014001212548464537,-0.0013074188027530909,-0.001214716350659728,-0.0011220138985663652,-0.0010293114464730024,-0.0009366088779643178,-0.000843906425870955,-0.0007512039737775922,-0.0006585014052689075,-0.0005657989531755447,-0.00047309650108218193,-0.0003803940489888191,-0.0002876915968954563,-0.0001949891448020935,-0.00010228645987808704,-9.584007784724236e-06,8.311844430863857e-05,0.00017582089640200138,0.0002685233484953642,0.000361225800588727,0.0004539282526820898,0.0005466307047754526,0.0006393331568688154,0.0007320358417928219,0.0008247382938861847,0.0009174407459795475,0.0010101431980729103,0.0011028456501662731,0.001195548102259636,0.0012882506707683206,0.0013809531228616834,0.0014736555749550462,0.0015663581434637308,0.0016590605955570936,0.0017517630476504564,0.0018444654997438192,0.001937167951837182,0.0020298706367611885,0.0021225730888545513,0.002215275540947914,0.002307977993041277,0.0024006804451346397,0.0024933828972280025,0.0025860853493213654,0.002678787801414728,0.002771490253508091,0.0028641927056014538,0.0029568953905254602,0.003049597842618823,0.003142300294712186,0.0032350027468055487],"_type":"histogram","values":[1,0,0,0,0,0,0,0,0,0,0,0,0,1,0,0,0,0,0,0,0,1,0,0,0,1,1,4,11,5,1,1,1,1,0,0,0,0,0,0,0,0,0,0,0,0,0,0,0,0,0,0,0,0,0,0,0,1,0,0,0,0,1,1]},"teacher_force_ratio":0.5,"epoch":1,"parameters/graph_1encoder.layer.weight_ih_l0":{"values":[6,5,5,9,4,8,4,9,8,8,10,10,4,7,9,9,10,8,5,7,10,7,6,10,9,9,12,6,9,11,7,9,4,9,6,7,9,4,9,8,11,11,7,6,4,1,11,12,10,15,9,10,6,7,8,5,6,10,7,12,15,11,8,4],"bins":[-0.17700053751468658,-0.17134594917297363,-0.16569136083126068,-0.16003677248954773,-0.15438216924667358,-0.14872758090496063,-0.14307299256324768,-0.13741840422153473,-0.13176381587982178,-0.12610922753810883,-0.12045463919639587,-0.11480004340410233,-0.10914545506238937,-0.10349086672067642,-0.09783627092838287,-0.09218168258666992,-0.08652709424495697,-0.08087250590324402,-0.07521791756153107,-0.06956332176923752,-0.06390873342752457,-0.058254145085811615,-0.052599549293518066,-0.046944960951805115,-0.04129037261009216,-0.03563578426837921,-0.02998119592666626,-0.024326607584953308,-0.018672004342079163,-0.013017416000366211,-0.007362827658653259,-0.0017082393169403076,0.003946349024772644,0.009600937366485596,0.015255525708198547,0.0209101140499115,0.02656470239162445,0.032219305634498596,0.03787389397621155,0.0435284823179245,0.04918307065963745,0.0548376590013504,0.060492247343063354,0.0661468431353569,0.07180143147706985,0.0774560198187828,0.08311061561107635,0.0887652039527893,0.09441979229450226,0.10007438063621521,0.10572896897792816,0.11138356477022171,0.11703815311193466,0.12269274145364761,0.12834733724594116,0.1340019255876541,0.13965651392936707,0.14531110227108002,0.15096569061279297,0.15662027895450592,0.16227486729621887,0.16792947053909302,0.17358405888080597,0.17923864722251892,0.18489323556423187],"_type":"histogram"},"gradients/graph_1decoder.layer.bias_hh_l0":{"_type":"histogram","values":[1,0,0,0,0,0,1,0,0,0,0,0,0,0,0,0,0,0,1,0,0,0,1,0,0,0,0,0,0,1,0,0,0,2,0,0,1,1,3,2,5,1,3,0,0,0,1,2,2,0,0,0,0,0,1,0,0,1,0,1,0,0,0,1],"bins":[-0.03611818701028824,-0.035234883427619934,-0.03435158357024193,-0.033468279987573624,-0.03258498013019562,-0.03170167654752731,-0.030818374827504158,-0.029935073107481003,-0.0290517695248127,-0.028168469667434692,-0.027285166084766388,-0.026401864364743233,-0.025518562644720078,-0.024635259062051773,-0.023751959204673767,-0.022868655622005463,-0.021985353901982307,-0.021102052181959152,-0.020218750461935997,-0.019335446879267693,-0.018452145159244537,-0.017568843439221382,-0.016685541719198227,-0.01580223999917507,-0.014918938279151917,-0.014035634696483612,-0.013152332976460457,-0.012269031256437302,-0.011385729536414146,-0.010502427816390991,-0.009619124233722687,-0.008735822513699532,-0.007852518931031227,-0.006969217211008072,-0.006085915490984917,-0.005202611908316612,-0.004319310188293457,-0.003436008468270302,-0.0025527067482471466,-0.0016694050282239914,-0.000786101445555687,9.720027446746826e-05,0.0009805019944906235,0.0018638037145137787,0.002747105434536934,0.003630407154560089,0.0045137107372283936,0.005397012457251549,0.006280314177274704,0.007163615897297859,0.008046918548643589,0.008930220268666744,0.009813522920012474,0.01069682464003563,0.011580126360058784,0.012463429011404514,0.01334673073142767,0.0142300333827734,0.015113335102796555,0.01599663682281971,0.016879938542842865,0.01776324212551117,0.018646543845534325,0.01952984556555748,0.020413147285580635]}}