{"parameters/encoder.layer.bias_ih_l0":{"bins":[-0.6615914106369019,-0.6468835473060608,-0.6321756839752197,-0.6174678802490234,-0.6027600169181824,-0.5880521535873413,-0.5733442902565002,-0.5586364269256592,-0.5439285635948181,-0.529220700263977,-0.5145128965377808,-0.4998050332069397,-0.48509716987609863,-0.47038930654525757,-0.4556814730167389,-0.4409736096858978,-0.42626577615737915,-0.4115579128265381,-0.396850049495697,-0.38214221596717834,-0.3674343526363373,-0.3527264893054962,-0.33801865577697754,-0.3233107924461365,-0.3086029291152954,-0.29389509558677673,-0.27918723225593567,-0.2644793689250946,-0.24977153539657593,-0.23506367206573486,-0.2203558087348938,-0.20564797520637512,-0.19094011187553406,-0.176232248544693,-0.16152441501617432,-0.14681655168533325,-0.1321086883544922,-0.11740085482597351,-0.10269299149513245,-0.08798512816429138,-0.0732772946357727,-0.05856943130493164,-0.043861567974090576,-0.0291537344455719,-0.014445871114730835,0.0002619922161102295,0.014969825744628906,0.02967768907546997,0.04438553750514984,0.05909338593482971,0.07380124926567078,0.08850909769535065,0.10321694612503052,0.11792480945587158,0.13263265788555145,0.14734050631523132,0.1620483696460724,0.17675621807575226,0.19146406650543213,0.2061719298362732,0.22087977826595306,0.23558762669563293,0.250295490026474,0.2650033235549927,0.27971118688583374],"_type":"histogram","values":[1,0,0,0,0,0,0,0,0,0,0,0,0,0,0,0,0,0,1,1,0,1,0,0,1,1,0,0,3,0,2,1,1,2,2,0,5,5,7,6,6,5,11,17,7,10,10,16,11,10,8,5,5,7,3,2,5,2,2,3,0,4,1,2]},"train_char_acc":0.4172734329392293,"gradients/decoder.fc.weight":{"_type":"histogram","values":[1,1,0,0,0,1,1,3,3,3,1,1,3,2,8,12,4,13,24,14,23,37,33,42,59,76,112,134,148,166,278,1423,467,210,142,134,117,87,60,42,51,30,33,22,14,11,6,7,2,5,5,2,5,3,2,1,4,2,0,3,0,0,1,2],"bins":[-0.03065265715122223,-0.029685555025935173,-0.028718451038002968,-0.027751348912715912,-0.026784244924783707,-0.02581714279949665,-0.024850040674209595,-0.02388293668627739,-0.022915832698345184,-0.02194873057305813,-0.020981628447771072,-0.020014524459838867,-0.01904742233455181,-0.018080320209264755,-0.01711321622133255,-0.016146112233400345,-0.015179010108113289,-0.014211907982826233,-0.013244803994894028,-0.012277701869606972,-0.011310597881674767,-0.01034349575638771,-0.009376391768455505,-0.00840928964316845,-0.007442187517881393,-0.006475083529949188,-0.005507981404662132,-0.004540877416729927,-0.003573775291442871,-0.002606671303510666,-0.00163956917822361,-0.0006724651902914047,0.00029463693499565125,0.0012617390602827072,0.0022288430482149124,0.0031959451735019684,0.004163049161434174,0.0051301512867212296,0.006097255274653435,0.007064357399940491,0.008031461387872696,0.008998563513159752,0.009965665638446808,0.010932769626379013,0.011899871751666069,0.012866975739598274,0.01383407786488533,0.014801181852817535,0.01576828397810459,0.016735386103391647,0.017702490091323853,0.018669594079256058,0.019636696204543114,0.02060379832983017,0.021570902317762375,0.02253800444304943,0.023505106568336487,0.024472210556268692,0.025439314544200897,0.026406416669487953,0.02737351879477501,0.028340622782707214,0.02930772490799427,0.030274828895926476,0.03124193102121353]},"train_loss":2.2736899612518737,"val_seq_acc":0.028774652440995797,"_timestamp":1.746370745455418e+09,"parameters/decoder.layer.bias_ih_l0":{"_type":"histogram","values":[1,0,1,1,1,0,0,0,0,0,2,2,0,2,0,1,2,3,3,2,4,4,4,3,2,2,8,6,4,4,6,9,3,10,2,7,6,9,8,5,8,7,8,3,7,1,9,5,3,1,1,3,3,0,0,0,0,0,2,0,1,2,0,1],"bins":[-0.4674845039844513,-0.45250359177589417,-0.43752267956733704,-0.4225417971611023,-0.40756088495254517,-0.39257997274398804,-0.3775990605354309,-0.3626181483268738,-0.34763723611831665,-0.3326563239097595,-0.3176754415035248,-0.30269452929496765,-0.2877136170864105,-0.2727327346801758,-0.25775182247161865,-0.24277091026306152,-0.2277899980545044,-0.21280908584594727,-0.19782817363739014,-0.1828472912311554,-0.16786637902259827,-0.15288546681404114,-0.137904554605484,-0.12292364239692688,-0.10794273018836975,-0.09296184778213501,-0.07798093557357788,-0.06300002336502075,-0.04801911115646362,-0.033038198947906494,-0.018057316541671753,-0.003076404333114624,0.011904507875442505,0.026885420083999634,0.04186633229255676,0.056847214698791504,0.07182812690734863,0.08680903911590576,0.10178995132446289,0.11677086353302002,0.13175174593925476,0.1467326581478119,0.16171357035636902,0.17669448256492615,0.19167539477348328,0.2066563069820404,0.22163718938827515,0.23661810159683228,0.2515990138053894,0.26657992601394653,0.28156083822250366,0.2965417504310608,0.31152263283729553,0.32650354504585266,0.3414844572544098,0.35646533966064453,0.37144625186920166,0.3864271640777588,0.4014080762863159,0.41638898849487305,0.4313699007034302,0.4463508129119873,0.46133169531822205,0.4763126075267792,0.4912935197353363]},"gradients/encoder.layer.bias_hh_l0":{"values":[2,0,0,1,1,1,1,1,0,0,1,1,2,0,3,7,3,4,5,8,11,25,47,24,8,9,6,5,3,4,1,0,1,1,1,0,0,0,0,1,0,0,0,1,1,0,0,0,0,0,0,0,0,0,0,0,0,0,0,0,0,0,0,2],"bins":[-0.020358633249998093,-0.019453812390565872,-0.01854899153113365,-0.01764417067170143,-0.01673934794962406,-0.01583452709019184,-0.01492970623075962,-0.0140248853713274,-0.013120063580572605,-0.012215242721140385,-0.01131042093038559,-0.01040560007095337,-0.009500779211521149,-0.008595957420766354,-0.007691136561334133,-0.006786314770579338,-0.005881493911147118,-0.004976673051714897,-0.004071852192282677,-0.003167029470205307,-0.0022622086107730865,-0.001357387751340866,-0.00045256689190864563,0.00045225396752357483,0.0013570748269557953,0.002261897549033165,0.0031667184084653854,0.004071539267897606,0.004976360127329826,0.005881180986762047,0.0067860037088394165,0.007690824568271637,0.008595645427703857,0.009500466287136078,0.010405287146568298,0.011310109868645668,0.012214930728077888,0.013119751587510109,0.01402457244694233,0.01492939330637455,0.01583421602845192,0.01673903688788414,0.01764385774731636,0.01854867860674858,0.0194534994661808,0.020358320325613022,0.02126314304769039,0.022167963907122612,0.023072784766554832,0.023977605625987053,0.024882428348064423,0.025787249207496643,0.026692070066928864,0.027596890926361084,0.028501711785793304,0.029406532645225525,0.030311353504657745,0.031216176226735115,0.032120995223522186,0.03302581608295441,0.033930640667676926,0.034835461527109146,0.03574028238654137,0.03664510324597359,0.03754992410540581],"_type":"histogram"},"gradients/decoder.layer.weight_hh_l0":{"bins":[-0.05995897203683853,-0.05826906859874725,-0.056579165160655975,-0.0548892617225647,-0.05319935828447342,-0.05150945484638214,-0.04981955140829086,-0.048129647970199585,-0.04643974453210831,-0.04474984109401703,-0.04305993765592575,-0.04137003421783447,-0.039680130779743195,-0.037990227341651917,-0.03630032390356064,-0.03461042046546936,-0.03292051702737808,-0.031230613589286804,-0.029540710151195526,-0.027850806713104248,-0.02616090327501297,-0.024470999836921692,-0.022781096398830414,-0.021091192960739136,-0.019401289522647858,-0.01771138608455658,-0.0160214826464653,-0.014331579208374023,-0.012641675770282745,-0.010951772332191467,-0.00926186889410019,-0.007571965456008911,-0.005882062017917633,-0.004192158579826355,-0.002502255141735077,-0.0008123517036437988,0.0008775517344474792,0.0025674551725387573,0.004257358610630035,0.0059472620487213135,0.0076371654868125916,0.00932706892490387,0.011016972362995148,0.012706875801086426,0.014396779239177704,0.016086682677268982,0.01777658611536026,0.019466489553451538,0.021156392991542816,0.022846296429634094,0.024536199867725372,0.02622610330581665,0.02791600674390793,0.029605910181999207,0.031295813620090485,0.03298571705818176,0.03467562049627304,0.03636552393436432,0.0380554273724556,0.039745330810546875,0.04143523424863815,0.04312513768672943,0.04481504112482071,0.04650494456291199,0.048194848001003265],"_type":"histogram","values":[1,1,1,1,0,0,0,1,1,0,0,0,1,0,2,3,2,3,6,9,2,11,14,22,18,39,41,61,91,123,169,234,335,703,1780,4845,1821,755,375,219,165,93,82,54,50,39,26,28,13,12,8,5,4,1,6,3,0,4,2,2,0,0,0,1]},"gradients/encoder.layer.weight_hh_l0":{"_type":"histogram","values":[1,0,0,0,0,0,2,0,0,0,0,0,1,0,0,0,1,1,0,1,1,4,4,8,21,13,33,173,867,9652,1229,175,54,14,15,5,3,3,0,2,1,1,0,1,0,0,0,0,1,0,0,0,0,0,0,0,0,0,0,0,0,0,0,1],"bins":[-0.1994178295135498,-0.1926722228527069,-0.185926616191864,-0.17918099462985992,-0.17243538796901703,-0.16568978130817413,-0.15894415974617004,-0.15219855308532715,-0.14545294642448425,-0.13870733976364136,-0.13196173310279846,-0.12521611154079437,-0.11847050487995148,-0.11172489821910858,-0.10497928410768509,-0.0982336699962616,-0.0914880633354187,-0.0847424566745758,-0.07799684256315231,-0.07125122845172882,-0.06450562179088593,-0.05776001513004303,-0.05101439356803894,-0.044268786907196045,-0.03752318024635315,-0.030777573585510254,-0.02403196692466736,-0.01728634536266327,-0.010540738701820374,-0.003795132040977478,0.0029504895210266113,0.009696096181869507,0.016441702842712402,0.023187309503555298,0.029932916164398193,0.03667853772640228,0.04342414438724518,0.050169751048088074,0.05691537261009216,0.06366097927093506,0.07040658593177795,0.07715219259262085,0.08389779925346375,0.09064342081546783,0.09738902747631073,0.10413463413715363,0.11088024824857712,0.11762586236000061,0.1243714690208435,0.1311170756816864,0.1378626823425293,0.1446083039045334,0.15135391056537628,0.15809951722621918,0.16484513878822327,0.17159074544906616,0.17833635210990906,0.18508195877075195,0.19182756543159485,0.19857318699359894,0.20531879365444183,0.21206440031528473,0.21881002187728882,0.2255556285381317,0.2323012351989746]},"_step":0,"val_loss":2.0807671534604038,"gradients/decoder.layer.bias_hh_l0":{"_type":"histogram","values":[1,0,0,0,0,0,0,0,0,0,0,0,0,0,0,0,0,1,0,0,0,1,1,2,2,1,0,1,4,4,1,4,7,6,12,49,40,19,14,2,3,3,1,3,1,3,1,0,1,1,0,1,0,0,0,0,0,1,0,0,0,0,0,1],"bins":[-0.05069949850440025,-0.049277883023023605,-0.04785626381635666,-0.04643464833498001,-0.04501303285360336,-0.043591417372226715,-0.04216980189085007,-0.04074818268418312,-0.03932656720280647,-0.037904951721429825,-0.03648333251476288,-0.03506171703338623,-0.03364010155200958,-0.032218486070632935,-0.030796868726611137,-0.02937525138258934,-0.027953635901212692,-0.026532020419836044,-0.025110403075814247,-0.02368878573179245,-0.022267170250415802,-0.020845554769039154,-0.019423935562372208,-0.01800232008099556,-0.016580704599618912,-0.015159089118242264,-0.013737473636865616,-0.01231585443019867,-0.010894238948822021,-0.009472623467445374,-0.008051004260778427,-0.006629388779401779,-0.005207773298025131,-0.0037861578166484833,-0.0023645423352718353,-0.0009429231286048889,0.00047869235277175903,0.001900307834148407,0.0033219270408153534,0.004743542522192001,0.006165158003568649,0.007586773484945297,0.009008388966321945,0.010430008172988892,0.01185162365436554,0.013273239135742188,0.014694856479763985,0.016116473823785782,0.01753808930516243,0.018959704786539078,0.020381322130560875,0.021802939474582672,0.02322455495595932,0.024646170437335968,0.026067787781357765,0.027489405125379562,0.02891102060675621,0.03033263608813286,0.031754255294799805,0.03317587077617645,0.0345974862575531,0.03601910173892975,0.037440717220306396,0.03886233642697334,0.04028395190834999]},"gradients/encoder.layer.weight_ih_l0":{"_type":"histogram","values":[1,0,0,0,0,0,2,2,1,1,2,2,5,4,1,5,7,13,15,14,28,18,28,28,53,87,129,218,368,701,1609,5559,1554,707,384,238,159,97,58,41,25,29,22,12,10,9,10,4,6,3,7,4,0,2,3,0,0,0,2,0,0,0,0,1],"bins":[-0.05729076266288757,-0.05547373369336128,-0.05365670472383499,-0.0518396757543087,-0.05002264678478241,-0.04820561408996582,-0.04638858512043953,-0.04457155615091324,-0.04275452718138695,-0.04093749821186066,-0.039120469242334366,-0.037303440272808075,-0.035486407577991486,-0.03366938233375549,-0.031852349638938904,-0.030035320669412613,-0.028218291699886322,-0.02640126273036003,-0.02458423376083374,-0.02276720479130745,-0.02095017582178116,-0.01913314312696457,-0.017316114157438278,-0.015499085187911987,-0.013682056218385696,-0.011865027248859406,-0.010047998279333115,-0.008230969309806824,-0.006413936614990234,-0.0045969076454639435,-0.0027798786759376526,-0.0009628497064113617,0.0008541829884052277,0.0026712119579315186,0.0044882409274578094,0.0063052698969841,0.008122298866510391,0.00993933156132698,0.011756360530853271,0.013573389500379562,0.015390418469905853,0.017207447439432144,0.019024476408958435,0.020841505378484726,0.022658538073301315,0.024475567042827606,0.026292596012353897,0.028109624981880188,0.02992665395140648,0.03174368292093277,0.03356071189045906,0.03537774085998535,0.03719477355480194,0.03901179879903793,0.04082883149385452,0.042645860463380814,0.044462889432907104,0.046279918402433395,0.048096947371959686,0.049913980066776276,0.05173100531101227,0.05354803800582886,0.05536506697535515,0.05718209594488144,0.05899912491440773]},"parameters/decoder.layer.weight_hh_l0":{"_type":"histogram","values":[1,0,0,0,0,1,1,3,0,3,3,3,1,3,9,4,10,17,23,45,64,69,103,178,245,324,492,679,906,1204,1354,1426,1258,1062,853,612,443,268,177,152,96,52,40,24,18,17,7,10,8,4,2,3,5,0,0,1,1,1,1,0,0,1,0,1],"bins":[-1.5787667036056519,-1.5283175706863403,-1.4778684377670288,-1.4274193048477173,-1.3769700527191162,-1.3265209197998047,-1.2760717868804932,-1.2256226539611816,-1.1751735210418701,-1.1247243881225586,-1.074275255203247,-1.0238261222839355,-0.9733769297599792,-0.9229277968406677,-0.8724786043167114,-0.8220294713973999,-0.7715803384780884,-0.7211312055587769,-0.6706820726394653,-0.620232880115509,-0.5697838068008423,-0.5193345546722412,-0.4688854217529297,-0.41843628883361816,-0.36798715591430664,-0.3175380229949951,-0.2670888900756836,-0.21663975715637207,-0.166190505027771,-0.11574137210845947,-0.06529223918914795,-0.014843106269836426,0.03560614585876465,0.08605527877807617,0.1365044116973877,0.18695354461669922,0.23740267753601074,0.2878519296646118,0.33830106258392334,0.38875019550323486,0.4391993284225464,0.4896484613418579,0.5400975942611694,0.590546727180481,0.640995979309082,0.6914450526237488,0.7418942451477051,0.7923433780670166,0.8427925109863281,0.8932416439056396,0.9436907768249512,0.9941399693489075,1.0445890426635742,1.0950381755828857,1.1454874277114868,1.1959365606307983,1.2463856935501099,1.2968348264694214,1.347283959388733,1.397733211517334,1.4481823444366455,1.498631477355957,1.5490806102752686,1.59952974319458,1.6499788761138916]},"teacher_force_ratio":0.3,"gradients/encoder.layer.bias_ih_l0":{"_type":"histogram","values":[1,0,0,0,1,0,0,1,0,1,1,2,1,1,0,2,2,2,0,4,5,3,4,10,9,15,51,26,11,13,6,4,3,3,2,0,2,1,0,0,0,0,0,0,0,0,0,0,1,1,0,0,0,0,0,0,0,0,0,0,0,1,0,2],"bins":[-0.026895912364125252,-0.025888945907354355,-0.024881979450583458,-0.02387501299381256,-0.022868046537041664,-0.021861080080270767,-0.02085411548614502,-0.019847147166728973,-0.018840182572603226,-0.01783321425318718,-0.016826249659061432,-0.015819281339645386,-0.014812316745519638,-0.013805350288748741,-0.012798383831977844,-0.011791417375206947,-0.01078445091843605,-0.009777484461665154,-0.008770518004894257,-0.00776355154812336,-0.006756585091352463,-0.005749618634581566,-0.004742652177810669,-0.003735685721039772,-0.0027287211269140244,-0.0017217546701431274,-0.0007147882133722305,0.0002921782433986664,0.0012991447001695633,0.00230611115694046,0.003313077613711357,0.004320044070482254,0.005327008664608002,0.006333975121378899,0.0073409415781497955,0.008347908034920692,0.00935487449169159,0.010361840948462486,0.011368807405233383,0.01237577386200428,0.013382740318775177,0.014389704912900925,0.015396671369671822,0.01640363782644272,0.017410604283213615,0.018417570739984512,0.01942453719675541,0.020431503653526306,0.021438470110297203,0.0224454365670681,0.023452403023838997,0.024459369480609894,0.02546633593738079,0.026473302394151688,0.027480266988277435,0.02848723530769348,0.02949419990181923,0.030501168221235275,0.03150813281536102,0.03251510113477707,0.03352206572890282,0.03452903404831886,0.03553599864244461,0.03654296696186066,0.037549931555986404]},"parameters/encoder.layer.weight_ih_l0":{"_type":"histogram","values":[1,0,0,0,0,0,0,0,2,0,3,6,4,4,7,11,17,21,31,43,76,79,87,132,166,221,250,340,407,441,519,582,613,698,670,698,715,659,636,639,619,523,438,395,319,272,216,186,131,101,80,57,44,31,27,29,12,7,11,2,7,1,0,2],"bins":[-0.7218758463859558,-0.70182865858078,-0.681781530380249,-0.6617343425750732,-0.6416871547698975,-0.6216399669647217,-0.6015928387641907,-0.5815456509590149,-0.5614985227584839,-0.5414513349533081,-0.5214041471481323,-0.5013569593429565,-0.48130983114242554,-0.46126264333724976,-0.44121548533439636,-0.4211682975292206,-0.4011211395263672,-0.3810739815235138,-0.361026793718338,-0.3409796357154846,-0.32093244791030884,-0.30088528990745544,-0.28083813190460205,-0.26079094409942627,-0.24074378609657288,-0.22069662809371948,-0.2006494402885437,-0.18060225248336792,-0.16055512428283691,-0.14050793647766113,-0.12046074867248535,-0.10041362047195435,-0.08036649227142334,-0.06031930446624756,-0.04027217626571655,-0.02022498846054077,-0.00017780065536499023,0.019869327545166016,0.0399165153503418,0.05996370315551758,0.08001086115837097,0.10005801916122437,0.12010520696640015,0.14015236496925354,0.16019952297210693,0.18024671077728271,0.2002938687801361,0.2203410565853119,0.24038821458816528,0.2604353725910187,0.28048256039619446,0.30052971839904785,0.32057690620422363,0.340624064207077,0.3606712222099304,0.3807184100151062,0.4007655680179596,0.420812726020813,0.44085991382598877,0.46090707182884216,0.48095422983169556,0.5010014176368713,0.5210486054420471,0.5410957336425781,0.5611429214477539]},"_runtime":46.681902,"parameters/decoder.fc.bias":{"_type":"histogram","values":[4,0,0,0,1,0,1,0,0,0,2,1,1,1,1,1,0,1,0,2,1,1,2,2,1,1,5,1,3,0,1,2,2,1,2,1,1,1,2,2,0,1,1,0,2,0,2,2,2,0,0,0,0,1,1,0,1,0,1,1,0,0,0,1],"bins":[-0.3399723470211029,-0.3302893340587616,-0.3206062912940979,-0.3109232783317566,-0.3012402653694153,-0.2915572226047516,-0.2818742096424103,-0.2721911668777466,-0.2625081539154053,-0.25282514095306396,-0.24314209818840027,-0.23345908522605896,-0.22377605736255646,-0.21409302949905396,-0.20441001653671265,-0.19472698867321014,-0.18504396080970764,-0.17536093294620514,-0.16567790508270264,-0.15599489212036133,-0.14631186425685883,-0.13662883639335632,-0.12694582343101501,-0.11726279556751251,-0.10757976770401001,-0.09789673984050751,-0.088213711977005,-0.0785306990146637,-0.06884768605232239,-0.05916464328765869,-0.04948163032531738,-0.039798587560653687,-0.030115574598312378,-0.02043256163597107,-0.010749518871307373,-0.0010665059089660645,0.008616536855697632,0.01829954981803894,0.02798256278038025,0.03766559064388275,0.047348618507385254,0.057031646370887756,0.06671467423439026,0.07639768719673157,0.08608071506023407,0.09576374292373657,0.10544675588607788,0.11512978374958038,0.12481281161308289,0.1344958394765854,0.1441788673400879,0.1538618803024292,0.1635449081659317,0.1732279360294342,0.1829109489917755,0.19259397685527802,0.20227700471878052,0.21196003258228302,0.22164306044578552,0.23132607340812683,0.24100910127162933,0.25069212913513184,0.26037514209747314,0.27005818486213684,0.27974119782447815]},"val_char_acc":0.4531670836580397,"_wandb":{"runtime":46},"gradients/decoder.layer.weight_ih_l0":{"bins":[-0.015426797792315483,-0.01492116879671812,-0.014415540732443333,-0.01390991173684597,-0.013404282741248608,-0.012898653745651245,-0.012393025681376457,-0.011887396685779095,-0.011381767690181732,-0.010876139625906944,-0.010370510630309582,-0.00986488163471222,-0.009359253570437431,-0.008853624574840069,-0.008347995579242706,-0.007842367514967918,-0.007336738519370556,-0.006831109523773193,-0.0063254814594984055,-0.005819852463901043,-0.00531422346830368,-0.0048085954040288925,-0.00430296640843153,-0.0037973374128341675,-0.0032917093485593796,-0.002786080352962017,-0.0022804513573646545,-0.001774822361767292,-0.0012691942974925041,-0.0007635653018951416,-0.0002579363062977791,0.00024769268929958344,0.0007533207535743713,0.0012589488178491592,0.0017645778134465218,0.0022702068090438843,0.002775835804641247,0.0032814638689160347,0.003787092864513397,0.00429272186011076,0.004798350855708122,0.00530397891998291,0.005809607915580273,0.006315236911177635,0.006820864975452423,0.007326493971049786,0.007832122966647148,0.008337751030921936,0.008843380026519299,0.009349009022116661,0.009854637086391449,0.010360266081988811,0.010865895077586174,0.011371523141860962,0.011877152137458324,0.012382781133055687,0.012888409197330475,0.013394038192927837,0.0138996671885252,0.014405295252799988,0.01491092424839735,0.015416553243994713,0.0159221813082695,0.016427811235189438,0.016933439299464226],"_type":"histogram","values":[2,1,1,1,1,1,1,0,2,1,2,0,3,2,10,10,7,10,9,26,33,34,54,58,97,132,196,330,559,1568,5608,1798,628,344,225,139,105,64,64,42,27,24,22,12,11,8,5,1,0,0,3,1,1,2,1,1,0,0,0,0,0,0,0,1]},"train_seq_acc":0.017927781185877775,"gradients/decoder.fc.bias":{"bins":[-0.02199706621468067,-0.021172478795051575,-0.020347891375422478,-0.01952330395579338,-0.018698718398809433,-0.017874129116535187,-0.01704954355955124,-0.016224956139922142,-0.015400368720293045,-0.014575781300663948,-0.013751193881034851,-0.012926607392728329,-0.012102019973099232,-0.011277432553470135,-0.010452846065163612,-0.009628258645534515,-0.008803671225905418,-0.007979083806276321,-0.007154496386647224,-0.0063299089670181274,-0.0055053215473890305,-0.004680735990405083,-0.0038561485707759857,-0.0030315611511468887,-0.0022069737315177917,-0.0013823863118886948,-0.0005577988922595978,0.0002667885273694992,0.001091374084353447,0.001915961503982544,0.002740548923611641,0.003565136343240738,0.004389721900224686,0.005214309319853783,0.00603889673948288,0.006863484159111977,0.007688071578741074,0.008512657135725021,0.009337244555354118,0.010161831974983215,0.010986419394612312,0.01181100681424141,0.012635594233870506,0.013460181653499603,0.014284767210483551,0.015109354630112648,0.015933942049741745,0.016758529469370842,0.01758311688899994,0.018407704308629036,0.019232291728258133,0.02005687728524208,0.020881466567516327,0.021706052124500275,0.02253063954412937,0.02335522696375847,0.024179814383387566,0.025004401803016663,0.02582898922264576,0.026653576642274857,0.027478162199258804,0.0283027496188879,0.029127337038517,0.029951924458146095,0.030776511877775192],"_type":"histogram","values":[1,0,1,0,0,0,0,0,0,0,1,0,1,0,0,1,2,1,0,1,5,2,4,2,0,1,10,9,4,5,1,1,1,1,0,2,2,0,0,0,0,0,1,1,1,1,0,0,0,0,0,0,0,0,0,0,0,0,0,0,0,0,0,1]},"epoch":1,"parameters/encoder.layer.bias_hh_l0":{"_type":"histogram","values":[1,0,0,0,0,0,0,0,1,1,0,0,0,0,0,3,2,0,0,3,4,2,3,2,2,2,4,4,3,6,15,11,4,3,9,5,9,9,12,5,10,5,8,5,3,5,5,6,1,4,3,3,3,3,1,0,0,1,0,0,0,0,0,1],"bins":[-0.45376840233802795,-0.4411541223526001,-0.42853984236717224,-0.4159255623817444,-0.40331128239631653,-0.39069700241088867,-0.3780826926231384,-0.36546841263771057,-0.3528541326522827,-0.34023985266685486,-0.327625572681427,-0.31501129269599915,-0.3023970127105713,-0.28978273272514343,-0.2771684527397156,-0.26455414295196533,-0.25193989276885986,-0.2393255978822708,-0.22671131789684296,-0.2140970230102539,-0.20148274302482605,-0.1888684630393982,-0.17625418305397034,-0.16363990306854248,-0.15102562308311462,-0.13841134309768677,-0.1257970631122589,-0.11318275332450867,-0.10056847333908081,-0.08795419335365295,-0.0753399133682251,-0.06272563338279724,-0.050111353397369385,-0.03749707341194153,-0.024882793426513672,-0.012268513441085815,0.000345766544342041,0.012960046529769897,0.02557435631752014,0.038188636302948,0.050802916288375854,0.06341719627380371,0.07603147625923157,0.08864575624465942,0.10126003623008728,0.11387431621551514,0.1264886111021042,0.13910289108753204,0.1517171710729599,0.16433145105838776,0.1769457310438156,0.18956002593040466,0.20217430591583252,0.21478858590126038,0.22740286588668823,0.2400171458721161,0.25263142585754395,0.2652457058429718,0.27785998582839966,0.2904742956161499,0.30308857560157776,0.3157028555870056,0.32831713557243347,0.34093141555786133,0.3535456955432892]},"parameters/decoder.layer.bias_hh_l0":{"bins":[-0.527296781539917,-0.5112742781639099,-0.49525174498558044,-0.47922924160957336,-0.4632067084312439,-0.4471842050552368,-0.43116170167922974,-0.41513919830322266,-0.3991166651248932,-0.3830941319465637,-0.36707162857055664,-0.35104912519454956,-0.3350266218185425,-0.319004088640213,-0.30298158526420593,-0.28695905208587646,-0.2709365487098694,-0.2549140453338623,-0.23889151215553284,-0.22286900877952576,-0.2068464756011963,-0.1908239722251892,-0.17480146884918213,-0.15877893567085266,-0.14275643229484558,-0.1267339289188385,-0.11071139574050903,-0.09468889236450195,-0.07866638898849487,-0.0626438558101654,-0.046621352434158325,-0.030598819255828857,-0.014576345682144165,0.001446157693862915,0.017468690872192383,0.03349119424819946,0.04951372742652893,0.06553623080253601,0.08155873417854309,0.09758126735687256,0.11360377073287964,0.12962627410888672,0.1456488072872162,0.16167131066322327,0.17769381403923035,0.19371634721755981,0.2097388505935669,0.22576138377189636,0.24178388714790344,0.2578064203262329,0.27382892370224,0.28985142707824707,0.30587393045425415,0.3218964636325836,0.3379189670085907,0.35394150018692017,0.36996400356292725,0.3859865069389343,0.4020090401172638,0.4180315434932709,0.43405407667160034,0.4500765800476074,0.4660990834236145,0.48212161660194397,0.49814411997795105],"_type":"histogram","values":[1,0,0,0,0,0,0,0,0,0,0,2,0,1,3,2,3,4,4,5,3,1,5,5,1,6,2,4,4,2,9,8,5,7,5,10,6,8,5,7,9,4,5,4,7,2,2,3,6,3,1,2,6,3,2,1,0,0,1,0,0,1,0,2]},"gradients/decoder.embed.weight":{"_type":"histogram","values":[1,2,0,1,1,4,2,10,5,6,5,7,8,12,16,22,25,33,37,46,58,61,85,81,133,153,2297,190,142,129,105,98,50,63,41,34,26,21,19,12,8,7,10,6,3,5,5,2,1,0,0,1,0,1,0,1,2,1,0,0,1,0,0,1],"bins":[-0.015032720752060413,-0.014472787268459797,-0.01391285378485918,-0.013352920301258564,-0.012792986817657948,-0.012233053334057331,-0.01167312078177929,-0.011113187298178673,-0.010553253814578056,-0.00999332033097744,-0.009433386847376823,-0.008873453363776207,-0.00831351988017559,-0.007753586396574974,-0.007193652912974358,-0.006633719429373741,-0.006073785945773125,-0.005513852462172508,-0.004953918978571892,-0.004393985494971275,-0.003834052011370659,-0.0032741185277700424,-0.002714185044169426,-0.0021542515605688095,-0.0015943190082907677,-0.0010343855246901512,-0.00047445204108953476,8.54814425110817e-05,0.0006454149261116982,0.0012053484097123146,0.001765281893312931,0.0023252153769135475,0.0028851479291915894,0.003445081412792206,0.004005014896392822,0.004564948379993439,0.005124881863594055,0.005684815347194672,0.006244748830795288,0.0068046823143959045,0.007364615797996521,0.007924548350274563,0.00848448183387518,0.009044415317475796,0.009604348801076412,0.010164282284677029,0.010724215768277645,0.011284149251878262,0.011844082735478878,0.012404016219079494,0.012963949702680111,0.013523883186280727,0.014083816669881344,0.014643749222159386,0.015203682705760002,0.01576361618936062,0.016323549672961235,0.01688348315656185,0.017443416640162468,0.018003350123763084,0.0185632836073637,0.019123217090964317,0.019683150574564934,0.02024308405816555,0.020803017541766167]},"parameters/encoder.embed.weight":{"values":[1,0,0,0,1,0,0,3,7,1,4,5,9,6,10,15,19,15,20,21,34,48,45,55,59,83,70,70,80,82,80,90,142,67,81,91,69,70,65,53,52,46,51,32,25,26,24,19,16,15,6,9,13,4,4,1,2,0,2,1,0,0,0,1],"bins":[-3.768352746963501,-3.6517250537872314,-3.535097599029541,-3.4184699058532715,-3.301842212677002,-3.1852145195007324,-3.068587064743042,-2.9519593715667725,-2.835331916809082,-2.7187042236328125,-2.602076530456543,-2.4854488372802734,-2.368821382522583,-2.2521936893463135,-2.135566234588623,-2.0189385414123535,-1.902310848236084,-1.785683274269104,-1.669055700302124,-1.5524280071258545,-1.435800313949585,-1.3191728591918945,-1.202545166015625,-1.0859174728393555,-0.969290018081665,-0.8526623249053955,-0.736034631729126,-0.6194069385528564,-0.502779483795166,-0.3861517906188965,-0.26952409744262695,-0.15289664268493652,-0.03626894950866699,0.08035874366760254,0.19698619842529297,0.3136138916015625,0.43024158477783203,0.5468690395355225,0.663496732711792,0.7801244258880615,0.896752119064331,1.0133795738220215,1.130007266998291,1.2466349601745605,1.363262414932251,1.4798901081085205,1.59651780128479,1.71314537525177,1.82977294921875,1.94640052318573,2.063028335571289,2.1796557903289795,2.296283483505249,2.4129109382629395,2.529538631439209,2.6461663246154785,2.762794017791748,2.8794214725494385,2.996049165725708,3.1126766204833984,3.229304313659668,3.3459320068359375,3.462559700012207,3.5791871547698975,3.695814847946167],"_type":"histogram"},"parameters/encoder.layer.weight_hh_l0":{"values":[1,0,1,1,1,2,2,2,8,5,8,7,6,7,17,16,17,18,19,39,45,69,109,148,184,263,353,468,535,677,802,949,974,928,969,909,769,677,564,411,384,236,180,133,105,57,41,41,22,23,18,11,8,6,7,5,6,6,7,4,1,3,2,2],"bins":[-1.060957431793213,-1.0292719602584839,-0.9975864291191101,-0.9659008979797363,-0.9342154264450073,-0.9025299549102783,-0.8708444237709045,-0.8391588926315308,-0.8074734210968018,-0.7757879495620728,-0.744102418422699,-0.7124168872833252,-0.6807314157485962,-0.6490459442138672,-0.6173604130744934,-0.5856748819351196,-0.5539894104003906,-0.5223039388656616,-0.49061840772628784,-0.45893287658691406,-0.42724740505218506,-0.39556193351745605,-0.3638764023780823,-0.3321908712387085,-0.3005053997039795,-0.2688199281692505,-0.2371343970298767,-0.20544886589050293,-0.17376339435577393,-0.14207792282104492,-0.11039239168167114,-0.07870686054229736,-0.047021448612213135,-0.01533597707748413,0.01634955406188965,0.04803508520126343,0.07972055673599243,0.11140602827072144,0.14309155941009521,0.174777090549469,0.206462562084198,0.238148033618927,0.2698335647583008,0.30151909589767456,0.33320456743240356,0.36489003896713257,0.39657557010650635,0.4282611012458801,0.45994657278060913,0.4916320741176605,0.5233175754547119,0.5550030469894409,0.5866885781288147,0.6183741092681885,0.6500595808029175,0.6817450523376465,0.7134305834770203,0.745116114616394,0.776801586151123,0.808487057685852,0.8401725888252258,0.8718581199645996,0.9035435914993286,0.9352290630340576,0.9669145941734314],"_type":"histogram"},"gradients/decoder.layer.bias_ih_l0":{"_type":"histogram","values":[1,0,0,0,0,0,0,0,0,0,0,0,0,0,0,1,0,0,0,0,0,0,0,0,0,0,0,1,1,1,0,3,4,1,2,6,3,2,11,11,59,41,20,5,4,1,3,2,0,2,0,1,2,2,0,0,0,0,0,0,0,0,0,2],"bins":[-0.07862470299005508,-0.07668399065732956,-0.07474327087402344,-0.07280255854129791,-0.07086184620857239,-0.06892113387584686,-0.06698041409254074,-0.06503970175981522,-0.06309898942708969,-0.06115827336907387,-0.059217557311058044,-0.05727684497833252,-0.055336128920316696,-0.05339541286230087,-0.05145470052957535,-0.04951398819684982,-0.047573272138834,-0.045632556080818176,-0.04369184374809265,-0.04175112769007683,-0.0398104153573513,-0.03786969929933548,-0.035928986966609955,-0.03398827090859413,-0.03204755485057831,-0.030106842517852783,-0.02816612645983696,-0.026225414127111435,-0.02428469806909561,-0.022343985736370087,-0.020403269678354263,-0.01846255734562874,-0.016521845012903214,-0.01458112895488739,-0.012640416622161865,-0.010699700564146042,-0.008758988231420517,-0.006818272173404694,-0.004877559840679169,-0.0029368437826633453,-0.0009961314499378204,0.0009445846080780029,0.0028853006660938263,0.004826012998819351,0.0067667290568351746,0.0087074413895607,0.010648157447576523,0.012588869780302048,0.014529585838317871,0.016470300033688545,0.01841101422905922,0.020351728424429893,0.022292442619800568,0.02423315867781639,0.026173872873187065,0.02811458706855774,0.030055301263928413,0.03199601545929909,0.03393673151731491,0.035877443850040436,0.03781815990805626,0.039758872240781784,0.04169958829879761,0.04364030063152313,0.045581016689538956]},"parameters/decoder.layer.weight_ih_l0":{"values":[1,0,0,0,0,3,1,1,1,2,4,5,10,13,20,23,31,37,57,65,82,99,135,153,193,245,296,341,390,494,571,665,690,746,752,807,755,663,628,583,497,419,350,326,259,197,157,126,99,73,54,36,33,22,20,20,6,13,7,4,2,2,1,3],"bins":[-1.0033577680587769,-0.9746400117874146,-0.9459222555160522,-0.9172044992446899,-0.8884867429733276,-0.8597689867019653,-0.8310511708259583,-0.802333414554596,-0.7736156582832336,-0.7448979020118713,-0.716180145740509,-0.687462329864502,-0.6587445735931396,-0.6300268173217773,-0.601309061050415,-0.5725913047790527,-0.5438735485076904,-0.5151557922363281,-0.4864380359649658,-0.4577202796936035,-0.4290025234222412,-0.40028470754623413,-0.3715669512748718,-0.3428491950035095,-0.3141314387321472,-0.2854136824607849,-0.2566959261894226,-0.2279781699180603,-0.19926035404205322,-0.17054259777069092,-0.1418248414993286,-0.11310708522796631,-0.08438938856124878,-0.055671632289886475,-0.02695387601852417,0.0017638802528381348,0.03048163652420044,0.05919945240020752,0.08791720867156982,0.11663496494293213,0.14535272121429443,0.17407047748565674,0.20278823375701904,0.23150599002838135,0.2602238059043884,0.28894156217575073,0.31765931844711304,0.34637707471847534,0.37509483098983765,0.40381258726119995,0.43253034353256226,0.46124812960624695,0.48996588587760925,0.518683671951294,0.5474014282226562,0.5761191844940186,0.6048369407653809,0.6335546970367432,0.6622724533081055,0.6909902095794678,0.7197079658508301,0.7484257817268372,0.7771435379981995,0.8058612942695618,0.8345790505409241],"_type":"histogram"},"parameters/decoder.embed.weight":{"values":[3,0,1,0,0,4,3,1,7,8,7,14,13,13,19,27,35,39,37,60,66,88,90,140,139,147,172,197,204,223,212,215,230,225,192,167,166,171,160,94,95,85,72,51,33,33,33,21,14,16,7,15,14,1,9,2,2,1,1,0,0,1,0,1],"bins":[-0.806720495223999,-0.7806237936019897,-0.7545270919799805,-0.728430449962616,-0.7023337483406067,-0.6762370467185974,-0.6501404047012329,-0.6240437030792236,-0.5979470014572144,-0.5718502998352051,-0.5457535982131958,-0.5196569561958313,-0.493560254573822,-0.46746355295181274,-0.44136688113212585,-0.41527020931243896,-0.3891735076904297,-0.3630768060684204,-0.3369801342487335,-0.31088346242904663,-0.28478676080703735,-0.2586900591850281,-0.23259341716766357,-0.2064967155456543,-0.18040001392364502,-0.15430331230163574,-0.12820661067962646,-0.10210996866226196,-0.07601326704025269,-0.04991656541824341,-0.023819923400878906,0.002276778221130371,0.028373539447784424,0.0544702410697937,0.08056694269180298,0.10666358470916748,0.13276028633117676,0.15885698795318604,0.18495362997055054,0.21105033159255981,0.2371470332145691,0.26324373483657837,0.28934043645858765,0.31543707847595215,0.3415337800979614,0.3676304817199707,0.3937271535396576,0.4198238253593445,0.44592052698135376,0.47201722860336304,0.4981139004230499,0.5242105722427368,0.5503072738647461,0.5764039754867554,0.6025006771087646,0.6285973191261292,0.6546940207481384,0.6807907223701477,0.7068873643875122,0.7329840660095215,0.7590807676315308,0.78517746925354,0.8112741708755493,0.8373708128929138,0.8634675145149231],"_type":"histogram"},"parameters/decoder.fc.weight":{"values":[1,1,0,0,1,0,1,2,4,1,4,7,7,9,9,22,28,30,35,48,48,63,86,121,141,140,183,226,242,237,245,265,248,240,198,226,167,158,103,105,83,79,56,49,47,33,23,17,10,10,9,3,5,3,3,3,3,2,1,1,3,0,0,1],"bins":[-1.5075408220291138,-1.4599868059158325,-1.4124326705932617,-1.3648786544799805,-1.3173246383666992,-1.2697705030441284,-1.2222164869308472,-1.1746623516082764,-1.1271083354949951,-1.0795543193817139,-1.032000184059143,-0.9844461679458618,-0.9368920922279358,-0.8893380165100098,-0.8417840003967285,-0.7942299246788025,-0.7466758489608765,-0.6991217732429504,-0.6515676975250244,-0.6040136814117432,-0.5564596056938171,-0.5089055299758911,-0.46135151386260986,-0.41379737854003906,-0.3662433624267578,-0.31868934631347656,-0.27113521099090576,-0.2235811948776245,-0.17602717876434326,-0.12847304344177246,-0.08091902732849121,-0.03336489200592041,0.01418912410736084,0.06174314022064209,0.10929727554321289,0.15685129165649414,0.20440542697906494,0.2519594430923462,0.29951345920562744,0.34706759452819824,0.3946216106414795,0.44217562675476074,0.48972976207733154,0.5372837781906128,0.5848378539085388,0.6323919296264648,0.6799459457397461,0.7275000214576721,0.7750540971755981,0.8226081728935242,0.8701622486114502,0.9177162647247314,0.9652703404426575,1.0128244161605835,1.0603784322738647,1.1079325675964355,1.1554865837097168,1.203040599822998,1.2505947351455688,1.29814875125885,1.345702886581421,1.3932569026947021,1.4408109188079834,1.4883650541305542,1.5359190702438354],"_type":"histogram"},"gradients/encoder.embed.weight":{"_type":"histogram","values":[1,1,0,0,1,2,0,0,0,2,0,4,2,6,7,3,4,7,6,12,13,27,19,25,27,38,58,51,84,122,813,152,100,65,48,39,36,34,23,16,10,16,8,8,5,7,4,2,0,3,2,0,2,0,0,1,1,0,0,1,1,0,0,1],"bins":[-0.011193669401109219,-0.010825986042618752,-0.010458302684128284,-0.010090619325637817,-0.00972293596714735,-0.009355252608656883,-0.00898757018148899,-0.008619885891675949,-0.008252203464508057,-0.007884519174695015,-0.007516836281865835,-0.007149152923375368,-0.006781470030546188,-0.006413786672055721,-0.006046103313565254,-0.005678419955074787,-0.00531073659658432,-0.004943053238093853,-0.004575369879603386,-0.004207686521112919,-0.0038400031626224518,-0.003472320269793272,-0.0031046364456415176,-0.0027369530871510506,-0.002369270659983158,-0.002001587301492691,-0.001633903943002224,-0.001266220584511757,-0.0008985372260212898,-0.0005308538675308228,-0.00016317050904035568,0.0002045128494501114,0.0005721971392631531,0.0009398804977536201,0.0013075638562440872,0.0016752472147345543,0.0020429305732250214,0.0024106139317154884,0.0027782972902059555,0.0031459806486964226,0.0035136640071868896,0.003881346434354782,0.004249029792845249,0.0046167136169970036,0.004984396509826183,0.00535207986831665,0.0057197632268071175,0.0060874465852975845,0.006455129943788052,0.006822813302278519,0.007190496660768986,0.007558180019259453,0.00792586337774992,0.008293546736240387,0.00866122916340828,0.009028913453221321,0.009396595880389214,0.009764280170202255,0.010131962597370148,0.010499645955860615,0.010867329314351082,0.011235012672841549,0.011602696031332016,0.011970379389822483,0.01233806274831295]}}