{"val_seq_acc":0.1857958831770665,"train_seq_acc":0.1238973621306031,"final_train_char_acc":0.6171310166088234,"parameters/graph_1encoder.layer.bias_ih_l0":{"_type":"histogram","values":[1,0,0,0,1,1,1,1,2,2,2,0,1,3,2,7,8,3,9,14,14,18,20,28,30,29,30,40,43,34,30,37,32,33,34,38,22,19,23,21,20,14,23,11,8,6,10,7,10,2,8,2,1,5,1,0,2,1,1,1,0,1,0,1],"bins":[-0.32810425758361816,-0.3177618682384491,-0.30741944909095764,-0.2970770597457886,-0.2867346704006195,-0.27639228105545044,-0.266049861907959,-0.2557074725627899,-0.24536506831645966,-0.2350226640701294,-0.22468027472496033,-0.21433787047863007,-0.2039954662322998,-0.19365307688713074,-0.18331067264080048,-0.1729682832956314,-0.16262587904930115,-0.1522834748029709,-0.14194108545780182,-0.13159868121147156,-0.12125629186630249,-0.11091388761997223,-0.10057148337364197,-0.0902290940284729,-0.07988668978214264,-0.06954428553581238,-0.05920189619064331,-0.04885950684547424,-0.03851708769798279,-0.02817469835281372,-0.017832309007644653,-0.007489889860153198,0.002852499485015869,0.013194888830184937,0.02353730797767639,0.03387969732284546,0.044222086668014526,0.05456450581550598,0.06490689516067505,0.07524928450584412,0.08559168875217438,0.09593409299850464,0.1062764823436737,0.11661888659000397,0.12696129083633423,0.1373036801815033,0.14764608442783356,0.15798847377300262,0.16833087801933289,0.17867328226566315,0.18901567161083221,0.19935807585716248,0.20970046520233154,0.2200428694486618,0.23038527369499207,0.24072766304016113,0.2510700821876526,0.26141247153282166,0.2717548608779907,0.2820972800254822,0.29243966937065125,0.3027820587158203,0.3131244480609894,0.32346686720848083,0.3338092565536499]},"gradients/graph_1decoder.layer.weight_ih_l0":{"bins":[-0.007228550501167774,-0.006977712269872427,-0.006726874504238367,-0.00647603627294302,-0.006225198041647673,-0.0059743598103523254,-0.0057235220447182655,-0.005472683813422918,-0.005221845582127571,-0.004971007816493511,-0.004720169585198164,-0.004469331353902817,-0.004218493588268757,-0.00396765535697341,-0.003716817358508706,-0.003465979127213359,-0.0032151411287486553,-0.002964302897453308,-0.002713465131819248,-0.002462626900523901,-0.0022117886692285538,-0.001960950903594494,-0.0017101126722991467,-0.0014592744410037994,-0.0012084366753697395,-0.0009575984440743923,-0.0007067602127790451,-0.0004559219814836979,-0.00020508421584963799,4.575401544570923e-05,0.00029659224674105644,0.0005474300123751163,0.0007982682436704636,0.0010491064749658108,0.0012999442405998707,0.001550782471895218,0.0018016207031905651,0.002052458468824625,0.0023032967001199722,0.0025541349314153194,0.0028049731627106667,0.0030558109283447266,0.0033066491596400738,0.003557487390935421,0.003808325156569481,0.004059163387864828,0.004310001619160175,0.004560839384794235,0.0048116776160895824,0.00506251584738493,0.0053133536130189896,0.005564191844314337,0.005815030075609684,0.006065867841243744,0.006316706072539091,0.006567544303834438,0.006818382069468498,0.0070692203007638454,0.007320058532059193,0.0075708962976932526,0.007821734994649887,0.008072572760283947,0.008323410525918007,0.008574249222874641,0.008825086988508701],"_type":"histogram","values":[2,1,1,0,3,3,2,3,3,7,5,6,13,14,14,23,22,34,35,46,88,102,132,144,217,284,563,1390,3937,2692,1004,421,243,192,162,106,89,72,49,34,33,24,15,12,6,5,7,9,5,2,4,3,1,1,0,2,0,0,0,0,0,0,0,1]},"parameters/graph_1encoder.embed.weight":{"_type":"histogram","values":[1,1,0,0,0,1,3,3,1,1,2,1,8,3,5,5,7,7,6,16,8,6,15,7,13,16,15,17,16,10,13,16,39,11,21,23,20,11,25,11,14,7,5,11,10,6,7,7,7,5,2,3,1,3,2,1,1,1,0,1,1,0,0,1],"bins":[-3.3625295162200928,-3.257547378540039,-3.1525652408599854,-3.0475831031799316,-2.942601203918457,-2.837618827819824,-2.7326369285583496,-2.627654790878296,-2.522672653198242,-2.4176905155181885,-2.3127083778381348,-2.20772647857666,-2.1027441024780273,-1.9977620840072632,-1.892780065536499,-1.7877979278564453,-1.6828157901763916,-1.577833652496338,-1.4728515148162842,-1.36786949634552,-1.2628872394561768,-1.1579053401947021,-1.0529232025146484,-0.9479410648345947,-0.842958927154541,-0.7379767894744873,-0.6329946517944336,-0.5280125141143799,-0.4230306148529053,-0.31804847717285156,-0.21306633949279785,-0.10808420181274414,-0.003101825714111328,0.10188031196594238,0.2068624496459961,0.3118445873260498,0.4168267250061035,0.5218086242675781,0.6267907619476318,0.7317728996276855,0.8367550373077393,0.941737174987793,1.0467193126678467,1.1517014503479004,1.256683349609375,1.3616656064987183,1.4666476249694824,1.5716297626495361,1.6766119003295898,1.7815940380096436,1.8865761756896973,1.9915581941604614,2.0965404510498047,2.2015223503112793,2.306504487991333,2.4114866256713867,2.5164687633514404,2.621450901031494,2.726433038711548,2.8314151763916016,2.936397075653076,3.04137921333313,3.1463613510131836,3.2513434886932373,3.356325626373291]},"gradients/graph_1encoder.embed.weight":{"values":[1,1,0,0,0,0,0,1,0,1,0,2,2,0,0,3,1,1,0,2,3,2,1,8,4,4,7,10,6,12,19,14,18,31,180,20,24,14,18,10,11,9,10,7,2,2,2,2,3,2,2,2,2,1,0,0,0,1,0,1,0,0,0,1],"bins":[-0.016143305227160454,-0.015675723552703857,-0.01520814374089241,-0.014740562997758389,-0.014272982254624367,-0.01380540058016777,-0.013337820768356323,-0.012870239093899727,-0.012402658350765705,-0.011935077607631683,-0.011467496864497662,-0.01099991612136364,-0.010532335378229618,-0.010064754635095596,-0.009597172960639,-0.009129593148827553,-0.008662011474370956,-0.008194430731236935,-0.007726849988102913,-0.007259269244968891,-0.006791688501834869,-0.006324107758700848,-0.005856527015566826,-0.005388946272432804,-0.004921365529298782,-0.004453784786164761,-0.003986204043030739,-0.0035186223685741425,-0.0030510416254401207,-0.002583460882306099,-0.002115880139172077,-0.0016482993960380554,-0.0011807186529040337,-0.0007131379097700119,-0.00024555716663599014,0.00022202357649803162,0.0006896043196320534,0.0011571850627660751,0.0016247667372226715,0.0020923474803566933,0.002559928223490715,0.003027508966624737,0.0034950897097587585,0.00396267045289278,0.004430251196026802,0.004897831939160824,0.005365412682294846,0.005832993425428867,0.006300574634224176,0.006768155377358198,0.00723573612049222,0.007703317329287529,0.00817089807242155,0.008638478815555573,0.009106059558689594,0.009573640301823616,0.010041221044957638,0.01050880178809166,0.010976383462548256,0.011443963274359703,0.0119115449488163,0.012379125691950321,0.012846706435084343,0.013314287178218365,0.013781867921352386],"_type":"histogram"},"gradients/graph_1encoder.layer.weight_hh_l0":{"bins":[-0.02974376641213894,-0.028851743787527084,-0.02795971930027008,-0.027067696675658226,-0.026175672188401222,-0.025283649563789368,-0.024391625076532364,-0.02349960245192051,-0.022607579827308655,-0.02171555534005165,-0.020823530852794647,-0.019931508228182793,-0.019039485603570938,-0.018147461116313934,-0.01725543849170208,-0.016363415867090225,-0.015471391379833221,-0.014579367823898792,-0.013687344267964363,-0.012795321643352509,-0.011903297156095505,-0.01101127453148365,-0.010119250044226646,-0.009227227419614792,-0.008335204795002937,-0.0074431803077459335,-0.006551157683134079,-0.005659133195877075,-0.004767110571265221,-0.003875086084008217,-0.0029830634593963623,-0.0020910389721393585,-0.0011990144848823547,-0.0003069918602705002,0.0005850326269865036,0.0014770552515983582,0.002369079738855362,0.0032611023634672165,0.00415312685072422,0.005045149475336075,0.005937173962593079,0.006829196587204933,0.007721219211816788,0.008613243699073792,0.009505266323685646,0.01039729081094265,0.011289313435554504,0.012181336991488934,0.013073360547423363,0.013965384103357792,0.014857407659292221,0.015749432146549225,0.01664145477116108,0.017533477395772934,0.018425501883029938,0.019317524507641792,0.020209547132253647,0.02110157161951065,0.021993596106767654,0.02288561873137951,0.023777641355991364,0.024669665843248367,0.025561688467860222,0.026453712955117226,0.02734573557972908],"_type":"histogram","values":[2,0,0,0,6,8,12,6,12,6,7,13,15,28,19,25,23,21,36,46,42,56,56,85,114,163,219,319,596,1105,2164,6344,33679,124715,18356,4260,1670,909,463,248,165,118,92,55,52,30,30,23,18,17,22,27,21,17,20,16,9,5,4,6,2,4,3,4]},"parameters/graph_1decoder.layer.weight_hh_l0":{"bins":[-1.0521087646484375,-1.018495798110962,-0.9848828315734863,-0.9512698650360107,-0.9176568984985352,-0.8840439319610596,-0.850430965423584,-0.8168179988861084,-0.7832050323486328,-0.7495920658111572,-0.7159790992736816,-0.682366132736206,-0.6487531661987305,-0.6151401996612549,-0.5815272331237793,-0.5479142665863037,-0.5143013000488281,-0.48068833351135254,-0.44707536697387695,-0.41346240043640137,-0.3798494338989258,-0.3462364673614502,-0.3126235008239746,-0.279010534286499,-0.24539756774902344,-0.21178460121154785,-0.17817163467407227,-0.14455866813659668,-0.1109457015991211,-0.07733273506164551,-0.04371976852416992,-0.010106801986694336,0.0235060453414917,0.057119011878967285,0.09073197841644287,0.12434494495391846,0.15795791149139404,0.19157087802886963,0.22518384456634521,0.2587968111038208,0.2924097776412964,0.326022744178772,0.35963571071624756,0.39324867725372314,0.42686164379119873,0.4604746103286743,0.4940875768661499,0.5277005434036255,0.5613135099411011,0.5949264764785767,0.6285394430160522,0.6621524095535278,0.6957653760910034,0.729378342628479,0.7629913091659546,0.7966042757034302,0.8302172422409058,0.8638302087783813,0.8974431753158569,0.9310561418533325,0.9646691083908081,0.9982820749282837,1.0318950414657593,1.0655080080032349,1.0991209745407104],"_type":"histogram","values":[1,0,0,0,1,1,2,3,3,3,6,3,11,13,36,42,73,99,199,276,444,688,1119,1862,3082,4767,7398,11169,15947,20884,24340,24960,22837,18561,13439,9167,5847,3554,2288,1395,811,490,287,179,119,73,40,24,19,16,2,10,3,5,3,2,3,1,0,0,0,0,0,1]},"parameters/graph_1decoder.layer.bias_ih_l0":{"values":[4,0,3,2,0,3,0,4,7,13,5,9,7,18,21,27,24,23,23,25,34,39,45,54,37,37,34,32,42,36,20,26,20,17,16,18,7,6,7,5,0,0,0,2,2,0,2,1,0,1,1,3,1,0,1,0,0,1,0,0,0,0,1,2],"bins":[-0.2561703324317932,-0.24544590711593628,-0.23472148180007935,-0.2239970564842224,-0.21327263116836548,-0.20254820585250854,-0.1918237954378128,-0.18109937012195587,-0.17037494480609894,-0.159650519490242,-0.14892609417438507,-0.13820168375968933,-0.1274772584438324,-0.11675283312797546,-0.10602840781211853,-0.0953039824962616,-0.08457955718040466,-0.07385513186454773,-0.0631307065486908,-0.05240628123283386,-0.04168185591697693,-0.03095744550228119,-0.020233020186424255,-0.009508594870567322,0.001215815544128418,0.011940240859985352,0.022664666175842285,0.03338909149169922,0.04411351680755615,0.054837942123413086,0.06556236743927002,0.07628679275512695,0.08701121807098389,0.09773564338684082,0.10846006870269775,0.11918449401855469,0.12990891933441162,0.14063334465026855,0.1513577699661255,0.16208219528198242,0.17280662059783936,0.1835310310125351,0.19425545632839203,0.20497988164424896,0.2157042920589447,0.22642871737480164,0.23715314269065857,0.2478775680065155,0.25860199332237244,0.26932641863822937,0.2800508439540863,0.29077526926994324,0.30149969458580017,0.3122241199016571,0.32294851541519165,0.3336729407310486,0.3443973660469055,0.35512179136276245,0.3658462166786194,0.3765706419944763,0.38729506731033325,0.3980194926261902,0.4087439179420471,0.41946834325790405,0.430192768573761],"_type":"histogram"},"val_loss":1.6566696787702626,"final_train_seq_acc":0.1238973621306031,"parameters/graph_1decoder.fc.weight":{"bins":[-1.0418881177902222,-1.0123205184936523,-0.9827528595924377,-0.9531852602958679,-0.9236176609992981,-0.8940500020980835,-0.8644824028015137,-0.8349148035049438,-0.805347204208374,-0.7757796049118042,-0.7462119460105896,-0.7166443467140198,-0.6870766878128052,-0.6575090885162354,-0.6279414892196655,-0.5983738899230957,-0.5688062906265259,-0.5392386317253113,-0.5096710324287415,-0.48010343313217163,-0.45053577423095703,-0.4209681749343872,-0.3914005756378174,-0.36183297634124756,-0.33226531744003296,-0.30269771814346313,-0.2731301188468933,-0.2435624599456787,-0.2139948606491089,-0.18442726135253906,-0.15485966205596924,-0.12529200315475464,-0.09572440385818481,-0.06615680456161499,-0.03658914566040039,-0.007021546363830566,0.022546052932739258,0.05211365222930908,0.08168131113052368,0.1112489104270935,0.14081650972366333,0.17038416862487793,0.19995176792144775,0.22951936721801758,0.2590869665145874,0.288654625415802,0.3182222247123718,0.34778982400894165,0.37735745310783386,0.4069250822067261,0.4364926815032959,0.4660603106021881,0.49562790989875793,0.5251955389976501,0.55476313829422,0.5843307971954346,0.6138983964920044,0.6434659957885742,0.673033595085144,0.7026011943817139,0.7321688532829285,0.7617364525794983,0.7913040518760681,0.8208717107772827,0.8504393100738525],"_type":"histogram","values":[1,0,0,0,0,0,0,0,0,1,2,3,4,1,6,10,11,23,15,31,53,66,101,120,164,252,298,418,490,645,803,963,1073,1171,1301,1281,1171,1104,1029,850,686,529,434,342,251,179,136,108,83,55,28,22,20,13,11,10,6,3,1,2,0,1,1,2]},"final_val_char_acc":0.6171745758309066,"_timestamp":1.746372702372137e+09,"parameters/graph_1decoder.fc.bias":{"_type":"histogram","values":[2,1,0,0,0,0,0,0,0,2,1,1,2,2,1,0,1,1,0,1,1,1,2,2,2,3,3,0,1,1,3,3,2,1,0,2,4,3,0,2,2,2,0,0,0,0,0,2,1,0,1,1,0,1,1,0,0,0,0,0,1,0,0,1],"bins":[-0.2334539294242859,-0.22695501148700714,-0.2204560786485672,-0.21395716071128845,-0.2074582427740097,-0.20095932483673096,-0.19446039199829102,-0.18796147406101227,-0.18146255612373352,-0.17496362328529358,-0.16846470534801483,-0.16196578741073608,-0.15546685457229614,-0.1489679366350174,-0.14246901869773865,-0.1359700858592987,-0.12947116792201996,-0.12297224253416061,-0.11647332459688187,-0.10997439920902252,-0.10347548127174377,-0.09697654843330383,-0.09047763049602509,-0.08397871255874634,-0.0774797797203064,-0.07098086178302765,-0.0644819438457489,-0.057983025908470154,-0.05148409307003021,-0.044985175132751465,-0.03848625719547272,-0.031987324357032776,-0.025488391518592834,-0.018989473581314087,-0.012490540742874146,-0.005991622805595398,0.0005072951316833496,0.007006227970123291,0.013505145907402039,0.020004063844680786,0.026502981781959534,0.033001914620399475,0.03950083255767822,0.04599975049495697,0.05249868333339691,0.05899760127067566,0.065496526658535,0.07199544459581375,0.0784943699836731,0.08499329537153244,0.09149221330881119,0.09799113869667053,0.10449005663394928,0.11098898202180862,0.11748790740966797,0.12398682534694672,0.13048574328422546,0.1369846761226654,0.14348359405994415,0.1499825119972229,0.15648144483566284,0.1629803627729416,0.16947928071022034,0.17597821354866028,0.18247713148593903]},"gradients/graph_1encoder.layer.bias_ih_l0":{"bins":[-0.01828549988567829,-0.017428850755095482,-0.016572201624512672,-0.015715552493929863,-0.014858903363347054,-0.014002254232764244,-0.01314560417085886,-0.01228895504027605,-0.011432305909693241,-0.010575656779110432,-0.009719007648527622,-0.008862358517944813,-0.008005708456039429,-0.007149059325456619,-0.00629241019487381,-0.005435761064291,-0.004579111933708191,-0.0037224628031253815,-0.002865813672542572,-0.0020091645419597626,-0.0011525154113769531,-0.0002958662807941437,0.0005607828497886658,0.0014174319803714752,0.002274082973599434,0.0031307321041822433,0.003987381234765053,0.004844030365347862,0.005700679495930672,0.006557328626513481,0.007413977757096291,0.0082706268876791,0.00912727415561676,0.00998392328619957,0.01084057241678238,0.011697221547365189,0.012553870677947998,0.013410519808530807,0.014267168939113617,0.015123818069696426,0.015980467200279236,0.016837118193507195,0.017693767324090004,0.018550416454672813,0.019407065585255623,0.020263714715838432,0.021120363846421242,0.02197701297700405,0.02283366210758686,0.02369031123816967,0.02454696036875248,0.02540360949933529,0.0262602586299181,0.027116909623146057,0.027973558753728867,0.028830207884311676,0.029686857014894485,0.030543506145477295,0.031400155276060104,0.032256804406642914,0.03311345353722572,0.03397010266780853,0.03482675179839134,0.03568340092897415,0.03654005005955696],"_type":"histogram","values":[1,0,1,0,0,0,1,1,1,3,2,1,6,3,3,7,11,16,34,66,135,234,94,43,24,14,13,7,8,4,7,6,2,2,0,2,1,2,2,0,1,0,4,0,0,0,1,0,2,0,2,0,0,0,0,0,0,0,0,0,0,0,0,1]},"gradients/graph_1encoder.layer.bias_hh_l0":{"values":[1,0,0,0,0,0,0,0,0,2,0,0,0,1,0,1,2,4,2,10,10,17,37,80,157,216,103,53,19,21,4,8,3,2,1,1,2,1,1,1,1,1,0,1,0,0,0,1,1,1,0,1,0,0,0,0,0,0,0,0,0,0,0,1],"bins":[-0.016315586864948273,-0.015668557956814766,-0.01502152904868126,-0.014374500140547752,-0.013727471232414246,-0.013080442324280739,-0.012433412484824657,-0.01178638357669115,-0.011139354668557644,-0.010492325760424137,-0.00984529685229063,-0.009198267012834549,-0.008551238104701042,-0.007904209196567535,-0.007257180288434029,-0.006610151380300522,-0.005963122472167015,-0.005316093564033508,-0.0046690646559000015,-0.004022035747766495,-0.003375006839632988,-0.0027279770001769066,-0.0020809480920434,-0.001433919183909893,-0.0007868902757763863,-0.00013986043632030487,0.0005071684718132019,0.0011541973799467087,0.0018012262880802155,0.0024482551962137222,0.003095284104347229,0.0037423130124807358,0.0043893419206142426,0.005036370828747749,0.005683399736881256,0.006330428645014763,0.00697745755314827,0.007624486461281776,0.008271515369415283,0.00891854427754879,0.009565574117004871,0.010212603025138378,0.010859631933271885,0.011506660841405392,0.012153690680861473,0.01280071958899498,0.013447748497128487,0.014094777405261993,0.0147418063133955,0.015388835221529007,0.016035864129662514,0.01668289303779602,0.017329921945929527,0.017976950854063034,0.01862398162484169,0.019271008670330048,0.019918039441108704,0.02056506648659706,0.021212097257375717,0.021859126165509224,0.02250615507364273,0.023153183981776237,0.023800212889909744,0.02444724179804325,0.025094270706176758],"_type":"histogram"},"train_loss":1.6293450446600841,"epoch":0,"gradients/graph_1decoder.layer.weight_hh_l0":{"bins":[-0.018627315759658813,-0.018073370680212975,-0.017519425600767136,-0.016965480521321297,-0.016411535441875458,-0.01585759036242962,-0.01530364528298378,-0.014749700203537941,-0.014195755124092102,-0.013641810044646263,-0.013087864965200424,-0.012533919885754585,-0.011979973874986172,-0.011426028795540333,-0.010872083716094494,-0.010318138636648655,-0.009764193557202816,-0.009210248477756977,-0.008656303398311138,-0.0081023583188653,-0.00754841323941946,-0.006994468159973621,-0.0064405230805277824,-0.0058865780010819435,-0.00533263199031353,-0.004778686910867691,-0.004224741831421852,-0.003670796751976013,-0.0031168516725301743,-0.0025629065930843353,-0.0020089615136384964,-0.0014550164341926575,-0.0009010713547468185,-0.0003471262753009796,0.00020681880414485931,0.0007607638835906982,0.0013147089630365372,0.001868654042482376,0.002422599121928215,0.002976544201374054,0.003530489280819893,0.004084435291588306,0.004638380371034145,0.005192325450479984,0.005746270529925823,0.006300215609371662,0.006854160688817501,0.00740810576826334,0.007962050847709179,0.008515995927155018,0.009069941006600857,0.009623886086046696,0.010177831165492535,0.010731777176260948,0.011285722255706787,0.011839667335152626,0.012393612414598465,0.012947557494044304,0.013501502573490143,0.014055447652935982,0.01460939273238182,0.01516333781182766,0.0157172828912735,0.016271227970719337,0.016825173050165176],"_type":"histogram","values":[1,0,1,0,1,0,1,2,1,2,1,5,5,8,14,11,24,29,36,60,93,109,147,215,319,449,699,1147,1829,3041,5610,11995,30214,70429,38619,15169,6883,3636,2038,1292,768,518,371,243,161,130,80,52,43,26,24,19,10,5,13,1,4,2,0,1,0,1,0,1]},"parameters/graph_1encoder.layer.bias_hh_l0":{"_type":"histogram","values":[1,0,0,2,1,1,0,1,0,2,2,4,4,6,2,3,8,8,15,18,17,25,23,30,27,27,33,34,39,38,49,48,33,33,32,31,40,13,13,23,9,8,21,7,12,6,2,4,2,0,3,1,0,2,1,1,1,1,0,0,0,0,0,1],"bins":[-0.3179783821105957,-0.3074199855327606,-0.29686155915260315,-0.28630316257476807,-0.275744765996933,-0.2651863694190979,-0.25462794303894043,-0.24406954646110535,-0.23351113498210907,-0.2229527235031128,-0.2123943269252777,-0.20183591544628143,-0.19127750396728516,-0.18071910738945007,-0.1701606959104538,-0.1596022993326187,-0.14904388785362244,-0.13848547637462616,-0.12792707979679108,-0.1173686683177948,-0.10681027173995972,-0.09625186026096344,-0.08569344878196716,-0.07513505220413208,-0.06457662582397461,-0.054018229246139526,-0.04345983266830444,-0.03290143609046936,-0.02234300971031189,-0.011784613132476807,-0.0012262165546417236,0.009332209825515747,0.019890636205673218,0.0304490327835083,0.04100745916366577,0.051565855741500854,0.06212425231933594,0.07268267869949341,0.08324107527732849,0.09379947185516357,0.10435786843299866,0.11491629481315613,0.1254746913909912,0.1360331028699875,0.14659151434898376,0.15714991092681885,0.16770832240581512,0.1782667189836502,0.18882513046264648,0.19938354194164276,0.20994193851947784,0.22050034999847412,0.2310587465763092,0.24161715805530548,0.25217556953430176,0.26273396611213684,0.2732923626899719,0.2838507890701294,0.2944091856479645,0.30496758222579956,0.31552600860595703,0.3260844051837921,0.3366428017616272,0.34720122814178467,0.35775962471961975]},"gradients/graph_1decoder.layer.bias_hh_l0":{"values":[1,0,0,0,0,2,0,1,1,0,1,1,1,0,2,5,2,2,7,5,5,6,10,16,16,25,41,36,73,88,125,61,73,38,30,20,12,12,8,5,5,4,5,4,3,2,1,3,1,2,2,0,1,0,0,2,0,0,1,0,0,0,0,1],"bins":[-0.0124218063428998,-0.012009154073894024,-0.011596502736210823,-0.011183850467205048,-0.010771199129521847,-0.010358546860516071,-0.00994589552283287,-0.009533243253827095,-0.009120591916143894,-0.008707939647138119,-0.008295288309454918,-0.007882636040449142,-0.007469984237104654,-0.007057332433760166,-0.006644680630415678,-0.00623202882707119,-0.005819377023726702,-0.005406725220382214,-0.0049940734170377254,-0.004581421613693237,-0.004168769344687462,-0.003756118007004261,-0.0033434657379984856,-0.0029308144003152847,-0.0025181621313095093,-0.0021055107936263084,-0.001692858524620533,-0.0012802071869373322,-0.0008675549179315567,-0.00045490358024835587,-4.2251311242580414e-05,0.0003704000264406204,0.0007830522954463959,0.0011957045644521713,0.0016083559021353722,0.0020210081711411476,0.0024336595088243484,0.002846311777830124,0.0032589631155133247,0.0036716153845191,0.004084266722202301,0.0044969189912080765,0.004909570328891277,0.005322222597897053,0.005734873935580254,0.006147526204586029,0.006560178007930517,0.006972829811275005,0.0073854816146194935,0.007798133417963982,0.008210785686969757,0.008623437024652958,0.009036088362336159,0.009448740631341934,0.00986139290034771,0.01027404423803091,0.010686696507036686,0.011099347844719887,0.011512000113725662,0.011924651451408863,0.012337303720414639,0.01274995505809784,0.013162607327103615,0.013575258664786816,0.013987910933792591],"_type":"histogram"},"gradients/graph_1decoder.layer.bias_ih_l0":{"bins":[-0.02594057470560074,-0.025127563625574112,-0.024314552545547485,-0.02350154146552086,-0.022688530385494232,-0.021875519305467606,-0.02106250636279583,-0.020249495282769203,-0.019436484202742577,-0.01862347312271595,-0.017810462042689323,-0.016997449100017548,-0.01618443801999092,-0.015371427871286869,-0.014558415859937668,-0.013745404779911041,-0.012932393699884415,-0.012119382619857788,-0.011306371539831161,-0.01049335952848196,-0.009680349379777908,-0.008867336437106133,-0.008054325357079506,-0.007241314277052879,-0.006428303197026253,-0.005615292116999626,-0.004802281036973,-0.003989269956946373,-0.003176257014274597,-0.0023632459342479706,-0.001550234854221344,-0.0007372237741947174,7.578544318675995e-05,0.0008887965232133865,0.0017018076032400131,0.0025148186832666397,0.0033278297632932663,0.004140842705965042,0.004953853785991669,0.005766864866018295,0.006579875946044922,0.0073928870260715485,0.008205898106098175,0.009018909186124802,0.009831922128796577,0.01064493227750063,0.01145794428884983,0.012270955368876457,0.013083966448903084,0.01389697752892971,0.014709988608956337,0.015523000620305538,0.01633601263165474,0.017149023711681366,0.017962034791707993,0.01877504587173462,0.019588056951761246,0.020401068031787872,0.0212140791118145,0.022027090191841125,0.022840101271867752,0.023653114214539528,0.024466125294566154,0.02527913637459278,0.026092147454619408],"_type":"histogram","values":[1,0,0,0,0,1,2,0,0,1,0,0,1,2,2,4,1,4,2,1,4,3,7,6,11,7,11,11,18,41,79,172,144,92,32,20,12,10,11,14,4,7,3,7,7,1,1,2,2,3,1,1,0,0,0,0,0,0,1,0,0,0,0,1]},"beam_width":5,"gradients/graph_1encoder.layer.weight_ih_l0":{"_type":"histogram","values":[1,1,0,0,0,3,5,4,3,3,6,8,11,27,46,69,143,228,457,1084,4468,3855,950,397,210,117,61,37,30,22,10,9,7,5,2,3,2,2,0,0,0,0,1,0,0,0,0,0,0,0,0,0,0,0,0,0,0,0,0,0,0,0,0,1],"bins":[-0.027729814872145653,-0.026406772434711456,-0.02508373185992241,-0.023760691285133362,-0.022437648847699165,-0.02111460641026497,-0.01979156583547592,-0.018468525260686874,-0.017145482823252678,-0.01582244038581848,-0.014499399811029434,-0.013176358304917812,-0.01185331679880619,-0.010530276224017143,-0.009207233786582947,-0.00788419134914875,-0.006561150774359703,-0.005238110199570656,-0.003915067762136459,-0.002592025324702263,-0.0012689847499132156,5.4055824875831604e-05,0.001377098262310028,0.0027001406997442245,0.004023181274533272,0.005346221849322319,0.006669262424111366,0.007992306724190712,0.00931534729897976,0.010638387873768806,0.011961432173848152,0.0132844727486372,0.014607511460781097,0.015930552035570145,0.017253592610359192,0.018576636910438538,0.019899677485227585,0.021222718060016632,0.022545762360095978,0.023868802934885025,0.025191843509674072,0.02651488408446312,0.027837926521897316,0.029160968959331512,0.03048400953412056,0.03180705010890961,0.03313009440898895,0.034453134983778,0.03577617555856705,0.037099216133356094,0.03842225670814514,0.03974530100822449,0.041068341583013535,0.04239138215780258,0.04371442645788193,0.045037467032670975,0.04636050760746002,0.04768354818224907,0.049006588757038116,0.05032963305711746,0.05165267363190651,0.05297571420669556,0.0542987585067749,0.05562179908156395,0.056944839656353]},"gradients/graph_1decoder.fc.bias":{"_type":"histogram","values":[1,0,0,0,0,0,0,0,0,0,0,0,0,0,0,0,0,0,0,0,0,0,0,0,0,0,0,2,0,0,0,0,0,1,1,0,1,0,1,2,1,3,3,28,4,4,0,3,4,0,1,0,2,0,0,0,0,0,1,0,0,0,0,1],"bins":[-0.028899481520056725,-0.028228454291820526,-0.02755742520093918,-0.02688639797270298,-0.026215368881821632,-0.025544341653585434,-0.024873312562704086,-0.024202285334467888,-0.02353125810623169,-0.022860229015350342,-0.022189199924468994,-0.021518172696232796,-0.020847145467996597,-0.02017611637711525,-0.01950508914887905,-0.018834061920642853,-0.018163032829761505,-0.017492003738880157,-0.01682097651064396,-0.01614994928240776,-0.015478920191526413,-0.014807892963290215,-0.014136864803731441,-0.013465836644172668,-0.01279480941593647,-0.012123780325055122,-0.011452753096818924,-0.010781724005937576,-0.010110696777701378,-0.00943966768682003,-0.008768640458583832,-0.008097611367702484,-0.007426586002111435,-0.0067555587738752365,-0.006084529682993889,-0.00541350245475769,-0.004742473363876343,-0.004071446135640144,-0.0034004170447587967,-0.0027293898165225983,-0.0020583607256412506,-0.0013873334974050522,-0.0007163053378462791,-4.5277178287506104e-05,0.0006257500499486923,0.0012967782095074654,0.0019678063690662384,0.0026388345286250114,0.0033098626881837845,0.0039808908477425575,0.004651919007301331,0.005322947166860104,0.005993975326418877,0.006665003020316362,0.007336030714213848,0.008007058873772621,0.008678087033331394,0.009349115192890167,0.01002014335244894,0.010691171512007713,0.011362198740243912,0.01203322783112526,0.012704255059361458,0.01337528321892023,0.014046311378479004]},"train_char_acc":0.6171310166088234,"_runtime":91.550848,"gradients/graph_1decoder.embed.weight":{"bins":[-0.04178133234381676,-0.04055340215563774,-0.039325471967458725,-0.03809754177927971,-0.036869607865810394,-0.03564167767763138,-0.03441374748945236,-0.033185817301273346,-0.03195788711309433,-0.030729956924915314,-0.029502026736736298,-0.028274094685912132,-0.027046164497733116,-0.0258182343095541,-0.024590302258729935,-0.02336237207055092,-0.022134441882371902,-0.020906511694192886,-0.01967858150601387,-0.018450649455189705,-0.01722271926701069,-0.015994789078831673,-0.014766857028007507,-0.013538926839828491,-0.012310996651649475,-0.011083066463470459,-0.009855136275291443,-0.008627206087112427,-0.007399272173643112,-0.006171341985464096,-0.00494341179728508,-0.003715481609106064,-0.0024875514209270477,-0.0012596212327480316,-3.16910445690155e-05,0.0011962391436100006,0.0024241693317890167,0.0036521032452583313,0.004880033433437347,0.0061079636216163635,0.00733589380979538,0.008563823997974396,0.009791754186153412,0.011019686236977577,0.012247616425156593,0.01347554661333561,0.014703478664159775,0.01593140885233879,0.017159339040517807,0.018387269228696823,0.01961519941687584,0.020843131467700005,0.02207106165587902,0.023298991844058037,0.024526923894882202,0.025754854083061218,0.026982784271240234,0.02821071445941925,0.029438644647598267,0.030666576698422432,0.0318945050239563,0.03312243893742561,0.03435036912560463,0.035578299313783646,0.03680622950196266],"_type":"histogram","values":[1,0,0,0,0,0,0,1,0,0,0,0,1,0,1,1,0,1,1,2,5,0,2,3,4,10,9,8,13,20,19,29,42,102,575,48,30,18,10,15,12,8,4,2,3,6,4,2,4,1,1,1,1,0,0,1,2,0,0,0,0,0,0,1]},"parameters/graph_1decoder.layer.bias_hh_l0":{"_type":"histogram","values":[2,0,3,0,0,3,7,4,6,7,11,9,12,12,27,20,32,23,36,27,33,36,40,37,44,39,43,42,52,19,24,20,24,13,11,11,10,4,3,3,1,1,1,0,2,1,0,1,3,0,1,3,0,1,1,1,0,0,0,1,0,0,0,1],"bins":[-0.2633974254131317,-0.25213298201560974,-0.24086850881576538,-0.22960405051708221,-0.21833959221839905,-0.20707513391971588,-0.19581067562103271,-0.18454623222351074,-0.17328175902366638,-0.1620173156261444,-0.15075284242630005,-0.13948839902877808,-0.1282239407300949,-0.11695948243141174,-0.10569502413272858,-0.09443056583404541,-0.08316610753536224,-0.07190164923667908,-0.06063719093799591,-0.049372732639312744,-0.03810827434062958,-0.02684381604194641,-0.015579357743263245,-0.004314899444580078,0.0069495439529418945,0.018214017152786255,0.029478460550308228,0.04074293375015259,0.05200737714767456,0.06327185034751892,0.0745362937450409,0.08580076694488525,0.09706521034240723,0.1083296537399292,0.11959412693977356,0.13085857033729553,0.1421230435371399,0.15338748693466187,0.16465196013450623,0.1759164035320282,0.18718087673187256,0.19844532012939453,0.2097097784280777,0.22097423672676086,0.23223869502544403,0.2435031533241272,0.25476759672164917,0.26603206992149353,0.2772965431213379,0.28856098651885986,0.29982542991638184,0.3110899031162262,0.32235437631607056,0.33361881971359253,0.3448832631111145,0.35614773631095886,0.36741217970848083,0.3786766529083252,0.38994109630584717,0.40120556950569153,0.4124700129032135,0.42373448610305786,0.43499892950057983,0.4462634027004242,0.45752784609794617]},"final_train_loss":1.6293450446600841,"final_val_loss":1.6566696787702626,"parameters/graph_1decoder.embed.weight":{"bins":[-0.9097456336021423,-0.8790157437324524,-0.8482857942581177,-0.8175559043884277,-0.7868260145187378,-0.7560961246490479,-0.7253661751747131,-0.6946362853050232,-0.6639063358306885,-0.6331764459609985,-0.6024465560913086,-0.5717166662216187,-0.5409867167472839,-0.510256826877594,-0.47952690720558167,-0.4487970173358917,-0.4180670976638794,-0.38733720779418945,-0.35660725831985474,-0.3258773684501648,-0.29514747858047485,-0.26441752910614014,-0.2336876392364502,-0.20295774936676025,-0.17222779989242554,-0.1414979100227356,-0.11076802015304565,-0.08003813028335571,-0.049308180809020996,-0.018578290939331055,0.012151598930358887,0.042881548404693604,0.07361137866973877,0.10434126853942871,0.13507121801376343,0.16580110788345337,0.1965309977531433,0.22726094722747803,0.25799083709716797,0.2887207269668579,0.31945061683654785,0.35018056631088257,0.3809104561805725,0.41164034605026245,0.44237029552459717,0.4731001853942871,0.503830075263977,0.5345600247383118,0.5652899146080017,0.5960198640823364,0.6267497539520264,0.6574796438217163,0.6882095336914062,0.7189394235610962,0.7496693730354309,0.7803992629051208,0.8111292123794556,0.8418591022491455,0.8725889921188354,0.9033188819885254,0.9340488314628601,0.96477872133255,0.99550861120224,1.0262385606765747,1.0569684505462646],"_type":"histogram","values":[1,0,0,0,1,0,2,0,3,4,4,3,2,1,13,13,11,25,21,24,24,22,41,45,42,54,48,50,51,39,52,42,42,29,38,41,35,23,27,14,19,23,19,18,6,9,13,8,5,7,2,1,3,2,0,0,1,0,0,0,0,0,0,1]},"beam_search":false,"gradients/graph_1decoder.fc.weight":{"bins":[-0.027531513944268227,-0.026665404438972473,-0.02579929679632187,-0.024933187291026115,-0.02406707964837551,-0.023200970143079758,-0.022334862500429153,-0.0214687529951334,-0.020602643489837646,-0.019736535847187042,-0.018870428204536438,-0.018004318699240685,-0.01713820919394493,-0.016272101551294327,-0.015405992045998573,-0.014539883472025394,-0.013673774898052216,-0.012807666324079037,-0.011941557750105858,-0.011075448244810104,-0.0102093406021595,-0.009343231096863747,-0.008477123454213142,-0.007611013948917389,-0.0067449044436216354,-0.005878796800971031,-0.005012687295675278,-0.0041465796530246735,-0.00328047014772892,-0.0024143625050783157,-0.0015482529997825623,-0.000682145357131958,0.00018396228551864624,0.0010500717908143997,0.001916179433465004,0.0027822889387607574,0.0036483965814113617,0.004514506086707115,0.005380613729357719,0.006246723234653473,0.007112830877304077,0.00797894038259983,0.008845049887895584,0.009711157530546188,0.010577267035841942,0.011443374678492546,0.0123094841837883,0.013175592757761478,0.014041701331734657,0.014907809905707836,0.015773918479681015,0.01664002612233162,0.017506135627627373,0.018372245132923126,0.01923835277557373,0.020104462280869484,0.020970571786165237,0.02183667942881584,0.022702787071466446,0.0235688965767622,0.024435006082057953,0.025301113724708557,0.02616722323000431,0.027033330872654915,0.02789944037795067],"_type":"histogram","values":[2,1,2,1,2,3,3,3,2,4,3,5,4,7,7,14,6,12,26,34,46,50,69,85,123,188,200,289,444,631,983,8486,1834,789,600,377,252,190,149,114,81,50,48,40,31,22,19,11,5,8,7,4,2,2,4,2,1,1,0,2,1,0,1,2]},"_step":1,"_wandb":{"runtime":91},"parameters/graph_1encoder.layer.weight_ih_l0":{"bins":[-0.8752918839454651,-0.848475992679596,-0.8216601014137268,-0.7948441505432129,-0.7680282592773438,-0.7412123680114746,-0.7143964767456055,-0.6875805854797363,-0.6607646942138672,-0.6339487433433533,-0.6071328520774841,-0.580316960811615,-0.5535010695457458,-0.5266851186752319,-0.4998692572116852,-0.47305333614349365,-0.4462374448776245,-0.41942155361175537,-0.39260563254356384,-0.3657897114753723,-0.3389738202095032,-0.31215792894363403,-0.2853420376777649,-0.25852614641189575,-0.2317102551460266,-0.2048943042755127,-0.17807841300964355,-0.15126252174377441,-0.12444663047790527,-0.09763073921203613,-0.07081478834152222,-0.043998897075653076,-0.01718294620513916,0.00963294506072998,0.03644883632659912,0.06326478719711304,0.09008067846298218,0.11689656972885132,0.14371246099472046,0.1705283522605896,0.19734430313110352,0.22416019439697266,0.2509760856628418,0.27779197692871094,0.3046078681945801,0.3314237594604492,0.35823968052864075,0.3850556015968323,0.4118714928627014,0.43868738412857056,0.4655033051967621,0.4923191964626312,0.5191351175308228,0.5459510087966919,0.572766900062561,0.5995827913284302,0.6263986825942993,0.6532146334648132,0.6800305247306824,0.7068464159965515,0.7336623072624207,0.7604782581329346,0.7872941493988037,0.8141100406646729,0.840925931930542],"_type":"histogram","values":[1,1,2,2,1,0,1,2,4,10,6,7,13,15,22,27,33,43,70,91,112,124,172,235,275,342,462,523,618,671,780,893,857,794,836,737,656,521,439,393,314,256,213,165,123,103,74,67,46,34,25,23,14,11,8,5,5,3,5,0,0,1,1,1]},"parameters/graph_1decoder.layer.weight_ih_l0":{"_type":"histogram","values":[1,0,0,0,0,3,6,3,4,5,8,15,16,26,31,43,61,62,70,116,123,150,199,270,348,330,452,460,552,592,636,651,691,680,666,714,637,553,544,490,425,307,294,200,175,164,107,93,88,59,51,34,19,20,13,5,5,4,4,3,3,3,3,1],"bins":[-1.036348819732666,-1.005268931388855,-0.974189043045044,-0.9431092143058777,-0.9120293259620667,-0.8809494376182556,-0.8498695492744446,-0.8187897205352783,-0.7877098321914673,-0.7566299438476562,-0.7255500555038452,-0.6944701671600342,-0.6633902788162231,-0.6323104500770569,-0.6012305617332458,-0.5701507329940796,-0.5390708446502686,-0.5079909563064575,-0.4769110679626465,-0.44583117961883545,-0.4147512912750244,-0.38367146253585815,-0.3525915741920471,-0.3215116858482361,-0.29043179750442505,-0.259351909160614,-0.22827208042144775,-0.19719219207763672,-0.16611230373382568,-0.13503241539001465,-0.10395258665084839,-0.07287269830703735,-0.04179280996322632,-0.010712921619415283,0.020366966724395752,0.05144679546356201,0.08252668380737305,0.11360657215118408,0.14468646049499512,0.17576628923416138,0.2068461775779724,0.23792606592178345,0.2690059542655945,0.3000858426094055,0.3311656713485718,0.3622455596923828,0.39332544803619385,0.4244053363800049,0.45548519492149353,0.48656508326530457,0.5176449418067932,0.5487248301506042,0.5798046588897705,0.6108845472335815,0.6419644355773926,0.6730443239212036,0.7041242122650146,0.7352041006088257,0.7662839293479919,0.797363817691803,0.828443706035614,0.859523594379425,0.8906034231185913,0.9216833114624023,0.9527631998062134]},"val_char_acc":0.6171745758309066,"final_val_seq_acc":0.1857958831770665,"parameters/graph_1encoder.layer.weight_hh_l0":{"bins":[-0.725412905216217,-0.6953719258308411,-0.6653309464454651,-0.6352899670600891,-0.6052489876747131,-0.5752080082893372,-0.545167088508606,-0.51512610912323,-0.4850850999355316,-0.45504412055015564,-0.42500314116477966,-0.3949621617794037,-0.3649212121963501,-0.3348802328109741,-0.30483925342559814,-0.27479827404022217,-0.2447572946548462,-0.21471631526947021,-0.18467533588409424,-0.15463435649871826,-0.12459337711334229,-0.09455239772796631,-0.06451141834259033,-0.034470438957214355,-0.004429519176483154,0.025611460208892822,0.0556524395942688,0.08569341897964478,0.11573439836502075,0.14577537775039673,0.1758163571357727,0.20585733652114868,0.23589825630187988,0.26593923568725586,0.29598021507263184,0.3260211944580078,0.3560621738433838,0.38610315322875977,0.41614413261413574,0.4461851119995117,0.4762260913848877,0.5062670111656189,0.5363079905509949,0.5663489699363708,0.5963899493217468,0.6264309287071228,0.6564719080924988,0.6865128874778748,0.7165538668632507,0.7465948462486267,0.7766358256340027,0.8066768050193787,0.8367177844047546,0.8667587041854858,0.8967996835708618,0.9268406629562378,0.9568816423416138,0.9869226217269897,1.0169636011123657,1.0470045804977417,1.0770455598831177,1.1070865392684937,1.1371275186538696,1.1671684980392456,1.1972094774246216],"_type":"histogram","values":[4,1,1,5,5,10,17,25,43,74,102,202,296,539,797,1276,2121,3278,5215,8140,11886,16901,21511,24571,24614,22108,17697,12649,8471,5555,3306,2039,1263,757,435,296,162,91,48,35,21,13,11,10,5,0,0,0,0,0,0,1,0,0,0,0,0,0,0,0,0,0,0,1]}}